svm_type c_svc
kernel_type rbf
gamma 0.01
nr_class 2
total_sv 92
rho -0.0905598
label 1 -1
nr_sv 46 46
SV
1 1:1 2:0.107897 3:0.210119 4:0.404633 5:0.172239 6:0.307286 7:0.427005 8:0.470724 9:0.251613 10:0.157443 11:0.318625 12:0.570961 13:0.215572 14:0.50495 15:0.540165 16:0.431071 17:0.579679 18:0.405149 19:0.532534 20:0.382274 21:0.378314 22:0.432739 23:0.237 24:0.452914 25:0.29147 26:0.585082 27:0.490672 28:0.296657 29:0.386641 30:0.49215 31:0.428479 32:0.406188 33:0.136986 34:0.429466 35:0.241207 36:0.179975 37:0.524495 38:0.559079 39:0.555339 40:0.161167 41:0.590386 42:0.501788 43:0.283348 44:0.465585 45:0.440606 46:0.166685 47:0.311499 48:0.509205 49:0.661977 50:0.481142 51:0.572093 52:0.418688 53:0.5472 54:0.331577 55:0.525055 56:0.541056 57:0.52802 58:0.588995 59:0.594936 60:0.529552 61:0.412049 62:0.454954 63:0.450808 64:0.383247 65:0.515822 66:0.505684 67:0.54008 68:0.247631 69:0.510925 70:0.598502 71:0.431935 72:0.380885 73:0.522246 74:0.479818 75:0.425172 76:0.546585 77:0.456705 78:0.458495 79:0.374073 80:0.558737 81:0.399345 82:0.538327 83:0.137662 84:0.406203 85:0.544586 86:0.3269 87:0.487518 88:0.493585 89:0.517965 90:0.450634 91:0.548508 92:0.548342 93:0.484143 94:0.636549 95:0.52723 96:0.473038 97:0.47286 98:0.446071 99:0.34891 100:0.35583 
1 1:0.210119 2:0.148057 3:1 4:0.631888 5:0.197671 6:0.191827 7:0.186043 8:0.164823 9:0.364145 10:0.241733 11:0.385083 12:0.188891 13:0.274825 14:0.332133 15:0.525577 16:0.398464 17:0.216638 18:0.33362 19:0.260402 20:0.348739 21:0.159379 22:0.24265 23:0.441597 24:0.255544 25:0.138442 26:0.309839 27:0.191437 28:0.367086 29:0.144465 30:0.236884 31:0.42407 32:0.267917 33:0.200495 34:0.15873 35:0.339563 36:0.36574 37:0.318416 38:0.304039 39:0.22924 40:0.0841541 41:0.302387 42:0.226321 43:0.458526 44:0.17649 45:0.19174 46:0.328805 47:0.58966 48:0.489461 49:0.314863 50:0.195279 51:0.358101 52:0.294183 53:0.298066 54:0.250673 55:0.40708 56:0.317158 57:0.262692 58:0.365082 59:0.360721 60:0.266266 61:0.177186 62:0.301273 63:0.198304 64:0.166122 65:0.301751 66:0.387126 67:0.4022 68:0.145733 69:0.366407 70:0.307819 71:0.310796 72:0.303604 73:0.200509 74:0.28642 75:0.33989 76:0.232747 77:0.255263 78:0.27461 79:0.183457 80:0.348481 81:0.273871 82:0.458805 83:0.139561 84:0.39472 85:0.341692 86:0.167043 87:0.282702 88:0.236682 89:0.271265 90:0.260023 91:0.297439 92:0.299095 93:0.235789 94:0.309443 95:0.263182 96:0.425001 97:0.268284 98:0.257256 99:0.170513 100:0.198629 
1 1:0.404633 2:0.203031 3:0.631888 4:1 5:0.283151 6:0.266489 7:0.292195 8:0.282514 9:0.548523 10:0.230185 11:0.561787 12:0.317182 13:0.402322 14:0.476394 15:0.73386 16:0.504479 17:0.367134 18:0.417889 19:0.378216 20:0.463 21:0.269039 22:0.307953 23:0.355388 24:0.402561 25:0.16905 26:0.490005 27:0.267313 28:0.375927 29:0.255128 30:0.384284 31:0.472418 32:0.386611 33:0.193901 34:0.196986 35:0.308452 36:0.386727 37:0.49612 38:0.500232 39:0.340392 40:0.0906354 41:0.497793 42:0.358822 43:0.553643 44:0.261972 45:0.327639 46:0.272757 47:0.57292 48:0.623612 49:0.508381 50:0.358874 51:0.555092 52:0.500757 53:0.446424 54:0.360022 55:0.550228 56:0.510372 57:0.373499 58:0.531593 59:0.551091 60:0.381974 61:0.224425 62:0.510804 63:0.272903 64:0.289666 65:0.505655 66:0.591391 67:0.556137 68:0.23496 69:0.50596 70:0.492691 71:0.477992 72:0.387131 73:0.322986 74:0.379133 75:0.492721 76:0.406623 77:0.391984 78:0.401848 79:0.26764 80:0.534994 81:0.336972 82:0.59829 83:0.18373 84:0.576397 85:0.493837 86:0.260781 87:0.487312 88:0.476841 89:0.434348 90:0.464914 91:0.387039 92:0.440846 93:0.37443 94:0.5058 95:0.388647 96:0.565736 97:0.408274 98:0.464099 99:0.27702 100:0.329071 
1 1:0.172239 2:0.420483 3:0.197671 4:0.283151 5:1 6:0.18883 7:0.118607 8:0.205888 9:0.498628 10:0.252069 11:0.497666 12:0.190134 13:0.671763 14:0.244839 15:0.302784 16:0.294173 17:0.199552 18:0.236741 19:0.248556 20:0.29492 21:0.181547 22:0.234413 23:0.182524 24:0.227709 25:0.15034 26:0.234188 27:0.181953 28:0.207953 29:0.160322 30:0.181612 31:0.191635 32:0.170053 33:0.294274 34:0.129059 35:0.163916 36:0.413153 37:0.185118 38:0.236759 39:0.258875 40:0.073864 41:0.250028 42:0.257091 43:0.525854 44:0.222932 45:0.174388 46:0.339371 47:0.306355 48:0.23013 49:0.25181 50:0.203335 51:0.350832 52:0.349342 53:0.341767 54:0.200286 55:0.333391 56:0.281718 57:0.233931 58:0.308784 59:0.285128 60:0.257168 61:0.204946 62:0.360526 63:0.231153 64:0.192051 65:0.308819 66:0.342411 67:0.344799 68:0.156664 69:0.311083 70:0.265932 71:0.31942 72:0.251089 73:0.229957 74:0.325373 75:0.327973 76:0.282317 77:0.244523 78:0.280124 79:0.262817 80:0.295862 81:0.260698 82:0.289352 83:0.414193 84:0.3665 85:0.29905 86:0.211289 87:0.299935 88:0.22065 89:0.310433 90:0.235704 91:0.23646 92:0.249747 93:0.273207 94:0.341852 95:0.347906 96:0.399196 97:0.391046 98:0.26145 99:0.269341 100:0.206922 
1 1:0.307286 2:0.139109 3:0.191827 4:0.266489 5:0.18883 6:1 7:0.166101 8:0.261612 9:0.213068 10:0.146613 11:0.210205 12:0.286708 13:0.191187 14:0.273968 15:0.354432 16:0.220938 17:0.357308 18:0.306196 19:0.277057 20:0.190318 21:0.154577 22:0.292227 23:0.239548 24:0.294857 25:0.183317 26:0.357001 27:0.303788 28:0.222309 29:0.282336 30:0.310187 31:0.343746 32:0.22156 33:0.127073 34:0.315111 35:0.196533 36:0.187014 37:0.268964 38:0.359281 39:0.26012 40:0.114893 41:0.271302 42:0.218253 43:0.214909 44:0.205337 45:0.283615 46:0.151819 47:0.227414 48:0.322352 49:0.25464 50:0.308535 51:0.377397 52:0.262867 53:0.373017 54:0.300414 55:0.374099 56:0.293444 57:0.345528 58:0.402007 59:0.395292 60:0.35775 61:0.232198 62:0.242894 63:0.190608 64:0.41129 65:0.294301 66:0.352494 67:0.314469 68:0.216124 69:0.347036 70:0.387222 71:0.251235 72:0.439545 73:0.256486 74:0.30648 75:0.242062 76:0.433796 77:0.270849 78:0.288737 79:0.280336 80:0.371928 81:0.24683 82:0.349172 83:0.106924 84:0.264158 85:0.349533 86:0.276287 87:0.297752 88:0.316364 89:0.339048 90:0.277071 91:0.321438 92:0.472195 93:0.447826 94:0.307487 95:0.336314 96:0.333597 97:0.355229 98:0.254476 99:0.246345 100:0.266926 
1 1:0.427005 2:0.0733475 3:0.186043 4:0.292195 5:0.118607 6:0.166101 7:1 8:0.361586 9:0.204115 10:0.130602 11:0.266725 12:0.377597 13:0.147393 14:0.228801 15:0.361503 16:0.236291 17:0.355313 18:0.243846 19:0.287498 20:0.224029 21:0.366908 22:0.268842 23:0.204062 24:0.308898 25:0.190759 26:0.336735 27:0.261338 28:0.155683 29:0.349075 30:0.259234 31:0.192546 32:0.162112 33:0.113782 34:0.32108 35:0.116742 36:0.173566 37:0.310191 38:0.418479 39:0.315528 40:0.128033 41:0.315424 42:0.31027 43:0.234015 44:0.355527 45:0.271277 46:0.158354 47:0.239143 48:0.281452 49:0.293454 50:0.33519 51:0.399679 52:0.333799 53:0.500412 54:0.270778 55:0.39683 56:0.423865 57:0.415156 58:0.429444 59:0.51601 60:0.473079 61:0.197933 62:0.463473 63:0.345159 64:0.19241 65:0.431313 66:0.359764 67:0.486719 68:0.425345 69:0.441414 70:0.42425 71:0.42309 72:0.367231 73:0.367031 74:0.266933 75:0.451765 76:0.446496 77:0.351334 78:0.607851 79:0.250608 80:0.349813 81:0.216969 82:0.329787 83:0.152173 84:0.374136 85:0.462131 86:0.278818 87:0.324358 88:0.313837 89:0.485966 90:0.294635 91:0.382211 92:0.34378 93:0.344768 94:0.394028 95:0.416742 96:0.330705 97:0.375782 98:0.211395 99:0.367607 100:0.285995 
1 1:0.470724 2:0.131527 3:0.164823 4:0.282514 5:0.205888 6:0.261612 7:0.361586 8:1 9:0.252184 10:0.130446 11:0.306933 12:0.710032 13:0.218916 14:0.475173 15:0.434898 16:0.440851 17:0.535641 18:0.447837 19:0.415495 20:0.399163 21:0.650689 22:0.464885 23:0.253125 24:0.579355 25:0.268637 26:0.492627 27:0.459666 28:0.302336 29:0.346387 30:0.335543 31:0.369673 32:0.345119 33:0.114529 34:0.440019 35:0.254962 36:0.130505 37:0.480102 38:0.436513 39:0.599959 40:0.111526 41:0.516753 42:0.394049 43:0.287702 44:0.584458 45:0.374016 46:0.106389 47:0.311247 48:0.300773 49:0.464976 50:0.536004 51:0.483681 52:0.401745 53:0.531543 54:0.356891 55:0.431728 56:0.45186 57:0.341504 58:0.442211 59:0.493208 60:0.443956 61:0.223909 62:0.414553 63:0.385054 64:0.28532 65:0.454005 66:0.435724 67:0.514629 68:0.263566 69:0.479088 70:0.453432 71:0.416796 72:0.356594 73:0.37841 74:0.461922 75:0.433893 76:0.53858 77:0.580348 78:0.491431 79:0.423264 80:0.398331 81:0.503729 82:0.354517 83:0.218805 84:0.411397 85:0.489183 86:0.394709 87:0.405918 88:0.416887 89:0.463208 90:0.313016 91:0.466466 92:0.472412 93:0.434821 94:0.435219 95:0.490092 96:0.48324 97:0.423622 98:0.317173 99:0.407048 100:0.573099 
1 1:0.251613 2:0.3819 3:0.364145 4:0.548523 5:0.498628 6:0.213068 7:0.204115 8:0.252184 9:1 10:0.305535 11:0.710859 12:0.234342 13:0.749754 14:0.32868 15:0.486771 16:0.434291 17:0.297661 18:0.399661 19:0.296671 20:0.399063 21:0.237249 22:0.25374 23:0.286817 24:0.320409 25:0.183286 26:0.37621 27:0.238624 28:0.405574 29:0.207325 30:0.220007 31:0.319457 32:0.251707 33:0.438364 34:0.129701 35:0.264516 36:0.615893 37:0.341161 38:0.445344 39:0.285316 40:0.0785751 41:0.353561 42:0.419155 43:0.759428 44:0.219824 45:0.262238 46:0.43047 47:0.48044 48:0.356354 49:0.29136 50:0.304918 51:0.43022 52:0.407209 53:0.387709 54:0.368446 55:0.415811 56:0.337179 57:0.279629 58:0.386027 59:0.357439 60:0.320268 61:0.21089 62:0.421182 63:0.274903 64:0.248986 65:0.419984 66:0.439875 67:0.449083 68:0.189604 69:0.380462 70:0.333666 71:0.417552 72:0.297954 73:0.275639 74:0.345454 75:0.436864 76:0.324022 77:0.347311 78:0.396732 79:0.294673 80:0.39604 81:0.289201 82:0.397345 83:0.3652 84:0.477399 85:0.368722 86:0.201762 87:0.42504 88:0.34732 89:0.359917 90:0.323383 91:0.252549 92:0.36217 93:0.363151 94:0.418304 95:0.354888 96:0.490839 97:0.400051 98:0.285913 99:0.271497 100:0.283269 
1 1:0.157443 2:0.331675 3:0.241733 4:0.230185 5:0.252069 6:0.146613 7:0.130602 8:0.130446 9:0.305535 10:1 11:0.421572 12:0.125764 13:0.238216 14:0.132209 15:0.248162 16:0.275229 17:0.174758 18:0.192443 19:0.190702 20:0.229851 21:0.129335 22:0.144444 23:0.196329 24:0.139156 25:0.101586 26:0.183325 27:0.135458 28:0.21759 29:0.134494 30:0.124313 31:0.157577 32:0.128928 33:0.357237 34:0.0852065 35:0.285339 36:0.42166 37:0.165142 38:0.227222 39:0.133851 40:0.0897354 41:0.198242 42:0.272435 43:0.488628 44:0.120666 45:0.15748 46:0.507447 47:0.221527 48:0.176711 49:0.152686 50:0.136037 51:0.278744 52:0.263203 53:0.303893 54:0.211998 55:0.3625 56:0.290593 57:0.233196 58:0.286793 59:0.231861 60:0.2424 61:0.232994 62:0.242203 63:0.256092 64:0.204873 65:0.268934 66:0.249755 67:0.230075 68:0.153891 69:0.246354 70:0.255133 71:0.255054 72:0.313252 73:0.215484 74:0.263255 75:0.243397 76:0.277232 77:0.217606 78:0.24031 79:0.207164 80:0.245702 81:0.149584 82:0.347083 83:0.190693 84:0.265019 85:0.254871 86:0.116111 87:0.305273 88:0.196102 89:0.225569 90:0.205954 91:0.22989 92:0.261978 93:0.270656 94:0.311105 95:0.305334 96:0.280708 97:0.284312 98:0.183525 99:0.200318 100:0.159172 
1 1:0.318625 2:0.451831 3:0.385083 4:0.561787 5:0.497666 6:0.210205 7:0.266725 8:0.306933 9:0.710859 10:0.421572 11:1 12:0.263018 13:0.651887 14:0.356722 15:0.528841 16:0.588433 17:0.302575 18:0.413485 19:0.362913 20:0.524422 21:0.291146 22:0.261555 23:0.327246 24:0.351602 25:0.161676 26:0.398146 27:0.251714 28:0.426581 29:0.297253 30:0.272416 31:0.34568 32:0.333258 33:0.455893 34:0.162725 35:0.338245 36:0.582301 37:0.371435 38:0.435844 39:0.308656 40:0.122327 41:0.383109 42:0.420988 43:0.798715 44:0.278882 45:0.284292 46:0.444638 47:0.465238 48:0.37838 49:0.347264 50:0.282645 51:0.47149 52:0.416049 53:0.496537 54:0.296275 55:0.505146 56:0.425604 57:0.342207 58:0.463802 59:0.468975 60:0.343624 61:0.27542 62:0.440771 63:0.34156 64:0.241724 65:0.438791 66:0.47649 67:0.516197 68:0.24788 69:0.438388 70:0.388118 71:0.496856 72:0.370626 73:0.341816 74:0.406782 75:0.446684 76:0.406174 77:0.353789 78:0.4507 79:0.288961 80:0.414962 81:0.284833 82:0.44087 83:0.36333 84:0.517704 85:0.437171 86:0.254955 87:0.422012 88:0.309991 89:0.426488 90:0.3431 91:0.324739 92:0.386143 93:0.356159 94:0.51196 95:0.45568 96:0.549722 97:0.464717 98:0.339274 99:0.291834 100:0.314541 
1 1:0.570961 2:0.109618 3:0.188891 4:0.317182 5:0.190134 6:0.286708 7:0.377597 8:0.710032 9:0.234342 10:0.125764 11:0.263018 12:1 13:0.192924 14:0.46981 15:0.493209 16:0.402835 17:0.715011 18:0.375547 19:0.579916 20:0.381434 21:0.466226 22:0.628798 23:0.242575 24:0.634641 25:0.39698 26:0.5518 27:0.627954 28:0.240409 29:0.39175 30:0.404594 31:0.357671 32:0.343518 33:0.100907 34:0.458405 35:0.214506 36:0.139154 37:0.539506 38:0.602877 39:0.568161 40:0.153377 41:0.610947 42:0.52395 43:0.249132 44:0.59588 45:0.532165 46:0.115584 47:0.292406 48:0.311317 49:0.602951 50:0.72737 51:0.466049 52:0.408543 53:0.507957 54:0.521352 55:0.493475 56:0.478255 57:0.451601 58:0.487819 59:0.524334 60:0.48234 61:0.378112 62:0.408502 63:0.458209 64:0.45509 65:0.45622 66:0.419744 67:0.499975 68:0.288252 69:0.511136 70:0.491813 71:0.389349 72:0.425814 73:0.540556 74:0.582634 75:0.400936 76:0.578243 77:0.69324 78:0.498167 79:0.497014 80:0.406826 81:0.643678 82:0.386767 83:0.18954 84:0.417818 85:0.489112 86:0.43462 87:0.451138 88:0.414619 89:0.453559 90:0.284987 91:0.407861 92:0.557807 93:0.593361 94:0.549746 95:0.439363 96:0.399326 97:0.43312 98:0.292918 99:0.528878 100:0.562509 
1 1:0.215572 2:0.40246 3:0.274825 4:0.402322 5:0.671763 6:0.191187 7:0.147393 8:0.218916 9:0.749754 10:0.238216 11:0.651887 12:0.192924 13:1 14:0.258216 15:0.393315 16:0.347311 17:0.223917 18:0.312859 19:0.271092 20:0.333561 21:0.190491 22:0.228058 23:0.227491 24:0.246302 25:0.13378 26:0.284418 27:0.192185 28:0.286957 29:0.190821 30:0.210478 31:0.250979 32:0.208558 33:0.474175 34:0.124197 35:0.213814 36:0.553055 37:0.211632 38:0.330552 39:0.256418 40:0.0795316 41:0.277902 42:0.280985 43:0.679813 44:0.210689 45:0.21218 46:0.431804 47:0.393879 48:0.302305 49:0.262692 50:0.228775 51:0.386182 52:0.342684 53:0.341715 54:0.210289 55:0.331452 56:0.285195 57:0.245646 58:0.340311 59:0.298961 60:0.272831 61:0.193617 62:0.392503 63:0.217206 64:0.171503 65:0.341405 66:0.374878 67:0.422493 68:0.144433 69:0.336225 70:0.302909 71:0.360424 72:0.239895 73:0.226637 74:0.298821 75:0.360487 76:0.255134 77:0.278098 78:0.301942 79:0.224471 80:0.352549 81:0.27891 82:0.327682 83:0.403791 84:0.415596 85:0.319473 86:0.190796 87:0.319664 88:0.257529 89:0.338884 90:0.291651 91:0.22965 92:0.27737 93:0.253775 94:0.326634 95:0.321084 96:0.447504 97:0.392885 98:0.263901 99:0.222509 100:0.214335 
1 1:0.50495 2:0.126366 3:0.332133 4:0.476394 5:0.244839 6:0.273968 7:0.228801 8:0.475173 9:0.32868 10:0.132209 11:0.356722 12:0.46981 13:0.258216 14:1 15:0.554135 16:0.673043 17:0.438488 18:0.602261 19:0.441569 20:0.618914 21:0.438325 22:0.345266 23:0.347986 24:0.537872 25:0.221586 26:0.641305 27:0.412712 28:0.491646 29:0.293111 30:0.519256 31:0.738728 32:0.780446 33:0.11641 34:0.398327 35:0.337284 36:0.167333 37:0.685928 38:0.444789 39:0.653892 40:0.0941103 41:0.567595 42:0.36951 43:0.320736 44:0.492424 45:0.282099 46:0.14582 47:0.473367 48:0.543171 49:0.618091 50:0.392734 51:0.475487 52:0.344454 53:0.434798 54:0.307093 55:0.491376 56:0.419047 57:0.33998 58:0.45775 59:0.49553 60:0.374819 61:0.266158 62:0.37013 63:0.417793 64:0.306728 65:0.368717 66:0.505892 67:0.492437 68:0.161343 69:0.452629 70:0.419375 71:0.373405 72:0.346383 73:0.341633 74:0.427061 75:0.365185 76:0.474382 77:0.470345 78:0.322441 79:0.337437 80:0.431926 81:0.42752 82:0.453561 83:0.145387 84:0.406383 85:0.435771 86:0.303588 87:0.460513 88:0.437479 89:0.388909 90:0.303459 91:0.453679 92:0.463121 93:0.401469 94:0.51315 95:0.418192 96:0.50319 97:0.379728 98:0.39304 99:0.296206 100:0.362651 
1 1:0.540165 2:0.224303 3:0.525577 4:0.73386 5:0.302784 6:0.354432 7:0.361503 8:0.434898 9:0.486771 10:0.248162 11:0.528841 12:0.493209 13:0.393315 14:0.554135 15:1 16:0.588538 17:0.494914 18:0.508981 19:0.465457 20:0.509242 21:0.319749 22:0.457163 23:0.383739 24:0.495204 25:0.261148 26:0.60862 27:0.424907 28:0.439948 29:0.335354 30:0.484519 31:0.558937 32:0.429144 33:0.239403 34:0.386807 35:0.342974 36:0.372267 37:0.521976 38:0.608791 39:0.516812 40:0.187865 41:0.555937 42:0.534909 43:0.512123 44:0.393484 45:0.388767 46:0.295539 47:0.56494 48:0.64703 49:0.543368 50:0.461573 51:0.687195 52:0.526049 53:0.629277 54:0.48118 55:0.709946 56:0.656454 57:0.530772 58:0.704053 59:0.704143 60:0.564613 61:0.295765 62:0.543791 63:0.377915 64:0.306059 65:0.593519 66:0.655474 67:0.684199 68:0.293632 69:0.660234 70:0.669437 71:0.552104 72:0.582378 73:0.433891 74:0.517128 75:0.542379 76:0.531514 77:0.478855 78:0.510422 79:0.360355 80:0.657103 81:0.4507 82:0.679281 83:0.197648 84:0.585369 85:0.657274 86:0.454143 87:0.586514 88:0.523961 89:0.592772 90:0.444481 91:0.524722 92:0.510098 93:0.465022 94:0.615369 95:0.55492 96:0.629547 97:0.57394 98:0.486709 99:0.401692 100:0.469297 
1 1:0.431071 2:0.269402 3:0.398464 4:0.504479 5:0.294173 6:0.220938 7:0.236291 8:0.440851 9:0.434291 10:0.275229 11:0.588433 12:0.402835 13:0.347311 14:0.673043 15:0.588538 16:1 17:0.346305 18:0.585463 19:0.396066 20:0.867352 21:0.47558 22:0.301001 23:0.487191 24:0.453851 25:0.188569 26:0.495969 27:0.334989 28:0.56234 29:0.283896 30:0.425167 31:0.638938 32:0.68617 33:0.256863 34:0.284979 35:0.51097 36:0.281748 37:0.564438 38:0.396855 39:0.517849 40:0.0871062 41:0.462232 42:0.416723 43:0.457966 44:0.455901 45:0.263222 46:0.235401 47:0.595468 48:0.372383 49:0.516415 50:0.327146 51:0.4447 52:0.367617 53:0.4538 54:0.310553 55:0.520054 56:0.407299 57:0.299741 58:0.417788 59:0.441541 60:0.344034 61:0.31163 62:0.343197 63:0.441548 64:0.251497 65:0.367591 66:0.455217 67:0.450484 68:0.158795 69:0.394201 70:0.346905 71:0.37841 72:0.378618 73:0.326905 74:0.439623 75:0.346273 76:0.463377 77:0.426262 78:0.352686 79:0.319293 80:0.384597 81:0.394202 82:0.444806 83:0.217657 84:0.391526 85:0.384395 86:0.259862 87:0.412478 88:0.299648 89:0.337983 90:0.270064 91:0.368662 92:0.439176 93:0.38733 94:0.540687 95:0.415406 96:0.493541 97:0.358638 98:0.321832 99:0.352916 100:0.401243 
1 1:0.579679 2:0.148907 3:0.216638 4:0.367134 5:0.199552 6:0.357308 7:0.355313 8:0.535641 9:0.297661 10:0.174758 11:0.302575 12:0.715011 13:0.223917 14:0.438488 15:0.494914 16:0.346305 17:1 18:0.365504 19:0.537305 20:0.309383 21:0.347094 22:0.666255 23:0.231573 24:0.639206 25:0.490202 26:0.684626 27:0.582797 28:0.286172 29:0.424546 30:0.485493 31:0.338894 32:0.324068 33:0.120034 34:0.401669 35:0.218106 36:0.186507 37:0.526816 38:0.751921 39:0.55429 40:0.205108 41:0.621797 42:0.602541 43:0.297659 44:0.395033 45:0.602912 46:0.15173 47:0.229803 48:0.347873 49:0.551264 50:0.877577 51:0.523662 52:0.467753 53:0.559568 54:0.563478 55:0.560723 56:0.550723 57:0.50682 58:0.577284 59:0.570663 60:0.481411 61:0.39734 62:0.432436 63:0.472848 64:0.610127 65:0.520078 66:0.462325 67:0.607923 68:0.363293 69:0.616348 70:0.619539 71:0.458513 72:0.477205 73:0.602963 74:0.618083 75:0.452261 76:0.628799 77:0.683621 78:0.480197 79:0.544362 80:0.505198 81:0.557493 82:0.454522 83:0.234023 84:0.490925 85:0.597978 86:0.517568 87:0.582338 88:0.59426 89:0.54722 90:0.385591 91:0.442751 92:0.671123 93:0.657182 94:0.619457 95:0.500549 96:0.440325 97:0.528279 98:0.388097 99:0.53045 100:0.486287 
1 1:0.405149 2:0.206942 3:0.33362 4:0.417889 5:0.236741 6:0.306196 7:0.243846 8:0.447837 9:0.399661 10:0.192443 11:0.413485 12:0.375547 13:0.312859 14:0.602261 15:0.508981 16:0.585463 17:0.365504 18:1 19:0.296319 20:0.623971 21:0.378517 22:0.340338 23:0.589836 24:0.471112 25:0.23814 26:0.478454 27:0.280142 28:0.704108 29:0.236434 30:0.378351 31:0.61301 32:0.614222 33:0.256468 34:0.414399 35:0.526484 36:0.22577 37:0.430477 38:0.40466 39:0.438729 40:0.0905179 41:0.446879 42:0.305326 43:0.3793 44:0.385135 45:0.265334 46:0.207195 47:0.538901 48:0.447389 49:0.443852 50:0.354938 51:0.538591 52:0.391387 53:0.431188 54:0.34635 55:0.469227 56:0.444354 57:0.297335 58:0.421603 59:0.459551 60:0.446573 61:0.279271 62:0.311608 63:0.427566 64:0.246489 65:0.381295 66:0.548011 67:0.488823 68:0.186151 69:0.425619 70:0.385538 71:0.374016 72:0.443137 73:0.307197 74:0.367902 75:0.370908 76:0.449408 77:0.461263 78:0.317924 79:0.349934 80:0.43071 81:0.405718 82:0.46548 83:0.23535 84:0.457383 85:0.419363 86:0.309367 87:0.351683 88:0.354063 89:0.345482 90:0.299862 91:0.338928 92:0.432663 93:0.415766 94:0.373118 95:0.36451 96:0.515725 97:0.339056 98:0.347767 99:0.290156 100:0.337167 
1 1:0.532534 2:0.120453 3:0.260402 4:0.378216 5:0.248556 6:0.277057 7:0.287498 8:0.415495 9:0.296671 10:0.190702 11:0.362913 12:0.579916 13:0.271092 14:0.441569 15:0.465457 16:0.396066 17:0.537305 18:0.296319 19:1 20:0.378044 21:0.35506 22:0.5424 23:0.202264 24:0.48126 25:0.383091 26:0.484513 27:0.627178 28:0.241592 29:0.483453 30:0.35025 31:0.322671 32:0.315289 33:0.136852 34:0.219984 35:0.224229 36:0.221355 37:0.440272 38:0.524018 39:0.510983 40:0.190694 41:0.612689 42:0.494105 43:0.378068 44:0.402761 45:0.558971 46:0.202527 47:0.328896 48:0.403147 49:0.584177 50:0.4938 51:0.441289 52:0.364046 53:0.461224 54:0.385881 55:0.420246 56:0.377342 57:0.411036 58:0.437037 59:0.456854 60:0.360814 61:0.553569 62:0.449809 63:0.443483 64:0.449693 65:0.379937 66:0.441204 67:0.474668 68:0.220803 69:0.41923 70:0.446384 71:0.41999 72:0.334324 73:0.538451 74:0.569723 75:0.407581 76:0.437339 77:0.590938 78:0.376265 79:0.499051 80:0.397963 81:0.539731 82:0.418244 83:0.161926 84:0.397019 85:0.42218 86:0.287458 87:0.397755 88:0.439299 89:0.424882 90:0.408854 91:0.410717 92:0.522686 93:0.543586 94:0.547367 95:0.436044 96:0.504497 97:0.413675 98:0.359638 99:0.369825 100:0.404111 
1 1:0.382274 2:0.194121 3:0.348739 4:0.463 5:0.29492 6:0.190318 7:0.224029 8:0.399163 9:0.399063 10:0.229851 11:0.524422 12:0.381434 13:0.333561 14:0.618914 15:0.509242 16:0.867352 17:0.309383 18:0.623971 19:0.378044 20:1 21:0.46576 22:0.296662 23:0.491502 24:0.431327 25:0.185493 26:0.457863 27:0.308221 28:0.436134 29:0.267338 30:0.409718 31:0.510899 32:0.627157 33:0.250995 34:0.26583 35:0.531144 36:0.280282 37:0.470947 38:0.366311 39:0.477455 40:0.0779039 41:0.455585 42:0.371608 43:0.436891 44:0.445835 45:0.243896 46:0.232322 47:0.60428 48:0.325368 49:0.518167 50:0.303596 51:0.424259 52:0.350285 53:0.420631 54:0.305346 55:0.425865 56:0.387421 57:0.281466 58:0.379408 59:0.424352 60:0.329167 61:0.31952 62:0.32991 63:0.461024 64:0.236706 65:0.297553 66:0.437707 67:0.41755 68:0.147389 69:0.362857 70:0.307473 71:0.355534 72:0.3656 73:0.311348 74:0.40267 75:0.319909 76:0.436029 77:0.436735 78:0.313525 79:0.309937 80:0.318737 81:0.408406 82:0.383364 83:0.207115 84:0.380346 85:0.340217 86:0.239532 87:0.319592 88:0.261792 89:0.307974 90:0.247567 91:0.317579 92:0.40341 93:0.381304 94:0.450507 95:0.348818 96:0.415732 97:0.310583 98:0.294521 99:0.353373 100:0.376438 
1 1:0.378314 2:0.109908 3:0.159379 4:0.269039 5:0.181547 6:0.154577 7:0.366908 8:0.650689 9:0.237249 10:0.129335 11:0.291146 12:0.466226 13:0.190491 14:0.438325 15:0.319749 16:0.47558 17:0.347094 18:0.378517 19:0.35506 20:0.46576 21:1 22:0.269963 23:0.24588 24:0.380656 25:0.170244 26:0.379481 27:0.286926 28:0.253553 29:0.307096 30:0.324377 31:0.30097 32:0.342242 33:0.110401 34:0.265081 35:0.291947 36:0.127924 37:0.410604 38:0.304572 39:0.523883 40:0.0544669 41:0.383151 42:0.316316 43:0.280219 44:0.498878 45:0.235604 46:0.100679 47:0.312579 48:0.223419 49:0.396877 50:0.336872 51:0.364579 52:0.343243 53:0.39812 54:0.24384 55:0.307847 56:0.327291 57:0.23016 58:0.30484 59:0.363645 60:0.293366 61:0.21316 62:0.428983 63:0.366004 64:0.220504 65:0.34163 66:0.349823 67:0.416688 68:0.186358 69:0.345531 70:0.305526 71:0.410488 72:0.258959 73:0.290884 74:0.348501 75:0.406141 76:0.467754 77:0.464479 78:0.383674 79:0.269149 80:0.286487 81:0.357812 82:0.284926 83:0.192179 84:0.355069 85:0.348408 86:0.249027 87:0.296322 88:0.317186 89:0.38249 90:0.277767 91:0.35554 92:0.36257 93:0.328413 94:0.36346 95:0.400374 96:0.393301 97:0.316315 98:0.25205 99:0.387105 100:0.427086 
1 1:0.432739 2:0.147747 3:0.24265 4:0.307953 5:0.234413 6:0.292227 7:0.268842 8:0.464885 9:0.25374 10:0.144444 11:0.261555 12:0.628798 13:0.228058 14:0.345266 15:0.457163 16:0.301001 17:0.666255 18:0.340338 19:0.5424 20:0.296662 21:0.269963 22:1 23:0.28356 24:0.608053 25:0.690092 26:0.423265 27:0.512149 28:0.270181 29:0.31277 30:0.328607 31:0.299499 32:0.2597 33:0.135236 34:0.343664 35:0.226912 36:0.172059 37:0.356618 38:0.496389 39:0.437182 40:0.178023 41:0.659278 42:0.437423 43:0.281153 44:0.352651 45:0.557817 46:0.1557 47:0.279029 48:0.325423 49:0.555617 50:0.722666 51:0.445854 52:0.429386 53:0.426626 54:0.462359 55:0.468573 56:0.439665 57:0.469062 58:0.485094 59:0.448814 60:0.431205 61:0.397836 62:0.395142 63:0.374157 64:0.431359 65:0.420813 66:0.380704 67:0.527315 68:0.226987 69:0.491332 70:0.502112 71:0.378493 72:0.370921 73:0.536503 74:0.539884 75:0.390602 76:0.398603 77:0.636095 78:0.349665 79:0.629033 80:0.42506 81:0.711098 82:0.410005 83:0.238421 84:0.432061 85:0.484211 86:0.406012 87:0.400403 88:0.382806 89:0.436121 90:0.32404 91:0.375937 92:0.512183 93:0.537889 94:0.49428 95:0.403349 96:0.399551 97:0.414537 98:0.317852 99:0.447623 100:0.406651 
0.5105847113866282 1:0.237 2:0.197775 3:0.441597 4:0.355388 5:0.182524 6:0.239548 7:0.204062 8:0.253125 9:0.286817 10:0.196329 11:0.327246 12:0.242575 13:0.227491 14:0.347986 15:0.383739 16:0.487191 17:0.231573 18:0.589836 19:0.202264 20:0.491502 21:0.24588 22:0.28356 23:1 24:0.301963 25:0.188461 26:0.288693 27:0.191078 28:0.471351 29:0.148114 30:0.27311 31:0.546356 32:0.439529 33:0.28834 34:0.308008 35:0.536295 36:0.251884 37:0.267633 38:0.268425 39:0.266596 40:0.0814255 41:0.291332 42:0.199823 43:0.318666 44:0.264424 45:0.183647 46:0.228688 47:0.515001 48:0.283234 49:0.304516 50:0.228249 51:0.327812 52:0.307673 53:0.30455 54:0.279195 55:0.350876 56:0.294155 57:0.238775 58:0.303002 59:0.332778 60:0.279737 61:0.198858 62:0.216348 63:0.270244 64:0.171206 65:0.271561 66:0.325604 67:0.340046 68:0.162956 69:0.30931 70:0.282093 71:0.257783 72:0.39236 73:0.217081 74:0.277989 75:0.248595 76:0.275102 77:0.302892 78:0.26474 79:0.241713 80:0.287238 81:0.326932 82:0.36831 83:0.206589 84:0.347967 85:0.300896 86:0.225231 87:0.220359 88:0.195931 89:0.24176 90:0.220039 91:0.242765 92:0.329603 93:0.283819 94:0.257408 95:0.249357 96:0.34778 97:0.261429 98:0.1824 99:0.222171 100:0.247839 
1 1:0.452914 2:0.145166 3:0.255544 4:0.402561 5:0.227709 6:0.294857 7:0.308898 8:0.579355 9:0.320409 10:0.139156 11:0.351602 12:0.634641 13:0.246302 14:0.537872 15:0.495204 16:0.453851 17:0.639206 18:0.471112 19:0.48126 20:0.431327 21:0.380656 22:0.608053 23:0.301963 24:1 25:0.361522 26:0.509012 27:0.502548 28:0.368637 29:0.329562 30:0.355056 31:0.437926 32:0.426095 33:0.127981 34:0.328732 35:0.252788 36:0.160339 37:0.561618 38:0.561199 39:0.475364 40:0.0993561 41:0.611865 42:0.424356 43:0.308507 44:0.404387 45:0.442922 46:0.134488 47:0.327867 48:0.387965 49:0.600582 50:0.672784 51:0.489325 52:0.444237 53:0.461093 54:0.463603 55:0.542745 56:0.460181 57:0.461048 58:0.525792 59:0.513981 60:0.452378 61:0.284883 62:0.441475 63:0.382539 64:0.435688 65:0.431557 66:0.468972 67:0.556992 68:0.22198 69:0.518183 70:0.467213 71:0.419668 72:0.354156 73:0.458875 74:0.494546 75:0.430878 76:0.485703 77:0.638751 78:0.401769 79:0.43812 80:0.452351 81:0.474327 82:0.423729 83:0.237192 84:0.478582 85:0.505563 86:0.361005 87:0.480073 88:0.441386 89:0.438148 90:0.329813 91:0.38186 92:0.569373 93:0.520696 94:0.577693 95:0.444857 96:0.466873 97:0.414635 98:0.383945 99:0.423461 100:0.390291 
1 1:0.29147 2:0.0969986 3:0.138442 4:0.16905 5:0.15034 6:0.183317 7:0.190759 8:0.268637 9:0.183286 10:0.101586 11:0.161676 12:0.39698 13:0.13378 14:0.221586 15:0.261148 16:0.188569 17:0.490202 18:0.23814 19:0.383091 20:0.185493 21:0.170244 22:0.690092 23:0.188461 24:0.361522 25:1 26:0.292172 27:0.338041 28:0.218055 29:0.231104 30:0.187238 31:0.176162 32:0.167775 33:0.0916313 34:0.244365 35:0.137741 36:0.108831 37:0.220878 38:0.349938 39:0.325006 40:0.157217 41:0.405477 42:0.337389 43:0.166363 44:0.263354 45:0.373355 46:0.101845 47:0.172249 48:0.165291 49:0.316854 50:0.515206 51:0.277729 52:0.253305 53:0.290487 54:0.326612 55:0.30182 56:0.279629 57:0.28696 58:0.288539 59:0.272993 60:0.263772 61:0.408244 62:0.238739 63:0.347371 64:0.294418 65:0.27064 66:0.220908 67:0.326814 68:0.182019 69:0.309127 70:0.301915 71:0.263694 72:0.258816 73:0.441223 74:0.375189 75:0.248178 76:0.259132 77:0.487604 78:0.232051 79:0.653389 80:0.263928 81:0.406795 82:0.24982 83:0.163161 84:0.252131 85:0.301303 86:0.346417 87:0.258205 88:0.243499 89:0.292916 90:0.194268 91:0.243713 92:0.312553 93:0.424222 94:0.347306 95:0.27049 96:0.237628 97:0.268297 98:0.200946 99:0.356041 100:0.271756 
1 1:0.585082 2:0.149754 3:0.309839 4:0.490005 5:0.234188 6:0.357001 7:0.336735 8:0.492627 9:0.37621 10:0.183325 11:0.398146 12:0.5518 13:0.284418 14:0.641305 15:0.60862 16:0.495969 17:0.684626 18:0.478454 19:0.484513 20:0.457863 21:0.379481 22:0.423265 23:0.288693 24:0.509012 25:0.292172 26:1 27:0.561488 28:0.38082 29:0.384583 30:0.699406 31:0.518356 32:0.482684 33:0.1381 34:0.44139 35:0.311108 36:0.235335 37:0.675708 38:0.748553 39:0.65157 40:0.237965 41:0.590482 42:0.559192 43:0.366104 44:0.475085 45:0.490107 46:0.179665 47:0.352993 48:0.484471 49:0.539895 50:0.578076 51:0.561447 52:0.423043 53:0.602872 54:0.4891 55:0.603954 56:0.568662 57:0.504621 58:0.63901 59:0.691456 60:0.481303 61:0.319081 62:0.432066 63:0.46701 64:0.453699 65:0.481122 66:0.542882 67:0.647097 68:0.322264 69:0.639592 70:0.585828 71:0.501565 72:0.495797 73:0.477336 74:0.609214 75:0.455859 76:0.592577 77:0.549402 78:0.503336 79:0.412231 80:0.506611 81:0.488761 82:0.498031 83:0.18599 84:0.488734 85:0.59308 86:0.444241 87:0.597467 88:0.562586 89:0.551872 90:0.362042 91:0.530571 92:0.610585 93:0.546213 94:0.625717 95:0.526214 96:0.504215 97:0.544831 98:0.410013 99:0.418617 100:0.483333 
1 1:0.490672 2:0.0980235 3:0.191437 4:0.267313 5:0.181953 6:0.303788 7:0.261338 8:0.459666 9:0.238624 10:0.135458 11:0.251714 12:0.627954 13:0.192185 14:0.412712 15:0.424907 16:0.334989 17:0.582797 18:0.280142 19:0.627178 20:0.308221 21:0.286926 22:0.512149 23:0.191078 24:0.502548 25:0.338041 26:0.561488 27:1 28:0.23479 29:0.423185 30:0.372737 31:0.324803 32:0.283357 33:0.107118 34:0.329771 35:0.200166 36:0.15903 37:0.511611 38:0.598962 39:0.540944 40:0.241322 41:0.49953 42:0.5225 43:0.252856 44:0.393107 45:0.416318 46:0.138204 47:0.244632 48:0.32191 49:0.445366 50:0.49722 51:0.384045 52:0.278302 53:0.473804 54:0.537266 55:0.424135 56:0.366702 57:0.476204 58:0.45329 59:0.478776 60:0.390791 61:0.36573 62:0.316505 63:0.455619 64:0.471579 65:0.333412 66:0.343181 67:0.404749 68:0.210465 69:0.406419 70:0.425693 71:0.311097 72:0.341958 73:0.455208 74:0.593077 75:0.302511 76:0.451724 77:0.526294 78:0.370655 79:0.3923 80:0.338379 81:0.503579 82:0.32675 83:0.126887 84:0.285097 85:0.38854 86:0.313161 87:0.387537 88:0.382579 89:0.388696 90:0.282534 91:0.401414 92:0.502678 93:0.579335 94:0.542291 95:0.385854 96:0.38786 97:0.373064 98:0.247267 99:0.412241 100:0.371293 
1 1:0.296657 2:0.317801 3:0.367086 4:0.375927 5:0.207953 6:0.222309 7:0.155683 8:0.302336 9:0.405574 10:0.21759 11:0.426581 12:0.240409 13:0.286957 14:0.491646 15:0.439948 16:0.56234 17:0.286172 18:0.704108 19:0.241592 20:0.436134 21:0.253553 22:0.270181 23:0.471351 24:0.368637 25:0.218055 26:0.38082 27:0.23479 28:1 29:0.189595 30:0.281295 31:0.561304 32:0.540501 33:0.239217 34:0.241635 35:0.492254 36:0.185759 37:0.405416 38:0.331953 39:0.328214 40:0.0842678 41:0.362564 42:0.264978 43:0.356156 44:0.256202 45:0.20196 46:0.179001 47:0.413341 48:0.367613 49:0.326398 50:0.265082 51:0.391964 52:0.302284 53:0.314034 54:0.258572 55:0.42778 56:0.324944 57:0.223154 58:0.330579 59:0.330022 60:0.280775 61:0.231088 62:0.244379 63:0.336984 64:0.196754 65:0.317688 66:0.389383 67:0.388384 68:0.124842 69:0.314507 70:0.293097 71:0.297196 72:0.29009 73:0.249475 74:0.324499 75:0.288107 76:0.299059 77:0.339623 78:0.218422 79:0.291713 80:0.377179 81:0.294921 82:0.404512 83:0.199629 84:0.345405 85:0.33095 86:0.223269 87:0.330924 88:0.280018 89:0.262452 90:0.239486 91:0.280125 92:0.331295 93:0.315932 94:0.380685 95:0.294771 96:0.475659 97:0.264303 98:0.297496 99:0.219146 100:0.235341 
1 1:0.386641 2:0.0993123 3:0.144465 4:0.255128 5:0.160322 6:0.282336 7:0.349075 8:0.346387 9:0.207325 10:0.134494 11:0.297253 12:0.39175 13:0.190821 14:0.293111 15:0.335354 16:0.283896 17:0.424546 18:0.236434 19:0.483453 20:0.267338 21:0.307096 22:0.31277 23:0.148114 24:0.329562 25:0.231104 26:0.384583 27:0.423185 28:0.189595 29:1 30:0.279002 31:0.21881 32:0.266552 33:0.110177 34:0.206142 35:0.155946 36:0.157709 37:0.327372 38:0.433355 39:0.31302 40:0.17786 41:0.338917 42:0.344439 43:0.239866 44:0.272128 45:0.343843 46:0.136027 47:0.202202 48:0.237255 49:0.290883 50:0.366668 51:0.322111 52:0.210755 53:0.348909 54:0.248796 55:0.281063 56:0.2918 57:0.275398 58:0.315833 59:0.350993 60:0.264162 61:0.315457 62:0.364105 63:0.481175 64:0.280367 65:0.290205 66:0.276387 67:0.384838 68:0.299706 69:0.314545 70:0.348464 71:0.316136 72:0.276867 73:0.422182 74:0.385143 75:0.302345 76:0.434314 77:0.47073 78:0.282583 79:0.363401 80:0.302391 81:0.280257 82:0.267315 83:0.104501 84:0.25065 85:0.31488 86:0.329702 87:0.232859 88:0.247292 89:0.404054 90:0.257069 91:0.313046 92:0.407737 93:0.444826 94:0.377742 95:0.294815 96:0.286833 97:0.272541 98:0.257055 99:0.400654 100:0.373917 
1 1:0.49215 2:0.128399 3:0.236884 4:0.384284 5:0.181612 6:0.310187 7:0.259234 8:0.335543 9:0.220007 10:0.124313 11:0.272416 12:0.404594 13:0.210478 14:0.519256 15:0.484519 16:0.425167 17:0.485493 18:0.378351 19:0.35025 20:0.409718 21:0.324377 22:0.328607 23:0.27311 24:0.355056 25:0.187238 26:0.699406 27:0.372737 28:0.281295 29:0.279002 30:1 31:0.439385 32:0.454753 33:0.103092 34:0.42447 35:0.31638 36:0.155446 37:0.473341 38:0.525639 39:0.546286 40:0.165811 41:0.490274 42:0.326532 43:0.231467 44:0.405203 45:0.333766 46:0.119422 47:0.271766 48:0.365888 49:0.512902 50:0.394163 51:0.449873 52:0.375761 53:0.456759 54:0.297455 55:0.467316 56:0.46759 57:0.408881 58:0.531213 59:0.586469 60:0.344741 61:0.250791 62:0.346855 63:0.307159 64:0.355716 65:0.351802 66:0.431571 67:0.512951 68:0.177494 69:0.512896 70:0.481369 71:0.407842 72:0.390734 73:0.318131 74:0.483448 75:0.334234 76:0.457867 77:0.414037 78:0.318252 79:0.272841 80:0.42802 81:0.406316 82:0.413492 83:0.134631 84:0.388301 85:0.475584 86:0.324723 87:0.438199 88:0.438609 89:0.437778 90:0.307571 91:0.396857 92:0.467897 93:0.37562 94:0.496949 95:0.408342 96:0.382942 97:0.449129 98:0.341834 99:0.350454 100:0.386399 
1 1:0.428479 2:0.150285 3:0.42407 4:0.472418 5:0.191635 6:0.343746 7:0.192546 8:0.369673 9:0.319457 10:0.157577 11:0.34568 12:0.357671 13:0.250979 14:0.738728 15:0.558937 16:0.638938 17:0.338894 18:0.61301 19:0.322671 20:0.510899 21:0.30097 22:0.299499 23:0.546356 24:0.437926 25:0.176162 26:0.518356 27:0.324803 28:0.561304 29:0.21881 30:0.439385 31:1 32:0.751449 33:0.15754 34:0.378445 35:0.408233 36:0.192646 37:0.548076 38:0.377282 39:0.450766 40:0.101856 41:0.435296 42:0.275223 43:0.31784 44:0.36706 45:0.263841 46:0.166211 47:0.542606 48:0.562223 49:0.471404 50:0.305557 51:0.445679 52:0.314178 53:0.370619 54:0.284001 55:0.480133 56:0.348514 57:0.322114 58:0.435904 59:0.443387 60:0.369007 61:0.208607 62:0.301012 63:0.275483 64:0.249902 65:0.374829 66:0.456956 67:0.419676 68:0.13485 69:0.400273 70:0.384595 71:0.331785 72:0.35006 73:0.270887 74:0.368516 75:0.318846 76:0.36327 77:0.369007 78:0.293657 79:0.274782 80:0.449872 81:0.343899 82:0.506951 83:0.125611 84:0.369474 85:0.38418 86:0.250592 87:0.401486 88:0.345233 89:0.341698 90:0.296832 91:0.396277 92:0.422056 93:0.326262 94:0.416255 95:0.370663 96:0.490426 97:0.353331 98:0.339232 99:0.213039 100:0.332234 
1 1:0.406188 2:0.143776 3:0.267917 4:0.386611 5:0.170053 6:0.22156 7:0.162112 8:0.345119 9:0.251707 10:0.128928 11:0.333258 12:0.343518 13:0.208558 14:0.780446 15:0.429144 16:0.68617 17:0.324068 18:0.614222 19:0.315289 20:0.627157 21:0.342242 22:0.2597 23:0.439529 24:0.426095 25:0.167775 26:0.482684 27:0.283357 28:0.540501 29:0.266552 30:0.454753 31:0.751449 32:1 33:0.124289 34:0.307276 35:0.42506 36:0.12412 37:0.525643 38:0.350245 39:0.429899 40:0.0737686 41:0.435413 42:0.258517 43:0.245813 44:0.351958 45:0.231869 46:0.112958 47:0.388587 48:0.371243 49:0.474497 50:0.294973 51:0.35092 52:0.267806 53:0.294986 54:0.20437 55:0.378127 56:0.321904 57:0.245863 58:0.335696 59:0.373139 60:0.270225 61:0.253697 62:0.263317 63:0.366066 64:0.235682 65:0.285646 66:0.35499 67:0.373334 68:0.120287 69:0.326241 70:0.299053 71:0.292704 72:0.272974 73:0.284869 74:0.347525 75:0.25985 76:0.368432 77:0.385771 78:0.199975 79:0.279841 80:0.338501 81:0.332794 82:0.385353 83:0.119 84:0.328891 85:0.30915 86:0.236325 87:0.315574 88:0.281276 89:0.276526 90:0.219066 91:0.305841 92:0.373341 93:0.320225 94:0.409671 95:0.28797 96:0.367734 97:0.2577 98:0.298694 99:0.236289 100:0.280706 
1 1:0.429466 2:0.0809809 3:0.15873 4:0.196986 5:0.129059 6:0.315111 7:0.32108 8:0.440019 9:0.129701 10:0.0852065 11:0.162725 12:0.458405 13:0.124197 14:0.398327 15:0.386807 16:0.284979 17:0.401669 18:0.414399 19:0.219984 20:0.26583 21:0.265081 22:0.343664 23:0.308008 24:0.328732 25:0.244365 26:0.44139 27:0.329771 28:0.241635 29:0.206142 30:0.42447 31:0.378445 32:0.307276 33:0.0940806 34:1 35:0.195826 36:0.104449 37:0.319878 38:0.356514 39:0.498531 40:0.173305 41:0.316105 42:0.252387 43:0.14276 44:0.51636 45:0.230038 46:0.099163 47:0.240851 48:0.277365 49:0.332367 50:0.352954 51:0.396573 52:0.259207 53:0.486226 54:0.269766 55:0.411348 56:0.440712 57:0.386013 58:0.442009 59:0.496369 60:0.447593 61:0.192424 62:0.221602 63:0.322501 64:0.194073 65:0.336433 66:0.326997 67:0.404038 68:0.234095 69:0.453326 70:0.462435 71:0.266669 72:0.488581 73:0.297252 74:0.303305 75:0.248008 76:0.458388 77:0.341983 78:0.380439 79:0.264769 80:0.356479 81:0.324007 82:0.322602 83:0.118819 84:0.270615 85:0.435166 86:0.473749 87:0.306907 88:0.288999 89:0.395953 90:0.199151 91:0.446791 92:0.372583 93:0.33626 94:0.32053 95:0.375961 96:0.295739 97:0.377936 98:0.202504 99:0.303832 100:0.302888 
1 1:0.179975 2:0.268135 3:0.36574 4:0.386727 5:0.413153 6:0.187014 7:0.173566 8:0.130505 9:0.615893 10:0.42166 11:0.582301 12:0.139154 13:0.553055 14:0.167333 15:0.372267 16:0.281748 17:0.186507 18:0.22577 19:0.221355 20:0.280282 21:0.127924 22:0.172059 23:0.251884 24:0.160339 25:0.108831 26:0.235335 27:0.15903 28:0.185759 29:0.157709 30:0.155446 31:0.192646 32:0.12412 33:0.583873 34:0.104449 35:0.220013 36:1 37:0.174499 38:0.292164 39:0.174625 40:0.0971 41:0.21718 42:0.331614 43:0.741609 44:0.139737 45:0.176205 46:0.792844 47:0.382011 48:0.271623 49:0.193225 50:0.160562 51:0.334957 52:0.295177 53:0.347383 54:0.268581 55:0.327019 56:0.296202 57:0.250502 58:0.341249 59:0.290946 60:0.24854 61:0.179218 62:0.315744 63:0.203397 64:0.1764 65:0.298722 66:0.334244 67:0.325636 68:0.191857 69:0.316914 70:0.307967 71:0.328829 72:0.3178 73:0.197888 74:0.271494 75:0.333185 76:0.25138 77:0.20416 78:0.367787 79:0.176449 80:0.302192 81:0.19017 82:0.34674 83:0.275741 84:0.366244 85:0.316311 86:0.159315 87:0.263124 88:0.209787 89:0.3071 90:0.272579 91:0.229289 92:0.280437 93:0.247832 94:0.268848 95:0.294621 96:0.34213 97:0.378853 98:0.199304 99:0.196987 100:0.205409 
1 1:0.524495 2:0.139838 3:0.318416 4:0.49612 5:0.185118 6:0.268964 7:0.310191 8:0.480102 9:0.341161 10:0.165142 11:0.371435 12:0.539506 13:0.211632 14:0.685928 15:0.521976 16:0.564438 17:0.526816 18:0.430477 19:0.440272 20:0.470947 21:0.410604 22:0.356618 23:0.267633 24:0.561618 25:0.220878 26:0.675708 27:0.511611 28:0.405416 29:0.327372 30:0.473341 31:0.548076 32:0.525643 33:0.103076 34:0.319878 35:0.289057 36:0.174499 37:1 38:0.598513 39:0.49089 40:0.0979896 41:0.556271 42:0.47274 43:0.324599 44:0.413718 45:0.403944 46:0.137536 47:0.387242 48:0.43996 49:0.557052 50:0.476123 51:0.443623 52:0.3614 53:0.446597 54:0.438381 55:0.537577 56:0.44147 57:0.398044 58:0.496561 59:0.539753 60:0.396297 61:0.260485 62:0.393288 63:0.421567 64:0.443109 65:0.427458 66:0.458377 67:0.459737 68:0.220065 69:0.465459 70:0.421585 71:0.364774 72:0.322882 73:0.387109 74:0.476087 75:0.39574 76:0.52659 77:0.48834 78:0.421531 79:0.329865 80:0.419984 81:0.396458 82:0.424933 83:0.146841 84:0.410956 85:0.450737 86:0.254708 87:0.52545 88:0.433955 89:0.384874 90:0.287053 91:0.429265 92:0.534445 93:0.522108 94:0.636291 95:0.392979 96:0.447808 97:0.361657 98:0.321937 99:0.353156 100:0.353798 
1 1:0.559079 2:0.187351 3:0.304039 4:0.500232 5:0.236759 6:0.359281 7:0.418479 8:0.436513 9:0.445344 10:0.227222 11:0.435844 12:0.602877 13:0.330552 14:0.444789 15:0.608791 16:0.396855 17:0.751921 18:0.40466 19:0.524018 20:0.366311 21:0.304572 22:0.496389 23:0.268425 24:0.561199 25:0.349938 26:0.748553 27:0.598962 28:0.331953 29:0.433355 30:0.525639 31:0.377282 32:0.350245 33:0.186772 34:0.356514 35:0.259842 36:0.292164 37:0.598513 38:1 39:0.459294 40:0.246314 41:0.583035 42:0.622145 43:0.400176 44:0.369146 45:0.590956 46:0.234188 47:0.304355 48:0.414309 49:0.507293 50:0.68029 51:0.545743 52:0.479845 53:0.575397 54:0.624163 55:0.625977 56:0.591465 57:0.577388 58:0.672563 59:0.671127 60:0.487991 61:0.381286 62:0.481519 63:0.486323 64:0.532355 65:0.531254 66:0.50955 67:0.656843 68:0.411591 69:0.664408 70:0.634659 71:0.52271 72:0.51309 73:0.581448 74:0.637639 75:0.515721 76:0.584892 77:0.613041 78:0.557601 79:0.450061 80:0.552033 81:0.487834 82:0.494321 83:0.23174 84:0.533547 85:0.637237 86:0.421029 87:0.586634 88:0.549662 89:0.531353 90:0.382081 91:0.453875 92:0.637811 93:0.659165 94:0.689046 95:0.498937 96:0.480071 97:0.541408 98:0.354838 99:0.465611 100:0.401529 
1 1:0.555339 2:0.12192 3:0.22924 4:0.340392 5:0.258875 6:0.26012 7:0.315528 8:0.599959 9:0.285316 10:0.133851 11:0.308656 12:0.568161 13:0.256418 14:0.653892 15:0.516812 16:0.517849 17:0.55429 18:0.438729 19:0.510983 20:0.477455 21:0.523883 22:0.437182 23:0.266596 24:0.475364 25:0.325006 26:0.65157 27:0.540944 28:0.328214 29:0.31302 30:0.546286 31:0.450766 32:0.429899 33:0.121603 34:0.498531 35:0.255788 36:0.174625 37:0.49089 38:0.459294 39:1 40:0.172644 41:0.536529 42:0.454699 43:0.29402 44:0.68437 45:0.312304 46:0.147907 47:0.381835 48:0.397778 49:0.539076 50:0.481878 51:0.525468 52:0.400801 53:0.620864 54:0.334524 55:0.52567 56:0.469477 57:0.449412 58:0.527131 59:0.55418 60:0.470247 61:0.314856 62:0.440878 63:0.464939 64:0.327668 65:0.448776 66:0.471677 67:0.588514 68:0.231692 69:0.549603 70:0.5216 71:0.499556 72:0.418062 73:0.446 74:0.529252 75:0.435212 76:0.529467 77:0.527283 78:0.447915 79:0.416437 80:0.462063 81:0.496084 82:0.436332 83:0.205068 84:0.418208 85:0.532821 86:0.480269 87:0.515845 88:0.537234 89:0.554739 90:0.40716 91:0.558704 92:0.47877 93:0.425153 94:0.562038 95:0.61785 96:0.537942 97:0.551814 98:0.409381 99:0.463765 100:0.481589 
1 1:0.590386 2:0.146723 3:0.302387 4:0.497793 5:0.250028 6:0.271302 7:0.315424 8:0.516753 9:0.353561 10:0.198242 11:0.383109 12:0.610947 13:0.277902 14:0.567595 15:0.555937 16:0.462232 17:0.621797 18:0.446879 19:0.612689 20:0.455585 21:0.383151 22:0.659278 23:0.291332 24:0.611865 25:0.405477 26:0.590482 27:0.49953 28:0.362564 29:0.338917 30:0.490274 31:0.435296 32:0.435413 33:0.153613 34:0.316105 35:0.323866 36:0.21718 37:0.556271 38:0.583035 39:0.536529 40:0.146607 41:1 42:0.49711 43:0.389965 44:0.45872 45:0.519096 46:0.196801 47:0.389323 48:0.490829 49:0.790048 50:0.629203 51:0.528795 52:0.493539 53:0.485474 54:0.418669 55:0.530127 56:0.529112 57:0.484043 58:0.560966 59:0.559527 60:0.424964 61:0.370296 62:0.517879 63:0.414449 64:0.449601 65:0.470124 66:0.504809 67:0.569874 68:0.207637 69:0.528113 70:0.549569 71:0.490379 72:0.365392 73:0.52422 74:0.572165 75:0.468556 76:0.463507 77:0.673628 78:0.403657 79:0.57286 80:0.503217 81:0.632682 82:0.552176 83:0.189195 84:0.519194 85:0.53582 86:0.306697 87:0.534562 88:0.549794 89:0.487122 90:0.428968 91:0.502184 92:0.601453 93:0.520243 94:0.609998 95:0.480448 96:0.509402 97:0.475843 98:0.43912 99:0.381992 100:0.508206 
1 1:0.501788 2:0.186593 3:0.226321 4:0.358822 5:0.257091 6:0.218253 7:0.31027 8:0.394049 9:0.419155 10:0.272435 11:0.420988 12:0.52395 13:0.280985 14:0.36951 15:0.534909 16:0.416723 17:0.602541 18:0.305326 19:0.494105 20:0.371608 21:0.316316 22:0.437423 23:0.199823 24:0.424356 25:0.337389 26:0.559192 27:0.5225 28:0.264978 29:0.344439 30:0.326532 31:0.275223 32:0.258517 33:0.214899 34:0.252387 35:0.223375 36:0.331614 37:0.47274 38:0.622145 39:0.454699 40:0.160977 41:0.49711 42:1 43:0.428882 44:0.310707 45:0.463935 46:0.27263 47:0.256076 48:0.302496 49:0.405196 50:0.518245 51:0.42731 52:0.368673 53:0.523711 54:0.552817 55:0.526922 56:0.522728 57:0.451271 58:0.503646 59:0.479062 60:0.406581 61:0.390026 62:0.412814 63:0.487563 64:0.422353 65:0.439831 66:0.389135 67:0.510909 68:0.313847 69:0.504191 70:0.482608 71:0.417383 72:0.414182 73:0.507262 74:0.57755 75:0.415058 76:0.513191 77:0.494145 78:0.501156 79:0.433289 80:0.377055 81:0.454401 82:0.410477 83:0.240098 84:0.419201 85:0.493547 86:0.362704 87:0.536811 88:0.411236 89:0.485934 90:0.258624 91:0.404068 92:0.566201 93:0.579732 94:0.593106 95:0.465662 96:0.378456 97:0.483643 98:0.276784 99:0.486674 100:0.422571 
1 1:0.283348 2:0.360232 3:0.458526 4:0.553643 5:0.525854 6:0.214909 7:0.234015 8:0.287702 9:0.759428 10:0.488628 11:0.798715 12:0.249132 13:0.679813 14:0.320736 15:0.512123 16:0.457966 17:0.297659 18:0.3793 19:0.378068 20:0.436891 21:0.280219 22:0.281153 23:0.318666 24:0.308507 25:0.166363 26:0.366104 27:0.252856 28:0.356156 29:0.239866 30:0.231467 31:0.31784 32:0.245813 33:0.49678 34:0.14276 35:0.375925 36:0.741609 37:0.324599 38:0.400176 39:0.29402 40:0.117152 41:0.389965 42:0.428882 43:1 44:0.247252 45:0.281827 46:0.595922 47:0.507068 48:0.421664 49:0.330656 50:0.266332 51:0.529695 52:0.490691 53:0.481594 54:0.347108 55:0.44186 56:0.430826 57:0.320717 58:0.462133 59:0.43089 60:0.35354 61:0.260795 62:0.507003 63:0.300525 64:0.263487 65:0.467818 66:0.523937 67:0.492694 68:0.214071 69:0.449056 70:0.427446 71:0.49303 72:0.348718 73:0.300459 74:0.419971 75:0.519738 76:0.367429 77:0.358107 78:0.459167 79:0.276 80:0.455229 81:0.326407 82:0.505521 83:0.368144 84:0.591442 85:0.461014 86:0.221493 87:0.408401 88:0.371353 89:0.443448 90:0.427656 91:0.333349 92:0.381212 93:0.364317 94:0.427302 95:0.415727 96:0.597068 97:0.491065 98:0.382 99:0.272755 100:0.3216 
1 1:0.465585 2:0.100218 3:0.17649 4:0.261972 5:0.222932 6:0.205337 7:0.355527 8:0.584458 9:0.219824 10:0.120666 11:0.278882 12:0.59588 13:0.210689 14:0.492424 15:0.393484 16:0.455901 17:0.395033 18:0.385135 19:0.402761 20:0.445835 21:0.498878 22:0.352651 23:0.264424 24:0.404387 25:0.263354 26:0.475085 27:0.393107 28:0.256202 29:0.272128 30:0.405203 31:0.36706 32:0.351958 33:0.109863 34:0.51636 35:0.240563 36:0.139737 37:0.413718 38:0.369146 39:0.68437 40:0.150404 41:0.45872 42:0.310707 43:0.247252 44:1 45:0.26416 46:0.117717 47:0.380062 48:0.281598 49:0.487232 50:0.382121 51:0.462876 52:0.334492 53:0.557102 54:0.264223 55:0.411975 56:0.399755 57:0.380618 58:0.440744 59:0.50156 60:0.419884 61:0.264819 62:0.376098 63:0.418327 64:0.225783 65:0.392987 66:0.393842 67:0.428603 68:0.210826 69:0.447349 70:0.40889 71:0.402149 72:0.356623 73:0.384546 74:0.423588 75:0.352663 76:0.44406 77:0.466498 78:0.515308 79:0.352249 80:0.376263 81:0.378769 82:0.333958 83:0.163425 84:0.332998 85:0.430939 86:0.386983 87:0.347827 88:0.32507 89:0.454028 90:0.296054 91:0.445441 92:0.375258 93:0.363993 94:0.465415 95:0.477484 96:0.412257 97:0.441945 98:0.30256 99:0.393683 100:0.451845 
1 1:0.440606 2:0.132461 3:0.19174 4:0.327639 5:0.174388 6:0.283615 7:0.271277 8:0.374016 9:0.262238 10:0.15748 11:0.284292 12:0.532165 13:0.21218 14:0.282099 15:0.388767 16:0.263222 17:0.602912 18:0.265334 19:0.558971 20:0.243896 21:0.235604 22:0.557817 23:0.183647 24:0.442922 25:0.373355 26:0.490107 27:0.416318 28:0.20196 29:0.343843 30:0.333766 31:0.263841 32:0.231869 33:0.104195 34:0.230038 35:0.171446 36:0.176205 37:0.403944 38:0.590956 39:0.312304 40:0.18299 41:0.519096 42:0.463935 43:0.281827 44:0.26416 45:1 46:0.137333 47:0.219941 48:0.279966 49:0.455563 50:0.680976 51:0.399793 52:0.373098 53:0.379559 54:0.433245 55:0.38435 56:0.375018 57:0.354131 58:0.406132 59:0.423955 60:0.35109 61:0.403428 62:0.340637 63:0.334194 64:0.444295 65:0.392601 66:0.373725 67:0.432593 68:0.268548 69:0.405833 70:0.414785 71:0.341877 72:0.327571 73:0.535412 74:0.458652 75:0.367301 76:0.423119 77:0.54662 78:0.359869 79:0.513016 80:0.383381 81:0.50152 82:0.360613 83:0.167345 84:0.377581 85:0.399953 86:0.286394 87:0.374235 88:0.387124 89:0.352227 90:0.308616 91:0.323718 92:0.616877 93:0.599655 94:0.459769 95:0.328357 96:0.360695 97:0.337616 98:0.290049 99:0.332991 100:0.390688 
0.2131386288842195 1:0.166685 2:0.212822 3:0.328805 4:0.272757 5:0.339371 6:0.151819 7:0.158354 8:0.106389 9:0.43047 10:0.507447 11:0.444638 12:0.115584 13:0.431804 14:0.14582 15:0.295539 16:0.235401 17:0.15173 18:0.207195 19:0.202527 20:0.232322 21:0.100679 22:0.1557 23:0.228688 24:0.134488 25:0.101845 26:0.179665 27:0.138204 28:0.179001 29:0.136027 30:0.119422 31:0.166211 32:0.112958 33:0.661119 34:0.099163 35:0.204726 36:0.792844 37:0.137536 38:0.234188 39:0.147907 40:0.0940555 41:0.196801 42:0.27263 43:0.595922 44:0.117717 45:0.137333 46:1 47:0.321272 48:0.251602 49:0.172239 50:0.124807 51:0.26319 52:0.245132 53:0.273632 54:0.196948 55:0.307089 56:0.247527 57:0.244316 58:0.288694 59:0.220726 60:0.243345 61:0.192381 62:0.280903 63:0.21898 64:0.144818 65:0.225216 66:0.255787 67:0.27667 68:0.151314 69:0.249117 70:0.2701 71:0.248235 72:0.297977 73:0.189927 74:0.208166 75:0.255033 76:0.214836 77:0.184647 78:0.264664 79:0.175906 80:0.249973 81:0.165556 82:0.359676 83:0.234231 84:0.301854 85:0.259576 86:0.114463 87:0.250996 88:0.175107 89:0.242765 90:0.22058 91:0.2439 92:0.242407 93:0.215869 94:0.234166 95:0.272297 96:0.268841 97:0.320461 98:0.155565 99:0.160335 100:0.138979 
1 1:0.311499 2:0.160519 3:0.58966 4:0.57292 5:0.306355 6:0.227414 7:0.239143 8:0.311247 9:0.48044 10:0.221527 11:0.465238 12:0.292406 13:0.393879 14:0.473367 15:0.56494 16:0.595468 17:0.229803 18:0.538901 19:0.328896 20:0.60428 21:0.312579 22:0.279029 23:0.515001 24:0.327867 25:0.172249 26:0.352993 27:0.244632 28:0.413341 29:0.202202 30:0.271766 31:0.542606 32:0.388587 33:0.265487 34:0.240851 35:0.400807 36:0.382011 37:0.387242 38:0.304355 39:0.381835 40:0.0845411 41:0.389323 42:0.256076 43:0.507068 44:0.380062 45:0.219941 46:0.321272 47:1 48:0.479801 49:0.432007 50:0.244513 51:0.459547 52:0.339921 53:0.38518 54:0.286786 55:0.40005 56:0.307464 57:0.294076 58:0.366506 59:0.388757 60:0.37924 61:0.235328 62:0.374841 63:0.313889 64:0.179179 65:0.350296 66:0.473313 67:0.394593 68:0.150779 69:0.343884 70:0.308136 71:0.362195 72:0.351651 73:0.270504 74:0.317938 75:0.371221 76:0.313614 77:0.366141 78:0.334285 79:0.291709 80:0.381675 81:0.345248 82:0.465644 83:0.163567 84:0.389578 85:0.326952 86:0.20194 87:0.292868 88:0.257522 89:0.321231 90:0.327255 91:0.353956 92:0.345583 93:0.312293 94:0.359744 95:0.340253 96:0.490966 97:0.312391 98:0.307398 99:0.252218 100:0.34356 
1 1:0.509205 2:0.111657 3:0.489461 4:0.623612 5:0.23013 6:0.322352 7:0.281452 8:0.300773 9:0.356354 10:0.176711 11:0.37838 12:0.311317 13:0.302305 14:0.543171 15:0.64703 16:0.372383 17:0.347873 18:0.447389 19:0.403147 20:0.325368 21:0.223419 22:0.325423 23:0.283234 24:0.387965 25:0.165291 26:0.484471 27:0.32191 28:0.367613 29:0.237255 30:0.365888 31:0.562223 32:0.371243 33:0.151035 34:0.277365 35:0.232619 36:0.271623 37:0.43996 38:0.414309 39:0.397778 40:0.133027 41:0.490829 42:0.302496 43:0.421664 44:0.281598 45:0.279966 46:0.251602 47:0.479801 48:1 49:0.49798 50:0.286495 51:0.635262 52:0.412766 53:0.461216 54:0.290185 55:0.558393 56:0.483595 57:0.461554 58:0.594418 59:0.575301 60:0.536854 61:0.21931 62:0.465322 63:0.252127 64:0.267424 65:0.521752 66:0.668269 67:0.563876 68:0.175751 69:0.530104 70:0.554186 71:0.467844 72:0.357106 73:0.290908 74:0.37711 75:0.489921 76:0.372458 77:0.338499 78:0.380149 79:0.256134 80:0.606944 81:0.308852 82:0.655596 83:0.132841 84:0.510938 85:0.528376 86:0.235822 87:0.503054 88:0.496962 89:0.471656 90:0.504796 91:0.45997 92:0.394421 93:0.328645 94:0.461976 95:0.499378 96:0.634754 97:0.470903 98:0.52317 99:0.180842 100:0.25561 
1 1:0.661977 2:0.129584 3:0.314863 4:0.508381 5:0.25181 6:0.25464 7:0.293454 8:0.464976 9:0.29136 10:0.152686 11:0.347264 12:0.602951 13:0.262692 14:0.618091 15:0.543368 16:0.516415 17:0.551264 18:0.443852 19:0.584177 20:0.518167 21:0.396877 22:0.555617 23:0.304516 24:0.600582 25:0.316854 26:0.539895 27:0.445366 28:0.326398 29:0.290883 30:0.512902 31:0.471404 32:0.474497 33:0.131725 34:0.332367 35:0.309772 36:0.193225 37:0.557052 38:0.507293 39:0.539076 40:0.112222 41:0.790048 42:0.405196 43:0.330656 44:0.487232 45:0.455563 46:0.172239 47:0.432007 48:0.49798 49:1 50:0.542289 51:0.516703 52:0.468609 53:0.448613 54:0.355979 55:0.50931 56:0.482031 57:0.428842 58:0.519651 59:0.525184 60:0.397216 61:0.390739 62:0.457417 63:0.405796 64:0.385166 65:0.416373 66:0.523992 67:0.518224 68:0.182389 69:0.474904 70:0.495375 71:0.414425 72:0.347406 73:0.451268 74:0.506216 75:0.419702 76:0.449384 77:0.558741 78:0.371628 79:0.427136 80:0.487104 81:0.541358 82:0.50865 83:0.172524 84:0.45487 85:0.485612 86:0.276208 87:0.441236 88:0.45067 89:0.400491 90:0.414435 91:0.477167 92:0.53188 93:0.457642 94:0.590998 95:0.434298 96:0.50319 97:0.409775 98:0.436389 99:0.344503 100:0.407315 
1 1:0.481142 2:0.146479 3:0.195279 4:0.358874 5:0.203335 6:0.308535 7:0.33519 8:0.536004 9:0.304918 10:0.136037 11:0.282645 12:0.72737 13:0.228775 14:0.392734 15:0.461573 16:0.327146 17:0.877577 18:0.354938 19:0.4938 20:0.303596 21:0.336872 22:0.722666 23:0.228249 24:0.672784 25:0.515206 26:0.578076 27:0.49722 28:0.265082 29:0.366668 30:0.394163 31:0.305557 32:0.294973 33:0.110544 34:0.352954 35:0.185506 36:0.160562 37:0.476123 38:0.68029 39:0.481878 40:0.14981 41:0.629203 42:0.518245 43:0.266332 44:0.382121 45:0.680976 46:0.124807 47:0.244513 48:0.286495 49:0.542289 50:1 51:0.461441 52:0.462414 53:0.470826 54:0.539442 55:0.487473 56:0.458766 57:0.425377 58:0.478521 59:0.485518 60:0.429083 61:0.353606 62:0.408443 63:0.412368 64:0.511087 65:0.467041 66:0.414548 67:0.543713 68:0.314182 69:0.518287 70:0.508827 71:0.40449 72:0.417894 73:0.61789 74:0.513054 75:0.414556 76:0.547093 77:0.694729 78:0.425813 79:0.591637 80:0.448327 81:0.590571 82:0.399278 83:0.24081 84:0.455648 85:0.50115 86:0.463382 87:0.501831 88:0.518297 89:0.451428 90:0.340592 91:0.365338 92:0.645731 93:0.640044 94:0.551875 95:0.41857 96:0.398142 97:0.433802 98:0.334918 99:0.512951 100:0.480726 
-0.620565508869069 1:0.572093 2:0.217034 3:0.358101 4:0.555092 5:0.350832 6:0.377397 7:0.399679 8:0.483681 9:0.43022 10:0.278744 11:0.47149 12:0.466049 13:0.386182 14:0.475487 15:0.687195 16:0.4447 17:0.523662 18:0.538591 19:0.441289 20:0.424259 21:0.364579 22:0.445854 23:0.327812 24:0.489325 25:0.277729 26:0.561447 27:0.384045 28:0.391964 29:0.322111 30:0.449873 31:0.445679 32:0.35092 33:0.201621 34:0.396573 35:0.322477 36:0.334957 37:0.443623 38:0.545743 39:0.525468 40:0.182606 41:0.528795 42:0.42731 43:0.529695 44:0.462876 45:0.399793 46:0.26319 47:0.459547 48:0.635262 49:0.516703 50:0.461441 51:1 52:0.652402 53:0.79288 54:0.439336 55:0.67488 56:0.786313 57:0.526796 58:0.775451 59:0.789609 60:0.717757 61:0.341573 62:0.619918 63:0.419429 64:0.377588 65:0.777082 66:0.899796 67:0.683907 68:0.309184 69:0.756143 70:0.73168 71:0.695881 72:0.517469 73:0.431433 74:0.590274 75:0.721833 76:0.613398 77:0.504786 78:0.599979 79:0.370766 80:0.805635 81:0.400343 82:0.657132 83:0.266256 84:0.679969 85:0.76573 86:0.465724 87:0.546964 88:0.621361 89:0.695394 90:0.664804 91:0.487016 92:0.501518 93:0.530552 94:0.615739 95:0.652354 96:0.803617 97:0.664825 98:0.738839 99:0.416629 100:0.408553 
-1 1:0.418688 2:0.249999 3:0.294183 4:0.500757 5:0.349342 6:0.262867 7:0.333799 8:0.401745 9:0.407209 10:0.263203 11:0.416049 12:0.408543 13:0.342684 14:0.344454 15:0.526049 16:0.367617 17:0.467753 18:0.391387 19:0.364046 20:0.350285 21:0.343243 22:0.429386 23:0.307673 24:0.444237 25:0.253305 26:0.423043 27:0.278302 28:0.302284 29:0.210755 30:0.375761 31:0.314178 32:0.267806 33:0.222268 34:0.259207 35:0.314812 36:0.295177 37:0.3614 38:0.479845 39:0.400801 40:0.127588 41:0.493539 42:0.368673 43:0.490691 44:0.334492 45:0.373098 46:0.245132 47:0.339921 48:0.412766 49:0.468609 50:0.462414 51:0.652402 52:1 53:0.484426 54:0.387657 55:0.567617 56:0.597068 57:0.403738 58:0.615633 59:0.546527 60:0.474206 61:0.260344 62:0.607113 63:0.270097 64:0.384738 65:0.692707 66:0.592961 67:0.635764 68:0.241396 69:0.620781 70:0.650733 71:0.592648 72:0.400659 73:0.389861 74:0.511429 75:0.672676 76:0.467732 77:0.420565 78:0.489648 79:0.375845 80:0.730431 81:0.402365 82:0.712899 83:0.405836 84:0.813542 85:0.698824 86:0.33202 87:0.56256 88:0.624599 89:0.489325 90:0.623427 91:0.371569 92:0.422079 93:0.458056 94:0.566726 95:0.520819 96:0.617257 97:0.606593 98:0.593167 99:0.373298 100:0.366643 
-1 1:0.5472 2:0.217264 3:0.298066 4:0.446424 5:0.341767 6:0.373017 7:0.500412 8:0.531543 9:0.387709 10:0.303893 11:0.496537 12:0.507957 13:0.341715 14:0.434798 15:0.629277 16:0.4538 17:0.559568 18:0.431188 19:0.461224 20:0.420631 21:0.39812 22:0.426626 23:0.30455 24:0.461093 25:0.290487 26:0.602872 27:0.473804 28:0.314034 29:0.348909 30:0.456759 31:0.370619 32:0.294986 33:0.20351 34:0.486226 35:0.266868 36:0.347383 37:0.446597 38:0.575397 39:0.620864 40:0.233098 41:0.485474 42:0.523711 43:0.481594 44:0.557102 45:0.379559 46:0.273632 47:0.38518 48:0.461216 49:0.448613 50:0.470826 51:0.79288 52:0.484426 53:1 54:0.47351 55:0.708367 56:0.748841 57:0.633056 58:0.757806 59:0.848056 60:0.704104 61:0.352109 62:0.537634 63:0.487679 64:0.380059 65:0.632568 66:0.702722 67:0.644397 68:0.445762 69:0.737156 70:0.689782 71:0.630184 72:0.665785 73:0.490046 74:0.55479 75:0.569806 76:0.71031 77:0.497053 78:0.754568 79:0.371833 80:0.576042 81:0.388099 82:0.497708 83:0.260734 84:0.536023 85:0.721201 86:0.551645 87:0.571688 88:0.566814 89:0.753266 90:0.496596 91:0.572427 92:0.552514 93:0.544086 94:0.636167 95:0.736623 96:0.675072 97:0.726576 98:0.467325 99:0.518751 100:0.44562 
-1 1:0.331577 2:0.158836 3:0.250673 4:0.360022 5:0.200286 6:0.300414 7:0.270778 8:0.356891 9:0.368446 10:0.211998 11:0.296275 12:0.521352 13:0.210289 14:0.307093 15:0.48118 16:0.310553 17:0.563478 18:0.34635 19:0.385881 20:0.305346 21:0.24384 22:0.462359 23:0.279195 24:0.463603 25:0.326612 26:0.4891 27:0.537266 28:0.258572 29:0.248796 30:0.297455 31:0.284001 32:0.20437 33:0.156923 34:0.269766 35:0.22265 36:0.268581 37:0.438381 38:0.624163 39:0.334524 40:0.174723 41:0.418669 42:0.552817 43:0.347108 44:0.264223 45:0.433245 46:0.196948 47:0.286786 48:0.290185 49:0.355979 50:0.539442 51:0.439336 52:0.387657 53:0.47351 54:1 55:0.472963 56:0.422486 57:0.40132 58:0.42327 59:0.452789 60:0.425765 61:0.305901 62:0.284274 63:0.410019 64:0.505949 65:0.365378 66:0.438486 67:0.375789 68:0.283543 69:0.406523 70:0.413653 71:0.3025 72:0.531423 73:0.38885 74:0.486212 75:0.320396 76:0.503816 77:0.512436 78:0.434745 79:0.360802 80:0.328575 81:0.456946 82:0.344551 83:0.194971 84:0.36519 85:0.393281 86:0.311896 87:0.427965 88:0.392018 89:0.329522 90:0.269703 91:0.278134 92:0.50583 93:0.682104 94:0.44458 95:0.334803 96:0.358382 97:0.367844 98:0.224799 99:0.433645 100:0.380112 
-1 1:0.525055 2:0.291606 3:0.40708 4:0.550228 5:0.333391 6:0.374099 7:0.39683 8:0.431728 9:0.415811 10:0.3625 11:0.505146 12:0.493475 13:0.331452 14:0.491376 15:0.709946 16:0.520054 17:0.560723 18:0.469227 19:0.420246 20:0.425865 21:0.307847 22:0.468573 23:0.350876 24:0.542745 25:0.30182 26:0.603954 27:0.424135 28:0.42778 29:0.281063 30:0.467316 31:0.480133 32:0.378127 33:0.220912 34:0.411348 35:0.289843 36:0.327019 37:0.537577 38:0.625977 39:0.52567 40:0.185326 41:0.530127 42:0.526922 43:0.44186 44:0.411975 45:0.38435 46:0.307089 47:0.40005 48:0.558393 49:0.50931 50:0.487473 51:0.67488 52:0.567617 53:0.708367 54:0.472963 55:1 56:0.750459 57:0.701685 58:0.841855 59:0.72002 60:0.705616 61:0.338846 62:0.552517 63:0.430164 64:0.459069 65:0.668674 66:0.632294 67:0.71854 68:0.374858 69:0.764612 70:0.717194 71:0.612706 72:0.637034 73:0.497349 74:0.584184 75:0.577053 76:0.61582 77:0.507949 78:0.587316 79:0.418846 80:0.652023 81:0.41435 82:0.668089 83:0.318417 84:0.611181 85:0.750763 86:0.458481 87:0.809272 88:0.551057 89:0.623284 90:0.430751 91:0.571711 92:0.54106 93:0.523546 94:0.77682 95:0.755524 96:0.613832 97:0.69902 98:0.472423 99:0.495148 100:0.359247 
-1 1:0.541056 2:0.217641 3:0.317158 4:0.510372 5:0.281718 6:0.293444 7:0.423865 8:0.45186 9:0.337179 10:0.290593 11:0.425604 12:0.478255 13:0.285195 14:0.419047 15:0.656454 16:0.407299 17:0.550723 18:0.444354 19:0.377342 20:0.387421 21:0.327291 22:0.439665 23:0.294155 24:0.460181 25:0.279629 26:0.568662 27:0.366702 28:0.324944 29:0.2918 30:0.46759 31:0.348514 32:0.321904 33:0.181756 34:0.440712 35:0.296763 36:0.296202 37:0.44147 38:0.591465 39:0.469477 40:0.167113 41:0.529112 42:0.522728 43:0.430826 44:0.399755 45:0.375018 46:0.247527 47:0.307464 48:0.483595 49:0.482031 50:0.458766 51:0.786313 52:0.597068 53:0.748841 54:0.422486 55:0.750459 56:1 57:0.545685 58:0.819869 59:0.794331 60:0.60961 61:0.308233 62:0.559951 63:0.424696 64:0.360616 65:0.721673 66:0.691513 67:0.717791 68:0.384125 69:0.837439 70:0.787532 71:0.642083 72:0.536738 73:0.41835 74:0.599437 75:0.656461 76:0.60721 77:0.493722 78:0.608541 79:0.344892 80:0.678186 81:0.408038 82:0.600768 83:0.282659 84:0.659353 85:0.834925 86:0.513344 87:0.591777 88:0.568361 89:0.677106 90:0.448941 91:0.524179 92:0.48361 93:0.48683 94:0.613132 95:0.60716 96:0.602478 97:0.643222 98:0.53853 99:0.462699 100:0.375271 
-1 1:0.52802 2:0.134772 3:0.262692 4:0.373499 5:0.233931 6:0.345528 7:0.415156 8:0.341504 9:0.279629 10:0.233196 11:0.342207 12:0.451601 13:0.245646 14:0.33998 15:0.530772 16:0.299741 17:0.50682 18:0.297335 19:0.411036 20:0.281466 21:0.23016 22:0.469062 23:0.238775 24:0.461048 25:0.28696 26:0.504621 27:0.476204 28:0.223154 29:0.275398 30:0.408881 31:0.322114 32:0.245863 33:0.162596 34:0.386013 35:0.198448 36:0.250502 37:0.398044 38:0.577388 39:0.449412 40:0.21507 41:0.484043 42:0.451271 43:0.320717 44:0.380618 45:0.354131 46:0.244316 47:0.294076 48:0.461554 49:0.428842 50:0.425377 51:0.526796 52:0.403738 53:0.633056 54:0.40132 55:0.701685 56:0.545685 57:1 58:0.78093 59:0.678745 60:0.694153 61:0.322896 62:0.544163 63:0.362761 64:0.471541 65:0.509657 66:0.430524 67:0.600911 68:0.332395 69:0.652932 70:0.656392 71:0.523916 72:0.505881 73:0.547103 74:0.47899 75:0.446257 76:0.485903 77:0.460928 78:0.520342 79:0.339933 80:0.50513 81:0.344902 82:0.518571 83:0.182704 84:0.46555 85:0.621371 86:0.386326 87:0.611902 88:0.463429 89:0.683842 90:0.392747 91:0.551889 92:0.503793 93:0.464041 94:0.698459 95:0.677388 96:0.409698 97:0.649314 98:0.356195 99:0.443184 100:0.284194 
-1 1:0.594936 2:0.171708 3:0.360721 4:0.551091 5:0.285128 6:0.395292 7:0.51601 8:0.493208 9:0.357439 10:0.231861 11:0.468975 12:0.524334 13:0.298961 14:0.49553 15:0.704143 16:0.441541 17:0.570663 18:0.459551 19:0.456854 20:0.424352 21:0.363645 22:0.448814 23:0.332778 24:0.513981 25:0.272993 26:0.691456 27:0.478776 28:0.330022 29:0.350993 30:0.586469 31:0.443387 32:0.373139 33:0.16533 34:0.496369 35:0.301932 36:0.290946 37:0.539753 38:0.671127 39:0.55418 40:0.231655 41:0.559527 42:0.479062 43:0.43089 44:0.50156 45:0.423955 46:0.220726 47:0.388757 48:0.575301 49:0.525184 50:0.485518 51:0.789609 52:0.546527 53:0.848056 54:0.452789 55:0.72002 56:0.794331 57:0.678745 58:0.854208 59:1 60:0.676881 61:0.315305 62:0.583033 63:0.404397 64:0.397133 65:0.67023 66:0.724777 67:0.716856 68:0.416336 69:0.83573 70:0.729542 71:0.691956 72:0.593977 73:0.478614 74:0.606962 75:0.636328 76:0.647077 77:0.485132 78:0.709279 79:0.360374 80:0.657681 81:0.395342 82:0.587739 83:0.212235 84:0.645566 85:0.795447 86:0.509636 87:0.572743 88:0.583174 89:0.745859 90:0.492185 91:0.553805 92:0.551686 93:0.523926 94:0.682466 95:0.682897 96:0.665268 97:0.708582 98:0.514032 99:0.427956 100:0.425559 
-1 1:0.529552 2:0.152788 3:0.266266 4:0.381974 5:0.257168 6:0.35775 7:0.473079 8:0.443956 9:0.320268 10:0.2424 11:0.343624 12:0.48234 13:0.272831 14:0.374819 15:0.564613 16:0.344034 17:0.481411 18:0.446573 19:0.360814 20:0.329167 21:0.293366 22:0.431205 23:0.279737 24:0.452378 25:0.263772 26:0.481303 27:0.390791 28:0.280775 29:0.264162 30:0.344741 31:0.369007 32:0.270225 33:0.169015 34:0.447593 35:0.195292 36:0.24854 37:0.396297 38:0.487991 39:0.470247 40:0.171418 41:0.424964 42:0.406581 43:0.35354 44:0.419884 45:0.35109 46:0.243345 47:0.37924 48:0.536854 49:0.397216 50:0.429083 51:0.717757 52:0.474206 53:0.704104 54:0.425765 55:0.705616 56:0.60961 57:0.694153 58:0.685617 59:0.676881 60:1 61:0.330711 62:0.508504 63:0.412452 64:0.389046 65:0.631082 66:0.627979 67:0.597389 68:0.328322 69:0.621188 70:0.588328 71:0.511922 72:0.574336 73:0.450489 74:0.418291 75:0.52394 76:0.643956 77:0.443921 78:0.571867 79:0.369104 80:0.549016 81:0.364553 82:0.550069 83:0.229992 84:0.517609 85:0.589984 86:0.372734 87:0.602133 88:0.478964 89:0.602484 90:0.409641 91:0.485719 92:0.466448 93:0.5378 94:0.58231 95:0.6611 96:0.521142 97:0.564005 98:0.400739 99:0.442657 100:0.308259 
-1 1:0.412049 2:0.146849 3:0.177186 4:0.224425 5:0.204946 6:0.232198 7:0.197933 8:0.223909 9:0.21089 10:0.232994 11:0.27542 12:0.378112 13:0.193617 14:0.266158 15:0.295765 16:0.31163 17:0.39734 18:0.279271 19:0.553569 20:0.31952 21:0.21316 22:0.397836 23:0.198858 24:0.284883 25:0.408244 26:0.319081 27:0.36573 28:0.231088 29:0.315457 30:0.250791 31:0.208607 32:0.253697 33:0.141256 34:0.192424 35:0.209368 36:0.179218 37:0.260485 38:0.381286 39:0.314856 40:0.170862 41:0.370296 42:0.390026 43:0.260795 44:0.264819 45:0.403428 46:0.192381 47:0.235328 48:0.21931 49:0.390739 50:0.353606 51:0.341573 52:0.260344 53:0.352109 54:0.305901 55:0.338846 56:0.308233 57:0.322896 58:0.296355 59:0.315305 60:0.330711 61:1 62:0.250405 63:0.517099 64:0.426587 65:0.267232 66:0.306023 67:0.308068 68:0.179295 69:0.273633 70:0.275099 71:0.289427 72:0.334838 73:0.495041 74:0.446274 75:0.256352 76:0.419929 77:0.414544 78:0.231359 79:0.449946 80:0.264823 81:0.405474 82:0.307178 83:0.146724 84:0.266954 85:0.270723 86:0.22127 87:0.262772 88:0.227629 89:0.269527 90:0.222765 91:0.277428 92:0.3807 93:0.588857 94:0.453505 95:0.309466 96:0.293681 97:0.26118 98:0.231376 99:0.383248 100:0.232471 
-1 1:0.454954 2:0.169688 3:0.301273 4:0.510804 5:0.360526 6:0.242894 7:0.463473 8:0.414553 9:0.421182 10:0.242203 11:0.440771 12:0.408502 13:0.392503 14:0.37013 15:0.543791 16:0.343197 17:0.432436 18:0.311608 19:0.449809 20:0.32991 21:0.428983 22:0.395142 23:0.216348 24:0.441475 25:0.238739 26:0.432066 27:0.316505 28:0.244379 29:0.364105 30:0.346855 31:0.301012 32:0.263317 33:0.196962 34:0.221602 35:0.234007 36:0.315744 37:0.393288 38:0.481519 39:0.440878 40:0.10922 41:0.517879 42:0.412814 43:0.507003 44:0.376098 45:0.340637 46:0.280903 47:0.374841 48:0.465322 49:0.457417 50:0.408443 51:0.619918 52:0.607113 53:0.537634 54:0.284274 55:0.552517 56:0.559951 57:0.544163 58:0.668365 59:0.583033 60:0.508504 61:0.250405 62:1 63:0.328412 64:0.341918 65:0.649369 66:0.530356 67:0.70068 68:0.309449 69:0.656151 70:0.634 71:0.75417 72:0.324208 73:0.464973 74:0.479218 75:0.787406 76:0.447253 77:0.515035 78:0.524807 79:0.353523 80:0.647106 81:0.335526 82:0.613557 83:0.276203 84:0.704191 85:0.67631 86:0.349627 87:0.545515 88:0.560203 89:0.770687 90:0.588804 91:0.522365 92:0.42453 93:0.384346 94:0.610774 95:0.624196 96:0.574882 97:0.641999 98:0.572589 99:0.461223 100:0.378655 
-1 1:0.450808 2:0.166152 3:0.198304 4:0.272903 5:0.231153 6:0.190608 7:0.345159 8:0.385054 9:0.274903 10:0.256092 11:0.34156 12:0.458209 13:0.217206 14:0.417793 15:0.377915 16:0.441548 17:0.472848 18:0.427566 19:0.443483 20:0.461024 21:0.366004 22:0.374157 23:0.270244 24:0.382539 25:0.347371 26:0.46701 27:0.455619 28:0.336984 29:0.481175 30:0.307159 31:0.275483 32:0.366066 33:0.165942 34:0.322501 35:0.259439 36:0.203397 37:0.421567 38:0.486323 39:0.464939 40:0.174502 41:0.414449 42:0.487563 43:0.300525 44:0.418327 45:0.334194 46:0.21898 47:0.313889 48:0.252127 49:0.405796 50:0.412368 51:0.419429 52:0.270097 53:0.487679 54:0.410019 55:0.430164 56:0.424696 57:0.362761 58:0.364504 59:0.404397 60:0.412452 61:0.517099 62:0.328412 63:1 64:0.330145 65:0.329827 66:0.375583 67:0.4092 68:0.35836 69:0.365959 70:0.368122 71:0.321511 72:0.439283 73:0.537188 74:0.454584 75:0.319229 76:0.56297 77:0.562997 78:0.341083 79:0.451064 80:0.303059 81:0.405189 82:0.312509 83:0.18951 84:0.298039 85:0.359729 86:0.363737 87:0.326818 88:0.285871 89:0.364664 90:0.24706 91:0.393161 92:0.468877 93:0.604408 94:0.507113 95:0.373734 96:0.343945 97:0.302486 98:0.253627 99:0.549279 100:0.304899 
-1 1:0.383247 2:0.151069 3:0.166122 4:0.289666 5:0.192051 6:0.41129 7:0.19241 8:0.28532 9:0.248986 10:0.204873 11:0.241724 12:0.45509 13:0.171503 14:0.306728 15:0.306059 16:0.251497 17:0.610127 18:0.246489 19:0.449693 20:0.236706 21:0.220504 22:0.431359 23:0.171206 24:0.435688 25:0.294418 26:0.453699 27:0.471579 28:0.196754 29:0.280367 30:0.355716 31:0.249902 32:0.235682 33:0.0936603 34:0.194073 35:0.192586 36:0.1764 37:0.443109 38:0.532355 39:0.327668 40:0.112333 41:0.449601 42:0.422353 43:0.263487 44:0.225783 45:0.444295 46:0.144818 47:0.179179 48:0.267424 49:0.385166 50:0.511087 51:0.377588 52:0.384738 53:0.380059 54:0.505949 55:0.459069 56:0.360616 57:0.471541 58:0.444241 59:0.397133 60:0.389046 61:0.426587 62:0.341918 63:0.330145 64:1 65:0.365614 66:0.351774 67:0.359445 68:0.222902 69:0.395119 70:0.409053 71:0.331274 72:0.343586 73:0.44497 74:0.521441 75:0.327238 76:0.522351 77:0.469272 78:0.306784 79:0.384668 80:0.353111 81:0.41214 82:0.360165 83:0.181597 84:0.381565 85:0.392066 86:0.238932 87:0.474922 88:0.442579 89:0.361869 90:0.318464 91:0.294335 92:0.542913 93:0.68413 94:0.561463 95:0.370625 96:0.317332 97:0.383662 98:0.295827 99:0.456709 100:0.279112 
-1 1:0.515822 2:0.23959 3:0.301751 4:0.505655 5:0.308819 6:0.294301 7:0.431313 8:0.454005 9:0.419984 10:0.268934 11:0.438791 12:0.45622 13:0.341405 14:0.368717 15:0.593519 16:0.367591 17:0.520078 18:0.381295 19:0.379937 20:0.297553 21:0.34163 22:0.420813 23:0.271561 24:0.431557 25:0.27064 26:0.481122 27:0.333412 28:0.317688 29:0.290205 30:0.351802 31:0.374829 32:0.285646 33:0.178596 34:0.336433 35:0.232095 36:0.298722 37:0.427458 38:0.531254 39:0.448776 40:0.14628 41:0.470124 42:0.439831 43:0.467818 44:0.392987 45:0.392601 46:0.225216 47:0.350296 48:0.521752 49:0.416373 50:0.467041 51:0.777082 52:0.692707 53:0.632568 54:0.365378 55:0.668674 56:0.721673 57:0.509657 58:0.729524 59:0.67023 60:0.631082 61:0.267232 62:0.649369 63:0.329827 64:0.365614 65:1 66:0.656323 67:0.697017 68:0.347097 69:0.783783 70:0.734039 71:0.722006 72:0.394937 73:0.425696 74:0.592624 75:0.805628 76:0.515973 77:0.460956 78:0.650813 79:0.373365 80:0.827077 81:0.357086 82:0.667053 83:0.328395 84:0.739707 85:0.790206 86:0.443146 87:0.625418 88:0.597672 89:0.693853 90:0.593454 91:0.434567 92:0.446235 93:0.460051 94:0.64805 95:0.657354 96:0.698916 97:0.687206 98:0.595657 99:0.393421 100:0.376637 
-1 1:0.505684 2:0.205285 3:0.387126 4:0.591391 5:0.342411 6:0.352494 7:0.359764 8:0.435724 9:0.439875 10:0.249755 11:0.47649 12:0.419744 13:0.374878 14:0.505892 15:0.655474 16:0.455217 17:0.462325 18:0.548011 19:0.441204 20:0.437707 21:0.349823 22:0.380704 23:0.325604 24:0.468972 25:0.220908 26:0.542882 27:0.343181 28:0.389383 29:0.276387 30:0.431571 31:0.456956 32:0.35499 33:0.182411 34:0.326997 35:0.29319 36:0.334244 37:0.458377 38:0.50955 39:0.471677 40:0.139434 41:0.504809 42:0.389135 43:0.523937 44:0.393842 45:0.373725 46:0.255787 47:0.473313 48:0.668269 49:0.523992 50:0.414548 51:0.899796 52:0.592961 53:0.702722 54:0.438486 55:0.632294 56:0.691513 57:0.430524 58:0.663395 59:0.724777 60:0.627979 61:0.306023 62:0.530356 63:0.375583 64:0.351774 65:0.656323 66:1 67:0.620046 68:0.284904 69:0.65873 70:0.607323 71:0.610472 72:0.495246 73:0.358163 74:0.521011 75:0.655496 76:0.579845 77:0.441845 78:0.55356 79:0.3264 80:0.680098 81:0.381686 82:0.588308 83:0.253225 84:0.643765 85:0.66427 86:0.363818 87:0.510951 88:0.582774 89:0.552327 90:0.582723 91:0.421094 92:0.47589 93:0.493466 94:0.53879 95:0.57702 96:0.824288 97:0.573003 98:0.637134 99:0.336239 100:0.366248 
-0.1031578314017787 1:0.54008 2:0.228681 3:0.4022 4:0.556137 5:0.344799 6:0.314469 7:0.486719 8:0.514629 9:0.449083 10:0.230075 11:0.516197 12:0.499975 13:0.422493 14:0.492437 15:0.684199 16:0.450484 17:0.607923 18:0.488823 19:0.474668 20:0.41755 21:0.416688 22:0.527315 23:0.340046 24:0.556992 25:0.326814 26:0.647097 27:0.404749 28:0.388384 29:0.384838 30:0.512951 31:0.419676 32:0.373334 33:0.222944 34:0.404038 35:0.29086 36:0.325636 37:0.459737 38:0.656843 39:0.588514 40:0.190255 41:0.569874 42:0.510909 43:0.492694 44:0.428603 45:0.432593 46:0.27667 47:0.394593 48:0.563876 49:0.518224 50:0.543713 51:0.683907 52:0.635764 53:0.644397 54:0.375789 55:0.71854 56:0.717791 57:0.600911 58:0.78635 59:0.716856 60:0.597389 61:0.308068 62:0.70068 63:0.4092 64:0.359445 65:0.697017 66:0.620046 67:1 68:0.39698 69:0.855105 70:0.763903 71:0.759493 72:0.484369 73:0.512285 74:0.597252 75:0.77181 76:0.552729 77:0.56203 78:0.604752 79:0.423761 80:0.714871 81:0.499744 82:0.645231 83:0.387945 84:0.755929 85:0.84551 86:0.532365 87:0.63212 88:0.601886 89:0.749978 90:0.515643 91:0.594966 92:0.536156 93:0.458967 94:0.652828 95:0.707909 96:0.668861 97:0.683554 98:0.547908 99:0.477543 100:0.425115 
-1 1:0.247631 2:0.124484 3:0.145733 4:0.23496 5:0.156664 6:0.216124 7:0.425345 8:0.263566 9:0.189604 10:0.153891 11:0.24788 12:0.288252 13:0.144433 14:0.161343 15:0.293632 16:0.158795 17:0.363293 18:0.186151 19:0.220803 20:0.147389 21:0.186358 22:0.226987 23:0.162956 24:0.22198 25:0.182019 26:0.322264 27:0.210465 28:0.124842 29:0.299706 30:0.177494 31:0.13485 32:0.120287 33:0.0921069 34:0.234095 35:0.0935376 36:0.191857 37:0.220065 38:0.411591 39:0.231692 40:0.155169 41:0.207637 42:0.313847 43:0.214071 44:0.210826 45:0.268548 46:0.151314 47:0.150779 48:0.175751 49:0.182389 50:0.314182 51:0.309184 52:0.241396 53:0.445762 54:0.283543 55:0.374858 56:0.384125 57:0.332395 58:0.361504 59:0.416336 60:0.328322 61:0.179295 62:0.309449 63:0.35836 64:0.222902 65:0.347097 66:0.284904 67:0.39698 68:1 69:0.425735 70:0.396942 71:0.330705 72:0.469317 73:0.391973 74:0.290706 75:0.349189 76:0.414654 77:0.265694 78:0.496015 79:0.256428 80:0.266174 81:0.205878 82:0.230597 83:0.179521 84:0.3236 85:0.435129 86:0.464581 87:0.264238 88:0.263376 89:0.414883 90:0.212963 91:0.328683 92:0.336728 93:0.336504 94:0.302719 95:0.346261 96:0.271177 97:0.356021 98:0.174244 99:0.372652 100:0.231929 
-1 1:0.431935 2:0.190201 3:0.310796 4:0.477992 5:0.31942 6:0.251235 7:0.42309 8:0.416796 9:0.417552 10:0.255054 11:0.496856 12:0.389349 13:0.360424 14:0.373405 15:0.552104 16:0.37841 17:0.458513 18:0.374016 19:0.41999 20:0.355534 21:0.410488 22:0.378493 23:0.257783 24:0.419668 25:0.263694 26:0.501565 27:0.311097 28:0.297196 29:0.316136 30:0.407842 31:0.331785 32:0.292704 33:0.192436 34:0.266669 35:0.264045 36:0.328829 37:0.364774 38:0.52271 39:0.499556 40:0.178644 41:0.490379 42:0.417383 43:0.49303 44:0.402149 45:0.341877 46:0.248235 47:0.362195 48:0.467844 49:0.414425 50:0.40449 51:0.695881 52:0.592648 53:0.630184 54:0.3025 55:0.612706 56:0.642083 57:0.523916 58:0.727084 59:0.691956 60:0.511922 61:0.289427 62:0.75417 63:0.321511 64:0.331274 65:0.722006 66:0.610472 67:0.759493 68:0.330705 69:0.773246 70:0.641419 71:1 72:0.390266 73:0.445964 74:0.622045 75:0.859679 76:0.474502 77:0.489078 78:0.584996 79:0.374811 80:0.690092 81:0.335295 82:0.592142 83:0.29584 84:0.732439 85:0.757005 86:0.445351 87:0.525109 88:0.532174 89:0.772523 90:0.58391 91:0.483774 92:0.409839 93:0.381275 94:0.613492 95:0.761238 96:0.661627 97:0.726368 98:0.598469 99:0.409905 100:0.418174 
-1 1:0.380885 2:0.203267 3:0.303604 4:0.387131 5:0.251089 6:0.439545 7:0.367231 8:0.356594 9:0.297954 10:0.313252 11:0.370626 12:0.425814 13:0.239895 14:0.346383 15:0.582378 16:0.378618 17:0.477205 18:0.443137 19:0.334324 20:0.3656 21:0.258959 22:0.370921 23:0.39236 24:0.354156 25:0.258816 26:0.495797 27:0.341958 28:0.29009 29:0.276867 30:0.390734 31:0.35006 32:0.272974 33:0.226724 34:0.488581 35:0.27186 36:0.3178 37:0.322882 38:0.51309 39:0.418062 40:0.267609 41:0.365392 42:0.414182 43:0.348718 44:0.356623 45:0.327571 46:0.297977 47:0.351651 48:0.357106 49:0.347406 50:0.417894 51:0.517469 52:0.400659 53:0.665785 54:0.531423 55:0.637034 56:0.536738 57:0.505881 58:0.54216 59:0.593977 60:0.574336 61:0.334838 62:0.324208 63:0.439283 64:0.343586 65:0.394937 66:0.495246 67:0.484369 68:0.469317 69:0.51345 70:0.551345 71:0.390266 72:1 73:0.446729 74:0.389552 75:0.332454 76:0.669182 77:0.413427 78:0.497161 79:0.376213 80:0.399726 81:0.370152 82:0.471724 83:0.201343 84:0.412022 85:0.506824 86:0.506061 87:0.476338 88:0.410738 89:0.464252 90:0.313588 91:0.462084 92:0.52519 93:0.534587 94:0.436136 95:0.523554 96:0.416382 97:0.528494 98:0.269156 99:0.44596 100:0.391128 
-1 1:0.522246 2:0.149501 3:0.200509 4:0.322986 5:0.229957 6:0.256486 7:0.367031 8:0.37841 9:0.275639 10:0.215484 11:0.341816 12:0.540556 13:0.226637 14:0.341633 15:0.433891 16:0.326905 17:0.602963 18:0.307197 19:0.538451 20:0.311348 21:0.290884 22:0.536503 23:0.217081 24:0.458875 25:0.441223 26:0.477336 27:0.455208 28:0.249475 29:0.422182 30:0.318131 31:0.270887 32:0.284869 33:0.141494 34:0.297252 35:0.197702 36:0.197888 37:0.387109 38:0.581448 39:0.446 40:0.236847 41:0.52422 42:0.507262 43:0.300459 44:0.384546 45:0.535412 46:0.189927 47:0.270504 48:0.290908 49:0.451268 50:0.61789 51:0.431433 52:0.389861 53:0.490046 54:0.38885 55:0.497349 56:0.41835 57:0.547103 58:0.493629 59:0.478614 60:0.450489 61:0.495041 62:0.464973 63:0.537188 64:0.44497 65:0.425696 66:0.358163 67:0.512285 68:0.391973 69:0.470536 70:0.515101 71:0.445964 72:0.446729 73:1 74:0.495417 75:0.404739 76:0.508013 77:0.559365 78:0.403817 79:0.54454 80:0.427571 81:0.450699 82:0.463472 83:0.217544 84:0.416202 85:0.47929 86:0.481218 87:0.440603 88:0.432376 89:0.508233 90:0.359133 91:0.464228 92:0.551119 93:0.567354 94:0.628473 95:0.490667 96:0.375673 97:0.449727 98:0.354528 99:0.520815 100:0.361137 
-1 1:0.479818 2:0.216577 3:0.28642 4:0.379133 5:0.325373 6:0.30648 7:0.266933 8:0.461922 9:0.345454 10:0.263255 11:0.406782 12:0.582634 13:0.298821 14:0.427061 15:0.517128 16:0.439623 17:0.618083 18:0.367902 19:0.569723 20:0.40267 21:0.348501 22:0.539884 23:0.277989 24:0.494546 25:0.375189 26:0.609214 27:0.593077 28:0.324499 29:0.385143 30:0.483448 31:0.368516 32:0.347525 33:0.167562 34:0.303305 35:0.343202 36:0.271494 37:0.476087 38:0.637639 39:0.529252 40:0.244695 41:0.572165 42:0.57755 43:0.419971 44:0.423588 45:0.458652 46:0.208166 47:0.317938 48:0.37711 49:0.506216 50:0.513054 51:0.590274 52:0.511429 53:0.55479 54:0.486212 55:0.584184 56:0.599437 57:0.47899 58:0.636404 59:0.606962 60:0.418291 61:0.446274 62:0.479218 63:0.454584 64:0.521441 65:0.592624 66:0.521011 67:0.597252 68:0.290706 69:0.674258 70:0.574142 71:0.622045 72:0.389552 73:0.495417 74:1 75:0.585742 76:0.477547 77:0.587652 78:0.483391 79:0.488046 80:0.566409 81:0.576576 82:0.506482 83:0.278125 84:0.562186 85:0.641803 86:0.449334 87:0.478982 88:0.43062 89:0.549911 90:0.392244 91:0.405557 92:0.512015 93:0.560725 94:0.676251 95:0.549562 96:0.560873 97:0.598681 98:0.472621 99:0.49511 100:0.491954 
-1 1:0.425172 2:0.195632 3:0.33989 4:0.492721 5:0.327973 6:0.242062 7:0.451765 8:0.433893 9:0.436864 10:0.243397 11:0.446684 12:0.400936 13:0.360487 14:0.365185 15:0.542379 16:0.346273 17:0.452261 18:0.370908 19:0.407581 20:0.319909 21:0.406141 22:0.390602 23:0.248595 24:0.430878 25:0.248178 26:0.455859 27:0.302511 28:0.288107 29:0.302345 30:0.334234 31:0.318846 32:0.25985 33:0.176586 34:0.248008 35:0.2401 36:0.333185 37:0.39574 38:0.515721 39:0.435212 40:0.124122 41:0.468556 42:0.415058 43:0.519738 44:0.352663 45:0.367301 46:0.255033 47:0.371221 48:0.489921 49:0.419702 50:0.414556 51:0.721833 52:0.672676 53:0.569806 54:0.320396 55:0.577053 56:0.656461 57:0.446257 58:0.689396 59:0.636328 60:0.52394 61:0.256352 62:0.787406 63:0.319229 64:0.327238 65:0.805628 66:0.655496 67:0.77181 68:0.349189 69:0.770372 70:0.645997 71:0.859679 72:0.332454 73:0.404739 74:0.585742 75:1 76:0.467983 77:0.454899 78:0.619622 79:0.352747 80:0.754967 81:0.356462 82:0.600088 83:0.34228 84:0.790608 85:0.796297 86:0.378599 87:0.493785 88:0.554055 89:0.684011 90:0.593793 91:0.46469 92:0.406858 93:0.40622 94:0.577925 95:0.636616 96:0.719553 97:0.618916 98:0.604741 99:0.398825 100:0.368094 
-1 1:0.546585 2:0.211422 3:0.232747 4:0.406623 5:0.282317 6:0.433796 7:0.446496 8:0.53858 9:0.324022 10:0.277232 11:0.406174 12:0.578243 13:0.255134 14:0.474382 15:0.531514 16:0.463377 17:0.628799 18:0.449408 19:0.437339 20:0.436029 21:0.467754 22:0.398603 23:0.275102 24:0.485703 25:0.259132 26:0.592577 27:0.451724 28:0.299059 29:0.434314 30:0.457867 31:0.36327 32:0.368432 33:0.15647 34:0.458388 35:0.245404 36:0.25138 37:0.52659 38:0.584892 39:0.529467 40:0.164808 41:0.463507 42:0.513191 43:0.367429 44:0.44406 45:0.423119 46:0.214836 47:0.313614 48:0.372458 49:0.449384 50:0.547093 51:0.613398 52:0.467732 53:0.71031 54:0.503816 55:0.61582 56:0.60721 57:0.485903 58:0.561235 59:0.647077 60:0.643956 61:0.419929 62:0.447253 63:0.56297 64:0.522351 65:0.515973 66:0.579845 67:0.552729 68:0.414654 69:0.54493 70:0.545762 71:0.474502 72:0.669182 73:0.508013 74:0.477547 75:0.467983 76:1 77:0.509764 78:0.555581 79:0.415738 80:0.47073 81:0.41778 82:0.468387 83:0.228869 84:0.467838 85:0.544127 86:0.439643 87:0.543603 88:0.507088 89:0.534438 90:0.375515 91:0.531201 92:0.645589 93:0.733538 94:0.61201 95:0.591395 96:0.490888 97:0.491207 98:0.367578 99:0.594536 100:0.434497 
-1 1:0.456705 2:0.153745 3:0.255263 4:0.391984 5:0.244523 6:0.270849 7:0.351334 8:0.580348 9:0.347311 10:0.217606 11:0.353789 12:0.69324 13:0.278098 14:0.470345 15:0.478855 16:0.426262 17:0.683621 18:0.461263 19:0.590938 20:0.436735 21:0.464479 22:0.636095 23:0.302892 24:0.638751 25:0.487604 26:0.549402 27:0.526294 28:0.339623 29:0.47073 30:0.414037 31:0.369007 32:0.385771 33:0.161196 34:0.341983 35:0.306773 36:0.20416 37:0.48834 38:0.613041 39:0.527283 40:0.152262 41:0.673628 42:0.494145 43:0.358107 44:0.466498 45:0.54662 46:0.184647 47:0.366141 48:0.338499 49:0.558741 50:0.694729 51:0.504786 52:0.420565 53:0.497053 54:0.512436 55:0.507949 56:0.493722 57:0.460928 58:0.497556 59:0.485132 60:0.443921 61:0.414544 62:0.515035 63:0.562997 64:0.469272 65:0.460956 66:0.441845 67:0.56203 68:0.265694 69:0.526064 70:0.503127 71:0.489078 72:0.413427 73:0.559365 74:0.587652 75:0.454899 76:0.509764 77:1 78:0.390431 79:0.615979 80:0.432618 81:0.599049 82:0.441134 83:0.236474 84:0.469492 85:0.479945 86:0.424451 87:0.490591 88:0.468083 89:0.522608 90:0.363865 91:0.412062 92:0.596928 93:0.600546 94:0.550642 95:0.458078 96:0.435967 97:0.4461 98:0.367758 99:0.565012 100:0.572522 
-1 1:0.458495 2:0.164672 3:0.27461 4:0.401848 5:0.280124 6:0.288737 7:0.607851 8:0.491431 9:0.396732 10:0.24031 11:0.4507 12:0.498167 13:0.301942 14:0.322441 15:0.510422 16:0.352686 17:0.480197 18:0.317924 19:0.376265 20:0.313525 21:0.383674 22:0.349665 23:0.26474 24:0.401769 25:0.232051 26:0.503336 27:0.370655 28:0.218422 29:0.282583 30:0.318252 31:0.293657 32:0.199975 33:0.198097 34:0.380439 35:0.191879 36:0.367787 37:0.421531 38:0.557601 39:0.447915 40:0.16595 41:0.403657 42:0.501156 43:0.459167 44:0.515308 45:0.359869 46:0.264664 47:0.334285 48:0.380149 49:0.371628 50:0.425813 51:0.599979 52:0.489648 53:0.754568 54:0.434745 55:0.587316 56:0.608541 57:0.520342 58:0.656663 59:0.709279 60:0.571867 61:0.231359 62:0.524807 63:0.341083 64:0.306784 65:0.650813 66:0.55356 67:0.604752 68:0.496015 69:0.69822 70:0.599093 71:0.584996 72:0.497161 73:0.403817 74:0.483391 75:0.619622 76:0.555581 77:0.390431 78:1 79:0.309186 80:0.518239 81:0.315703 82:0.442719 83:0.295836 84:0.555386 85:0.693185 86:0.414948 87:0.501099 88:0.448436 89:0.636294 90:0.397147 91:0.465724 92:0.475918 93:0.44447 94:0.536671 95:0.630432 96:0.548551 97:0.668672 98:0.327992 99:0.395011 100:0.409453 
-1 1:0.374073 2:0.164794 3:0.183457 4:0.26764 5:0.262817 6:0.280336 7:0.250608 8:0.423264 9:0.294673 10:0.207164 11:0.288961 12:0.497014 13:0.224471 14:0.337437 15:0.360355 16:0.319293 17:0.544362 18:0.349934 19:0.499051 20:0.309937 21:0.269149 22:0.629033 23:0.241713 24:0.43812 25:0.653389 26:0.412231 27:0.3923 28:0.291713 29:0.363401 30:0.272841 31:0.274782 32:0.279841 33:0.145974 34:0.264769 35:0.206028 36:0.176449 37:0.329865 38:0.450061 39:0.416437 40:0.191873 41:0.57286 42:0.433289 43:0.276 44:0.352249 45:0.513016 46:0.175906 47:0.291709 48:0.256134 49:0.427136 50:0.591637 51:0.370766 52:0.375845 53:0.371833 54:0.360802 55:0.418846 56:0.344892 57:0.339933 58:0.367036 59:0.360374 60:0.369104 61:0.449946 62:0.353523 63:0.451064 64:0.384668 65:0.373365 66:0.3264 67:0.423761 68:0.256428 69:0.374028 70:0.373385 71:0.374811 72:0.376213 73:0.54454 74:0.488046 75:0.352747 76:0.415738 77:0.615979 78:0.309186 79:1 80:0.360246 81:0.511416 82:0.39985 83:0.210429 84:0.360044 85:0.372275 86:0.340154 87:0.395346 88:0.348297 89:0.354835 90:0.280349 91:0.367727 92:0.500268 93:0.589638 94:0.46965 95:0.410612 96:0.353681 97:0.364109 98:0.286866 99:0.424032 100:0.476634 
-1 1:0.558737 2:0.215502 3:0.348481 4:0.534994 5:0.295862 6:0.371928 7:0.349813 8:0.398331 9:0.39604 10:0.245702 11:0.414962 12:0.406826 13:0.352549 14:0.431926 15:0.657103 16:0.384597 17:0.505198 18:0.43071 19:0.397963 20:0.318737 21:0.286487 22:0.42506 23:0.287238 24:0.452351 25:0.263928 26:0.506611 27:0.338379 28:0.377179 29:0.302391 30:0.42802 31:0.449872 32:0.338501 33:0.199646 34:0.356479 35:0.295358 36:0.302192 37:0.419984 38:0.552033 39:0.462063 40:0.177869 41:0.503217 42:0.377055 43:0.455229 44:0.376263 45:0.383381 46:0.249973 47:0.381675 48:0.606944 49:0.487104 50:0.448327 51:0.805635 52:0.730431 53:0.576042 54:0.328575 55:0.652023 56:0.678186 57:0.50513 58:0.793809 59:0.657681 60:0.549016 61:0.264823 62:0.647106 63:0.303059 64:0.353111 65:0.827077 66:0.680098 67:0.714871 68:0.266174 69:0.761112 70:0.819618 71:0.690092 72:0.399726 73:0.427571 74:0.566409 75:0.754967 76:0.47073 77:0.432618 78:0.518239 79:0.360246 80:1 81:0.339543 82:0.778355 83:0.255986 84:0.703099 85:0.834542 86:0.434294 87:0.565784 88:0.645972 89:0.655556 90:0.721954 91:0.498325 92:0.464407 93:0.42916 94:0.641253 95:0.621925 96:0.733212 97:0.675991 98:0.769537 99:0.340103 100:0.357676 
-1 1:0.399345 2:0.170641 3:0.273871 4:0.336972 5:0.260698 6:0.24683 7:0.216969 8:0.503729 9:0.289201 10:0.149584 11:0.284833 12:0.643678 13:0.27891 14:0.42752 15:0.4507 16:0.394202 17:0.557493 18:0.405718 19:0.539731 20:0.408406 21:0.357812 22:0.711098 23:0.326932 24:0.474327 25:0.406795 26:0.488761 27:0.503579 28:0.294921 29:0.280257 30:0.406316 31:0.343899 32:0.332794 33:0.143086 34:0.324007 35:0.30658 36:0.19017 37:0.396458 38:0.487834 39:0.496084 40:0.151104 41:0.632682 42:0.454401 43:0.326407 44:0.378769 45:0.50152 46:0.165556 47:0.345248 48:0.308852 49:0.541358 50:0.590571 51:0.400343 52:0.402365 53:0.388099 54:0.456946 55:0.41435 56:0.408038 57:0.344902 58:0.393517 59:0.395342 60:0.364553 61:0.405474 62:0.335526 63:0.405189 64:0.41214 65:0.357086 66:0.381686 67:0.499744 68:0.205878 69:0.427513 70:0.413259 71:0.335295 72:0.370152 73:0.450699 74:0.576576 75:0.356462 76:0.41778 77:0.599049 78:0.315703 79:0.511416 80:0.339543 81:1 82:0.370144 83:0.258694 84:0.425267 85:0.411045 86:0.326699 87:0.370154 88:0.35488 89:0.348798 90:0.260839 91:0.363123 92:0.510403 93:0.517727 94:0.418816 95:0.333356 96:0.401009 97:0.351786 98:0.256171 99:0.451393 100:0.455911 
-1 1:0.538327 2:0.197207 3:0.458805 4:0.59829 5:0.289352 6:0.349172 7:0.329787 8:0.354517 9:0.397345 10:0.347083 11:0.44087 12:0.386767 13:0.327682 14:0.453561 15:0.679281 16:0.444806 17:0.454522 18:0.46548 19:0.418244 20:0.383364 21:0.284926 22:0.410005 23:0.36831 24:0.423729 25:0.24982 26:0.498031 27:0.32675 28:0.404512 29:0.267315 30:0.413492 31:0.506951 32:0.385353 33:0.270829 34:0.322602 35:0.380266 36:0.34674 37:0.424933 38:0.494321 39:0.436332 40:0.174658 41:0.552176 42:0.410477 43:0.505521 44:0.333958 45:0.360613 46:0.359676 47:0.465644 48:0.655596 49:0.50865 50:0.399278 51:0.657132 52:0.712899 53:0.497708 54:0.344551 55:0.668089 56:0.600768 57:0.518571 58:0.691037 59:0.587739 60:0.550069 61:0.307178 62:0.613557 63:0.312509 64:0.360165 65:0.667053 66:0.588308 67:0.645231 68:0.230597 69:0.628684 70:0.712235 71:0.592142 72:0.471724 73:0.463472 74:0.506482 75:0.600088 76:0.468387 77:0.441134 78:0.442719 79:0.39985 80:0.778355 81:0.370144 82:1 83:0.251497 84:0.71759 85:0.671555 86:0.350295 87:0.638459 88:0.623086 89:0.563576 90:0.595367 91:0.541977 92:0.496638 93:0.436243 94:0.603614 95:0.593438 96:0.617838 97:0.62954 98:0.623393 99:0.314453 100:0.385193 
-1 1:0.137662 2:0.381974 3:0.139561 4:0.18373 5:0.414193 6:0.106924 7:0.152173 8:0.218805 9:0.3652 10:0.190693 11:0.36333 12:0.18954 13:0.403791 14:0.145387 15:0.197648 16:0.217657 17:0.234023 18:0.23535 19:0.161926 20:0.207115 21:0.192179 22:0.238421 23:0.206589 24:0.237192 25:0.163161 26:0.18599 27:0.126887 28:0.199629 29:0.104501 30:0.134631 31:0.125611 32:0.119 33:0.286883 34:0.118819 35:0.149579 36:0.275741 37:0.146841 38:0.23174 39:0.205068 40:0.0450018 41:0.189195 42:0.240098 43:0.368144 44:0.163425 45:0.167345 46:0.234231 47:0.163567 48:0.132841 49:0.172524 50:0.24081 51:0.266256 52:0.405836 53:0.260734 54:0.194971 55:0.318417 56:0.282659 57:0.182704 58:0.26691 59:0.212235 60:0.229992 61:0.146724 62:0.276203 63:0.18951 64:0.181597 65:0.328395 66:0.253225 67:0.387945 68:0.179521 69:0.328779 70:0.265597 71:0.29584 72:0.201343 73:0.217544 74:0.278125 75:0.34228 76:0.228869 77:0.236474 78:0.295836 79:0.210429 80:0.255986 81:0.258694 82:0.251497 83:1 84:0.450834 85:0.330496 86:0.225634 87:0.288223 88:0.220975 89:0.247274 90:0.192224 91:0.144855 92:0.209707 93:0.224831 94:0.25986 95:0.28322 96:0.308963 97:0.338793 98:0.177385 99:0.26433 100:0.15104 
-1 1:0.406203 2:0.238491 3:0.39472 4:0.576397 5:0.3665 6:0.264158 7:0.374136 8:0.411397 9:0.477399 10:0.265019 11:0.517704 12:0.417818 13:0.415596 14:0.406383 15:0.585369 16:0.391526 17:0.490925 18:0.457383 19:0.397019 20:0.380346 21:0.355069 22:0.432061 23:0.347967 24:0.478582 25:0.252131 26:0.488734 27:0.285097 28:0.345405 29:0.25065 30:0.388301 31:0.369474 32:0.328891 33:0.251603 34:0.270615 35:0.333348 36:0.366244 37:0.410956 38:0.533547 39:0.418208 40:0.12362 41:0.519194 42:0.419201 43:0.591442 44:0.332998 45:0.377581 46:0.301854 47:0.389578 48:0.510938 49:0.45487 50:0.455648 51:0.679969 52:0.813542 53:0.536023 54:0.36519 55:0.611181 56:0.659353 57:0.46555 58:0.680934 59:0.645566 60:0.517609 61:0.266954 62:0.704191 63:0.298039 64:0.381565 65:0.739707 66:0.643765 67:0.755929 68:0.3236 69:0.764373 70:0.666721 71:0.732439 72:0.412022 73:0.416202 74:0.562186 75:0.790608 76:0.467838 77:0.469492 78:0.555386 79:0.360044 80:0.703099 81:0.425267 82:0.71759 83:0.450834 84:1 85:0.774911 86:0.401277 87:0.580294 88:0.607265 89:0.630191 90:0.552485 91:0.386566 92:0.442903 93:0.426931 94:0.557642 95:0.559388 96:0.666536 97:0.692573 98:0.569348 99:0.368967 100:0.369958 
-1 1:0.3269 2:0.141923 3:0.167043 4:0.260781 5:0.211289 6:0.276287 7:0.278818 8:0.394709 9:0.201762 10:0.116111 11:0.254955 12:0.43462 13:0.190796 14:0.303588 15:0.454143 16:0.259862 17:0.517568 18:0.309367 19:0.287458 20:0.239532 21:0.249027 22:0.406012 23:0.225231 24:0.361005 25:0.346417 26:0.444241 27:0.313161 28:0.223269 29:0.329702 30:0.324723 31:0.250592 32:0.236325 33:0.104825 34:0.473749 35:0.170069 36:0.159315 37:0.254708 38:0.421029 39:0.480269 40:0.232092 41:0.306697 42:0.362704 43:0.221493 44:0.386983 45:0.286394 46:0.114463 47:0.20194 48:0.235822 49:0.276208 50:0.463382 51:0.465724 52:0.33202 53:0.551645 54:0.311896 55:0.458481 56:0.513344 57:0.386326 58:0.499659 59:0.509636 60:0.372734 61:0.22127 62:0.349627 63:0.363737 64:0.238932 65:0.443146 66:0.363818 67:0.532365 68:0.464581 69:0.594292 70:0.580806 71:0.445351 72:0.506061 73:0.481218 74:0.449334 75:0.378599 76:0.439643 77:0.424451 78:0.414948 79:0.340154 80:0.434294 81:0.326699 82:0.350295 83:0.225634 84:0.401277 85:0.569477 86:1 87:0.341237 88:0.377524 89:0.603242 90:0.290973 91:0.371018 92:0.371791 93:0.349912 94:0.385677 95:0.44815 96:0.368754 97:0.520202 98:0.356812 99:0.478822 100:0.399059 
-1 1:0.487518 2:0.229252 3:0.282702 4:0.487312 5:0.299935 6:0.297752 7:0.324358 8:0.405918 9:0.42504 10:0.305273 11:0.422012 12:0.451138 13:0.319664 14:0.460513 15:0.586514 16:0.412478 17:0.582338 18:0.351683 19:0.397755 20:0.319592 21:0.296322 22:0.400403 23:0.220359 24:0.480073 25:0.258205 26:0.597467 27:0.387537 28:0.330924 29:0.232859 30:0.438199 31:0.401486 32:0.315574 33:0.179065 34:0.306907 35:0.205739 36:0.263124 37:0.52545 38:0.586634 39:0.515845 40:0.140525 41:0.534562 42:0.536811 43:0.408401 44:0.347827 45:0.374235 46:0.250996 47:0.292868 48:0.503054 49:0.441236 50:0.501831 51:0.546964 52:0.56256 53:0.571688 54:0.427965 55:0.809272 56:0.591777 57:0.611902 58:0.686926 59:0.572743 60:0.602133 61:0.262772 62:0.545515 63:0.326818 64:0.474922 65:0.625418 66:0.510951 67:0.63212 68:0.264238 69:0.641087 70:0.638092 71:0.525109 72:0.476338 73:0.440603 74:0.478982 75:0.493785 76:0.543603 77:0.490591 78:0.501099 79:0.395346 80:0.565784 81:0.370154 82:0.638459 83:0.288223 84:0.580294 85:0.621389 86:0.341237 87:1 88:0.683952 89:0.571921 90:0.412456 91:0.494112 92:0.510126 93:0.471949 94:0.715186 95:0.695905 96:0.511563 97:0.687821 98:0.422857 99:0.395438 100:0.348734 
-1 1:0.493585 2:0.14548 3:0.236682 4:0.476841 5:0.22065 6:0.316364 7:0.313837 8:0.416887 9:0.34732 10:0.196102 11:0.309991 12:0.414619 13:0.257529 14:0.437479 15:0.523961 16:0.299648 17:0.59426 18:0.354063 19:0.439299 20:0.261792 21:0.317186 22:0.382806 23:0.195931 24:0.441386 25:0.243499 26:0.562586 27:0.382579 28:0.280018 29:0.247292 30:0.438609 31:0.345233 32:0.281276 33:0.12145 34:0.288999 35:0.212933 36:0.209787 37:0.433955 38:0.549662 39:0.537234 40:0.131146 41:0.549794 42:0.411236 43:0.371353 44:0.32507 45:0.387124 46:0.175107 47:0.257522 48:0.496962 49:0.45067 50:0.518297 51:0.621361 52:0.624599 53:0.566814 54:0.392018 55:0.551057 56:0.568361 57:0.463429 58:0.612948 59:0.583174 60:0.478964 61:0.227629 62:0.560203 63:0.285871 64:0.442579 65:0.597672 66:0.582774 67:0.601886 68:0.263376 69:0.610374 70:0.710501 71:0.532174 72:0.410738 73:0.432376 74:0.43062 75:0.554055 76:0.507088 77:0.468083 78:0.448436 79:0.348297 80:0.645972 81:0.35488 82:0.623086 83:0.220975 84:0.607265 85:0.65819 86:0.377524 87:0.683952 88:1 89:0.575492 90:0.665054 91:0.474984 92:0.505779 93:0.450896 94:0.538296 95:0.555069 96:0.62689 97:0.603239 98:0.574086 99:0.332337 100:0.364844 
-1 1:0.517965 2:0.167057 3:0.271265 4:0.434348 5:0.310433 6:0.339048 7:0.485966 8:0.463208 9:0.359917 10:0.225569 11:0.426488 12:0.453559 13:0.338884 14:0.388909 15:0.592772 16:0.337983 17:0.54722 18:0.345482 19:0.424882 20:0.307974 21:0.38249 22:0.436121 23:0.24176 24:0.438148 25:0.292916 26:0.551872 27:0.388696 28:0.262452 29:0.404054 30:0.437778 31:0.341698 32:0.276526 33:0.182427 34:0.395953 35:0.234281 36:0.3071 37:0.384874 38:0.531353 39:0.554739 40:0.198548 41:0.487122 42:0.485934 43:0.443448 44:0.454028 45:0.352227 46:0.242765 47:0.321231 48:0.471656 49:0.400491 50:0.451428 51:0.695394 52:0.489325 53:0.753266 54:0.329522 55:0.623284 56:0.677106 57:0.683842 58:0.791178 59:0.745859 60:0.602484 61:0.269527 62:0.770687 63:0.364664 64:0.361869 65:0.693853 66:0.552327 67:0.749978 68:0.414883 69:0.806725 70:0.765003 71:0.772523 72:0.464252 73:0.508233 74:0.549911 75:0.684011 76:0.534438 77:0.522608 78:0.636294 79:0.354835 80:0.655556 81:0.348798 82:0.563576 83:0.247274 84:0.630191 85:0.783672 86:0.603242 87:0.571921 88:0.575492 89:1 90:0.529055 91:0.58574 92:0.493145 93:0.410314 94:0.609459 95:0.729242 96:0.57451 97:0.80272 98:0.550388 99:0.51205 100:0.456827 
-1 1:0.450634 2:0.140288 3:0.260023 4:0.464914 5:0.235704 6:0.277071 7:0.294635 8:0.313016 9:0.323383 10:0.205954 11:0.3431 12:0.284987 13:0.291651 14:0.303459 15:0.444481 16:0.270064 17:0.385591 18:0.299862 19:0.408854 20:0.247567 21:0.277767 22:0.32404 23:0.220039 24:0.329813 25:0.194268 26:0.362042 27:0.282534 28:0.239486 29:0.257069 30:0.307571 31:0.296832 32:0.219066 33:0.159429 34:0.199151 35:0.227437 36:0.272579 37:0.287053 38:0.382081 39:0.40716 40:0.144692 41:0.428968 42:0.258624 43:0.427656 44:0.296054 45:0.308616 46:0.22058 47:0.327255 48:0.504796 49:0.414435 50:0.340592 51:0.664804 52:0.623427 53:0.496596 54:0.269703 55:0.430751 56:0.448941 57:0.392747 58:0.551114 59:0.492185 60:0.409641 61:0.222765 62:0.588804 63:0.24706 64:0.318464 65:0.593454 66:0.582723 67:0.515643 68:0.212963 69:0.500712 70:0.641745 71:0.58391 72:0.313588 73:0.359133 74:0.392244 75:0.593793 76:0.375515 77:0.363865 78:0.397147 79:0.280349 80:0.721954 81:0.260839 82:0.595367 83:0.192224 84:0.552485 85:0.583572 86:0.290973 87:0.412456 88:0.665054 89:0.529055 90:1 91:0.410341 92:0.383502 93:0.347358 94:0.459461 95:0.52744 96:0.676023 97:0.541688 98:0.706407 99:0.252225 100:0.286543 
-1 1:0.548508 2:0.133994 3:0.297439 4:0.387039 5:0.23646 6:0.321438 7:0.382211 8:0.466466 9:0.252549 10:0.22989 11:0.324739 12:0.407861 13:0.22965 14:0.453679 15:0.524722 16:0.368662 17:0.442751 18:0.338928 19:0.410717 20:0.317579 21:0.35554 22:0.375937 23:0.242765 24:0.38186 25:0.243713 26:0.530571 27:0.401414 28:0.280125 29:0.313046 30:0.396857 31:0.396277 32:0.305841 33:0.141161 34:0.446791 35:0.232362 36:0.229289 37:0.429265 38:0.453875 39:0.558704 40:0.212853 41:0.502184 42:0.404068 43:0.333349 44:0.445441 45:0.323718 46:0.2439 47:0.353956 48:0.45997 49:0.477167 50:0.365338 51:0.487016 52:0.371569 53:0.572427 54:0.278134 55:0.571711 56:0.524179 57:0.551889 58:0.604642 59:0.553805 60:0.485719 61:0.277428 62:0.522365 63:0.393161 64:0.294335 65:0.434567 66:0.421094 67:0.594966 68:0.328683 69:0.527131 70:0.61319 71:0.483774 72:0.462084 73:0.464228 74:0.405557 75:0.46469 76:0.531201 77:0.412062 78:0.465724 79:0.367727 80:0.498325 81:0.363123 82:0.541977 83:0.144855 84:0.386566 85:0.5763 86:0.371018 87:0.494112 88:0.474984 89:0.58574 90:0.410341 91:1 92:0.492633 93:0.394678 94:0.531389 95:0.632599 96:0.47348 97:0.496269 98:0.388482 99:0.381969 100:0.376441 
-1 1:0.548342 2:0.185812 3:0.299095 4:0.440846 5:0.249747 6:0.472195 7:0.34378 8:0.472412 9:0.36217 10:0.261978 11:0.386143 12:0.557807 13:0.27737 14:0.463121 15:0.510098 16:0.439176 17:0.671123 18:0.432663 19:0.522686 20:0.40341 21:0.36257 22:0.512183 23:0.329603 24:0.569373 25:0.312553 26:0.610585 27:0.502678 28:0.331295 29:0.407737 30:0.467897 31:0.422056 32:0.373341 33:0.191512 34:0.372583 35:0.311646 36:0.280437 37:0.534445 38:0.637811 39:0.47877 40:0.146879 41:0.601453 42:0.566201 43:0.381212 44:0.375258 45:0.616877 46:0.242407 47:0.345583 48:0.394421 49:0.53188 50:0.645731 51:0.501518 52:0.422079 53:0.552514 54:0.50583 55:0.54106 56:0.48361 57:0.503793 58:0.537215 59:0.551686 60:0.466448 61:0.3807 62:0.42453 63:0.468877 64:0.542913 65:0.446235 66:0.47589 67:0.536156 68:0.336728 69:0.519014 70:0.534202 71:0.409839 72:0.52519 73:0.551119 74:0.512015 75:0.406858 76:0.645589 77:0.596928 78:0.475918 79:0.500268 80:0.464407 81:0.510403 82:0.496638 83:0.209707 84:0.442903 85:0.511358 86:0.371791 87:0.510126 88:0.505779 89:0.493145 90:0.383502 91:0.492633 92:1 93:0.678054 94:0.575854 95:0.489939 96:0.461578 97:0.476494 98:0.350833 99:0.460697 100:0.475976 
