svm_type c_svc
kernel_type rbf
gamma 0.0454545
nr_class 2
total_sv 570
rho -0.98506
label 1 -1
nr_sv 283 287
SV
1 1:0.02142857 2:-0.0003027514 3:1.150159e-05 4:0.0008955369 5:-1.235672e-05 6:4.361194e-08 7:0.0006113095 8:-2.996615e-06 9:2.742001e-08 10:0 11:0 12:0 13:1 14:0 15:0 16:0.5166116 17:0.1799628 18:0.25 19:0.4546832 20:0.04274009 21:0.1111111 22:0 
1 1:0.03714198 2:0.0001442491 3:0.0002616763 4:-0.1916475 5:-0.0007244156 6:-0.0001206323 7:0.08983835 8:0.0001222835 9:5.21394e-05 10:0 11:0 12:0 13:0.4754634 14:0 15:0.1 16:0.5123984 17:0.1278944 18:0 19:0.2852265 20:0.006618495 21:0 22:0 
1 1:0.02714344 2:-0.05078112 3:0.2386727 4:-0.2620907 5:0.4471956 6:-0.1952554 7:0.2184191 8:-0.1323917 9:0.1498561 10:0 11:0 12:0 13:1 14:0 15:0 16:0.604216 17:0.626578 18:0.6666667 19:0.1255681 20:0.0002486096 21:0 22:0 
1 1:0.02428589 2:-0.0007515588 3:7.930242e-05 4:-0.125369 5:0.003562374 6:-3.470908e-05 7:0.05698166 8:-0.0005678084 9:1.42548e-05 10:0 11:0 12:0.7485638 13:0.4620952 14:0 15:0.1 16:0.5474032 17:0.3418053 18:0.25 19:0.1708056 20:0.000851154 21:0 22:0 
1 1:0.03714243 2:-0.004225601 3:0.001241221 4:-0.01100733 5:0.001085512 6:-2.784217e-05 7:0.0003533867 8:-1.188427e-05 9:7.551943e-07 10:0 11:0.8303599 12:0 13:0.1077568 14:0 15:0 16:0.5786891 17:0.2717641 18:0 19:0.4212863 20:0.0314999 21:0 22:0 
1 1:0.02999966 2:-0.00967015 3:0.007885053 4:-0.3646156 5:0.1077397 6:-0.008158268 7:0.3845636 8:-0.04035296 9:0.007918611 10:0 11:0 12:0.7480402 13:0.458912 14:0 15:0.1 16:0.5650784 17:0.3418053 18:0.25 19:0.1093041 20:0.0001427403 21:0 22:0 
1 1:0.03285632 2:-0.01668976 3:0.02094744 4:-0.1125996 5:0.05130404 6:-0.005988881 7:0.03275553 8:-0.005307972 9:0.001608175 10:1 11:0.7454374 12:0 13:0.1098352 14:0.1 15:0 16:0.594687 17:0.2884842 18:1 19:0.1317768 20:0.0003015479 21:0 22:0 
1 1:0.03285698 2:-0.01611102 3:0.0197647 4:-0.3301255 5:0.1467978 6:-0.01673638 7:0.2843865 8:-0.04494145 9:0.01328825 10:2 11:0 12:0.8050786 13:0.2181826 14:0 15:0.1 16:0.5768873 17:0.2945243 18:0.4 19:0.1211231 20:0.0002152324 21:0 22:0 
1 1:0.04857143 2:-0.02475771 3:0.03146981 4:-0.4668633 5:0.2141933 6:-0.02529004 7:0.3820453 8:-0.06226085 9:0.01905553 10:2 11:0 12:0 13:0.9983077 14:0 15:0.1 16:0.5879275 17:0.2230717 18:0.1666667 19:0.1715899 20:0.0008668947 21:0 22:0 
1 1:0.03428588 2:-0.02899296 3:0.06032637 4:-0.2312295 5:0.1745089 6:-0.03373902 7:0.1316777 8:-0.03531007 9:0.01770158 10:1 11:0 12:0 13:1 14:0 15:0 16:0.6296141 17:0.2988435 18:0.25 19:0.147152 20:0.0004688831 21:0 22:0 
1 1:0.05285722 2:-0.01479895 3:0.010162 4:-0.1571262 5:0.03899081 6:-0.002482243 7:0.03931379 8:-0.003458668 9:0.0005696821 10:1 11:0.7377893 12:0.8087046 13:0.3661685 14:0 15:0 16:0.6591757 17:0.2434734 18:0.1428571 19:0.2157265 20:0.002165776 21:0 22:0 
1 1:0.0300005 2:-0.02924645 3:0.07095829 4:-0.009500654 5:0.008296056 6:-0.00185366 7:0.0004529965 8:-0.0001403344 9:8.118019e-05 10:0 11:0.81023 12:0 13:0.1092919 14:0.1 15:0 16:0.5924123 17:0.5129131 18:0.3333333 19:0.1873557 20:0.001232163 21:0 22:0 
1 1:0.03142874 2:-0.02975721 3:0.06976998 4:-0.3061237 5:0.2605124 6:-0.05672871 7:0.2537097 8:-0.0766806 9:0.04327745 10:1 11:0 12:0 13:0.04983267 14:0 15:0 16:0.552496 17:0.3160182 18:0.25 19:0.1436011 20:0.0004252372 21:0 22:0 
1 1:0.02428631 2:-0.02934937 3:0.09066273 4:-0.04346879 5:0.04870244 6:-0.01396191 7:0.006866842 8:-0.002730428 9:0.002027238 10:0 11:0.8179004 12:0 13:0.1069754 14:0.2 15:0 16:0.5503412 17:0.3045422 18:0 19:0.1257904 20:0.0002503744 21:0 22:0 
1 1:0.04000071 2:-8.82895e-05 3:2.039797e-05 4:-0.002344016 5:-3.10728e-05 6:-3.636622e-08 7:7.342005e-05 8:-9.917532e-08 9:3.287206e-09 10:0 11:0 12:0.8433906 13:0.476542 14:0 15:0.1 16:0.4726351 17:0.2672432 18:0 19:0.7810789 20:0.3722027 21:0.9285714 22:0 
1 1:0.4700004 2:-0.002682721 3:4.859053e-05 4:-0.003734007 5:-2.81477e-05 6:6.74226e-08 7:0.0001116811 8:-1.22847e-07 9:5.048446e-10 10:0 11:0.8307142 12:0.8342053 13:0.1192424 14:0.1 15:0.4 16:0.6746212 17:0.0401529 18:0.0625 19:0.9059622 20:0.6736593 21:1.104101 22:0 
1 1:0.07999983 2:-0.0123197 3:0.004943324 4:-0.01631558 5:0.002290225 6:-8.306491e-05 7:0.0003211917 8:-1.561107e-05 9:1.429217e-06 10:0 11:0.7892373 12:0 13:0.1062385 14:0.1 15:0 16:0.5546493 17:0.1536471 18:0.09090909 19:0.2481019 20:0.003788964 21:0 22:0 
1 1:0.05000076 2:-0.02399338 3:0.02939419 4:-0.2756779 5:0.1225285 6:-0.01393729 7:0.1333723 8:-0.02104723 9:0.006203146 10:0 11:0.7003963 12:0.8228356 13:0.5393623 14:0.1 15:0.1 16:0.5137706 17:0.2093149 18:0 19:0.1601752 20:0.000658235 21:0 22:0 
1 1:0.2214288 2:-0.0298518 3:0.011124 4:-0.001853773 5:0.0002360101 6:-7.796999e-06 7:1.262084e-05 8:-5.360407e-07 9:4.498384e-08 10:1 11:0.7576355 12:0 13:0.1043013 14:0.1 15:0 16:0.5432168 17:0.08716819 18:0.08695652 19:0.1452455 20:0.0004450515 21:0 22:0 
1 1:0.1371394 2:-0.04093949 3:0.03060899 4:-0.2531779 5:0.06865665 6:-0.004766893 7:0.04044874 8:-0.003895379 9:0.0007009289 10:2 11:0.830052 12:0.8095441 13:0.1575464 14:0.1 15:0 16:0.620087 17:0.1228854 18:0.1111111 19:0.2125432 20:0.002040746 21:0 22:0 
1 1:0.06000017 2:-0.03876042 3:0.06304352 4:-0.239262 5:0.1411398 6:-0.02131698 7:0.08248704 8:-0.01727852 9:0.006762558 10:2 11:0.824976 12:0 13:0.1886193 14:0.2 15:0 16:0.5830451 17:0.2310744 18:0 19:0.1576015 20:0.0006169375 21:0 22:0 
1 1:0.1028592 2:-0.02065726 3:0.01052243 4:-0.1402882 5:0.02580529 6:-0.001218898 7:0.01663313 8:-0.001084849 9:0.0001325959 10:2 11:0.8396142 12:0.8050228 13:0.3151404 14:0.2 15:0.1 16:0.5718585 17:0.1228712 18:0.09090909 19:0.2185903 20:0.002283092 21:0 22:0 
1 1:0.02571359 2:-0.03876053 3:0.1533074 4:-0.05032396 5:0.07224814 6:-0.026534 7:0.008959668 8:-0.004567268 9:0.004346394 10:1 11:0.831697 12:0 13:0.104919 14:0.1 15:0 16:0.5309858 17:0.4021239 18:0 19:0.1267433 20:0.0002580477 21:0 22:0 
1 1:0.08428777 2:-0.000224413 3:5.356918e-05 4:-0.05456464 5:0.0001550608 6:-3.041123e-06 7:0.003246408 8:-3.875193e-06 9:1.684161e-07 10:1 11:0 12:0.794153 13:0.4655987 14:0 15:0.1 16:0.5805629 17:0.1857432 18:0 19:0.4363625 20:0.03625683 21:0.09090909 22:0 
1 1:0.04714227 2:-0.005370076 3:0.001593971 4:-0.2362989 5:0.02461655 6:-0.000677044 7:0.1027687 8:-0.003792892 9:0.0002697437 10:1 11:0 12:0.7500486 13:0.4609754 14:0 15:0 16:0.6100345 17:0.3115629 18:0.1666667 19:0.1869807 20:0.001222326 21:0 22:0 
1 1:0.02999992 2:-0.01006423 3:0.00860298 4:-0.3416599 5:0.105712 6:-0.008391287 7:0.3397051 8:-0.0373232 9:0.007677497 10:1 11:0 12:0.705403 13:0.460406 14:0 15:0.1 16:0.5768333 17:0.3926991 18:0.3333333 19:0.1231225 20:0.0002297997 21:0 22:0 
1 1:0.1771412 2:-0.006235354 3:0.0005979432 4:-0.04701234 5:0.001523713 6:-1.355418e-05 7:0.001144318 8:-1.331727e-05 9:3.08914e-07 10:1 11:0.8397117 12:0.8013355 13:0.3676606 14:0.3 15:0.1 16:0.6196225 17:0.1030516 18:0.07692308 19:0.4186513 20:0.0307192 21:0 22:0 
1 1:0.2585694 2:-0.01589438 3:0.002494146 4:-0.2682709 5:0.01480056 6:-0.0002149946 7:0.0238615 8:-0.0004660137 9:1.748917e-05 10:1 11:0.822172 12:0.8433135 13:0.3435628 14:0.1 15:0.1 16:0.706156 17:0.08818015 18:0.1666667 19:0.2847544 20:0.006574792 21:0 22:0 
1 1:0.02714362 2:-0.02041453 3:0.03913861 4:-0.3543602 5:0.2463324 6:-0.04386069 7:0.404571 8:-0.09988064 9:0.04609219 10:1 11:0 12:0 13:1 14:0 15:0 16:0.5814127 17:0.4038342 18:0.25 19:0.1354911 20:0.0003370101 21:0 22:0 
1 1:0.06571317 2:-0.02429726 3:0.02311078 4:-0.03395161 5:0.01168347 6:-0.001030623 7:0.001697882 8:-0.0002070722 9:4.723587e-05 10:1 11:0.8290837 12:0 13:0.1066575 14:0 15:0 16:0.5535632 17:0.1908954 18:0.4 19:0.2312759 20:0.002861023 21:0 22:0 
1 1:0.5385876 2:-0.01318763 3:0.0009992998 4:9.121692e-05 5:-5.999495e-05 6:6.309968e-07 7:2.159444e-05 8:-2.011288e-07 9:3.91863e-09 10:1 11:0.847654 12:0 13:0.1063601 14:0.1 15:0 16:0.5371372 17:0.04269295 18:0.02857143 19:0.3083157 20:0.00903613 21:0.05102041 22:0 
1 1:0.03571412 2:-0.02994001 3:0.06316024 4:-0.1382757 5:0.1058719 6:-0.02074338 7:0.04646418 8:-0.01263473 9:0.006415961 10:1 11:0.810737 12:0 13:0.1083802 14:0.2 15:0 16:0.5576915 17:0.3137857 18:0.25 19:0.1791639 20:0.00103039 21:0 22:0 
1 1:0.3000069 2:-0.02209306 3:0.00418145 4:-0.02892679 5:0.001899267 6:-3.208817e-05 7:0.0003299846 8:-7.612446e-06 9:3.296555e-07 10:1 11:0.8451782 12:0 13:0.1074695 14:0.1 15:0 16:0.5400157 17:0.06298091 18:0.2352941 19:0.3202626 20:0.01052022 21:0 22:0 
1 1:0.03428588 2:-0.03188663 3:0.07563843 4:-0.3288133 5:0.2831218 6:-0.06237713 7:0.2763077 8:-0.08449955 9:0.04825337 10:1 11:0 12:0 13:0.1057121 14:0 15:0 16:0.5396612 17:0.4647326 18:0 19:0.135558 20:0.0003376761 21:0 22:0 
1 1:0.1357169 2:-0.041378 3:0.03194291 4:-0.1369122 5:0.03832495 6:-0.002745669 7:0.01232733 8:-0.001224796 9:0.0002272865 10:1 11:0.8107384 12:0 13:0.1079494 14:0.2 15:0 16:0.5816889 17:0.1147931 18:0.3 19:0.244782 20:0.003590193 21:0 22:0 
1 1:0.04714303 2:-0.03525567 3:0.06633021 4:-0.1801445 5:0.1229481 6:-0.02147615 7:0.05956317 8:-0.01443306 9:0.006532162 10:1 11:0.8234527 12:0 13:0.1082991 14:0.1 15:0 16:0.5656506 17:0.2871816 18:0.2 19:0.1671828 20:0.0007812076 21:0 22:0 
1 1:0.07428712 2:-0.02911086 3:0.02852495 4:-0.1679644 5:0.05971313 6:-0.005435618 7:0.03271524 8:-0.004131825 9:0.0009750755 10:1 11:0.8381243 12:0.8084208 13:0.1579098 14:0.2 15:0.1 16:0.6012256 17:0.2741922 18:0.125 19:0.1845683 20:0.001160455 21:0 22:0 
1 1:0.1042865 2:-0.01856669 3:0.008366575 4:-0.1340985 5:0.02180511 6:-0.0009103246 7:0.01497959 8:-0.0008629503 9:9.314599e-05 10:1 11:0.8410749 12:0.8368592 13:0.1127746 14:0.1 15:0.3 16:0.5688878 17:0.1502922 18:0.1666667 19:0.234821 20:0.003040518 21:0 22:0 
1 1:0.04999906 2:-0.04720775 3:0.1147662 4:-0.4602375 5:0.4063087 6:-0.09177364 7:0.3748243 8:-0.1175663 9:0.06885091 10:1 11:0 12:0 13:0.4673497 14:0 15:0.1 16:0.531187 17:0.2827433 18:0.6 19:0.1190321 20:0.0002007503 21:0 22:0 
1 1:0.0285721 2:-0.03310359 3:0.09743455 4:-0.2568664 5:0.2744778 6:-0.07504138 7:0.2015023 8:-0.07648118 9:0.05420098 10:1 11:0.8093403 12:0 13:0.2267149 14:0.2 15:0 16:0.5579687 17:0.427554 18:0.25 19:0.1237996 20:0.000234897 21:0 22:0 
1 1:0.03285655 2:-0.0475262 3:0.1741277 4:-0.1268218 5:0.1687062 6:-0.05740999 7:0.04291606 8:-0.0202769 9:0.01788491 10:1 11:0 12:0 13:1 14:0 15:0 16:0.5923019 17:0.3138323 18:0.25 19:0.1647972 20:0.0007375638 21:0 22:0 
1 1:0.02999922 2:-0.04359612 3:0.1655052 4:-0.4870651 5:0.6714424 6:-0.236793 7:0.7096487 8:-0.3475212 9:0.3177177 10:1 11:0 12:0 13:0.4696445 14:0 15:0 16:0.5149419 17:0.3926991 18:0.3333333 19:0.1087615 20:0.000139927 21:0 22:0 
1 1:0.1014284 2:-0.03246929 3:0.02642388 4:-0.1105479 5:0.03261322 6:-0.002464254 7:0.01060912 8:-0.001110984 9:0.0002174519 10:1 11:0.8428269 12:0 13:0.1075769 14:0.2 15:0 16:0.5560467 17:0.1748738 18:0.1111111 19:0.1984789 20:0.001551877 21:0 22:0 
1 1:0.04285637 2:-0.03148395 3:0.05975315 4:-0.2709504 5:0.1866378 6:-0.03289544 7:0.1520709 8:-0.03719968 9:0.01699191 10:1 11:0.814606 12:0.7521902 13:0.1355854 14:0.1 15:0.1 16:0.4993101 17:0.3231023 18:0 19:0.148116 20:0.0004812917 21:0 22:0 
1 1:0.05714183 2:-0.03861012 3:0.06694344 4:-0.2557121 5:0.1608897 6:-0.02590383 7:0.1009055 8:-0.02254459 9:0.009406139 10:1 11:0.8294709 12:0.7070776 13:0.167465 14:0.2 15:0.1 16:0.6065392 17:0.3692974 18:0.1666667 19:0.1531169 20:0.0005496576 21:0 22:0 
1 1:0.1528537 2:-0.04332654 3:0.03105658 4:-0.2355815 5:0.06125226 6:-0.004076044 7:0.03180696 8:-0.002936099 9:0.0005062159 10:1 11:0.8005509 12:0.8118264 13:0.1083917 14:0.1 15:0.1 16:0.5374012 17:0.1062246 18:0 19:0.2211111 20:0.002390243 21:0 22:0 
1 1:0.1071415 2:-0.02407842 3:0.01393956 4:-0.0182986 5:0.003772631 6:-0.0001992433 7:0.0003842251 8:-2.784982e-05 9:3.770764e-06 10:1 11:0.8407934 12:0 13:0.1065014 14:0.1 15:0 16:0.5553052 17:0.1478682 18:0 19:0.245868 20:0.003654332 21:0 22:0 
1 1:0.06714094 2:-0.03439838 3:0.0460626 4:-0.3003214 5:0.1460577 6:-0.01817966 7:0.1206497 8:-0.0208561 9:0.006733635 10:1 11:0.7553301 12:0.7800228 13:0.1802962 14:0 15:0.1 16:0.5229545 17:0.2399828 18:0.1428571 19:0.1100724 20:0.0001467957 21:0 22:0 
1 1:0.07142857 2:-0.03957871 3:0.05616989 4:-0.08890291 5:0.04584264 6:-0.006053513 7:0.009768314 8:-0.001792168 9:0.0006144641 10:1 11:0.7801378 12:0 13:0.1067422 14:0.1 15:0 16:0.5749661 17:0.2057861 18:0.1428571 19:0.116396 20:0.000183549 21:0 22:0 
1 1:0.038571 2:-0.08293968 3:0.4594306 4:-0.1450491 5:0.2916964 6:-0.1501014 7:0.04836987 8:-0.03455462 9:0.0460955 10:1 11:0 12:0 13:1 14:0 15:0 16:0.5686143 17:0.427554 18:0.25 19:0.107179 20:0.000131959 21:0 22:0 
1 1:0.03714235 2:-0.06015307 3:0.2475074 4:-0.301797 5:0.4507346 6:-0.1722897 7:0.2139203 8:-0.1134972 9:0.1124695 10:1 11:0 12:0 13:1 14:0 15:0 16:0.5508928 17:0.2461983 18:0 19:0.1184048 20:0.0001965519 21:0 22:0 
1 1:0.0271432 2:-0.07173137 3:0.4837942 4:-0.2139032 5:0.5239028 6:-0.3282571 7:0.1479433 8:-0.128724 9:0.2090922 10:1 11:0 12:0 13:0.1077272 14:0 15:0 16:0.567924 17:0.626578 18:0.3333333 19:0.1131784 20:0.0001640795 21:0 22:0 
1 1:0.04714176 2:-0.0545665 3:0.160128 4:-0.2992122 5:0.3187127 6:-0.08687703 7:0.1653489 8:-0.06256131 9:0.04420592 10:1 11:0.8127746 12:0 13:0.2265144 14:0.2 15:0 16:0.650282 17:0.4295146 18:0.2 19:0.1253515 20:0.000246898 21:0 22:0 
1 1:0.05428418 2:-0.0132218 3:0.008277745 4:-0.1574283 5:0.03572797 6:-0.002081301 7:0.04038645 8:-0.003260727 9:0.0004931752 10:1 11:0 12:0.8160056 13:0.2230536 14:0 15:0 16:0.5983224 17:0.2356195 18:0.6 19:0.1891773 20:0.001280786 21:0 22:0 
1 1:0.1085721 2:-0.008264544 3:0.00162872 4:-0.04462468 5:0.003179332 6:-5.86562e-05 7:0.001682798 8:-4.296601e-05 9:2.074781e-06 10:1 11:0.8408175 12:0.8298583 13:0.0992792 14:0.2 15:0.2 16:0.6013422 17:0.1158462 18:0.08333334 19:0.3052409 20:0.00868102 21:0 22:0 
1 1:0.04857168 2:-0.02772221 3:0.04001906 4:-0.1683781 5:0.08818841 6:-0.01182089 7:0.05104892 8:-0.009493578 9:0.003297416 10:1 11:0.8102794 12:0 13:0.1075375 14:0.1 15:0 16:0.6448737 17:0.2908882 18:0.4 19:0.2126026 20:0.00204303 21:0 22:0 
1 1:0.05000124 2:-0.02544997 3:0.03217473 4:-0.2515245 5:0.1153935 6:-0.01354975 7:0.1081034 8:-0.0176146 9:0.005360927 10:0 11:0 12:0.8121857 13:0.9904895 14:0 15:0.1 16:0.6993592 17:0.2871816 18:0.3333333 19:0.1675937 20:0.0007889154 21:0 22:0 
1 1:0.03857177 2:-0.02246832 3:0.03326081 4:-0.09202085 5:0.04939347 6:-0.006785539 7:0.01924029 8:-0.003664872 9:0.001303853 10:1 11:0.8206632 12:0 13:0.1065615 14:0.1 15:0 16:0.6319758 17:0.346181 18:0.1666667 19:0.1860962 20:0.001199362 21:0 22:0 
1 1:0.1357173 2:-0.0003250581 3:3.060351e-05 4:-0.001164028 5:-3.860506e-05 6:-5.577813e-08 7:9.696142e-05 8:-1.416061e-07 9:2.185889e-09 10:1 11:0.8275764 12:0.8176952 13:0.4662972 14:0.1 15:0.1 16:0.4932351 17:0.07092012 18:0 19:0.8130383 20:0.4369624 21:1.036364 22:0 
1 1:0.04142891 2:-0.0111998 3:0.00775726 4:-0.1432339 5:0.0357518 6:-0.002302187 7:0.04329533 8:-0.003842179 9:0.0006419076 10:1 11:0 12:0.705713 13:0.4709739 14:0 15:0 16:0.5970909 17:0.3735544 18:0.5 19:0.2084884 20:0.001889416 21:0 22:0 
1 1:0.3428559 2:-0.007176769 3:0.0006257116 4:-0.002514021 5:4.72928e-05 6:-3.421276e-07 7:1.586113e-05 8:-9.414631e-08 9:1.965015e-09 10:1 11:0.8330879 12:0 13:0.1062968 14:0.1 15:0 16:0.5289594 17:0.03833371 18:0.03333334 19:0.319541 20:0.01042573 21:0.3636364 22:0 
1 1:0.03857067 2:-0.01590644 3:0.01660115 4:-0.2330788 5:0.08807282 6:-0.008532844 7:0.1223468 8:-0.01641079 9:0.004118832 10:1 11:0 12:0 13:0.04993086 14:0 15:0 16:0.6286216 17:0.3526278 18:0.25 19:0.1791466 20:0.001029993 21:0 22:0 
1 1:0.02285681 2:-0.01861145 3:0.03848764 4:-0.05645746 5:0.04234263 6:-0.008127969 7:0.01238542 8:-0.003297335 9:0.001639631 10:1 11:0 12:0 13:1 14:0 15:0 16:0.5665213 17:0.5917681 18:0.3333333 19:0.2179165 20:0.002255074 21:0 22:0 
1 1:0.03285706 2:-0.01649334 3:0.02133362 4:-0.3687845 5:0.1724318 6:-0.0207248 7:0.36457 8:-0.06057082 9:0.01887798 10:1 11:0 12:0 13:1 14:0 15:0 16:0.5239808 17:0.2538661 18:0.5 19:0.1486637 20:0.0004884496 21:0 22:0 
1 1:0.1885768 2:-0.01498412 3:0.003021643 4:-0.2329031 5:0.01675388 6:-0.0003138185 7:0.02471284 8:-0.0006317727 9:3.067621e-05 10:1 11:0.7823751 12:0.8033875 13:0.3589738 14:0.1 15:0.1 16:0.7821429 17:0.09549081 18:0.1818182 19:0.2461136 20:0.003668958 21:0 22:0 
1 1:0.09000217 2:-0.0260034 3:0.01892199 4:-0.2955608 5:0.07763972 6:-0.005246095 7:0.08362638 8:-0.007800283 9:0.001365736 10:1 11:0.7485051 12:0.7448916 13:0.2765163 14:0.1 15:0.1 16:0.6788827 17:0.2250537 18:0.3333333 19:0.2073232 20:0.001847531 21:0 22:0 
1 1:0.04571546 2:-0.01388197 3:0.0106877 4:-0.07031617 5:0.01967524 6:-0.001411554 7:0.009487539 8:-0.0009457917 9:0.0001764153 10:1 11:0.8187832 12:0 13:0.1080845 14:0.1 15:0 16:0.5814806 17:0.239217 18:0.3333333 19:0.1868324 20:0.001218452 21:0 22:0 
1 1:0.07428695 2:-0.02340353 3:0.01828476 4:-0.1308002 5:0.03697294 6:-0.002680026 7:0.01971623 8:-0.001977543 9:0.0003711903 10:1 11:0.8327695 12:0.7014423 13:0.1698802 14:0.2 15:0 16:0.8003826 17:0.2730583 18:0.2857143 19:0.2299059 20:0.002793835 21:0 22:0 
1 1:0.0285711 2:-0.02306714 3:0.04660442 4:-0.2874864 5:0.2106784 6:-0.03953109 7:0.2484656 8:-0.06466596 9:0.03144744 10:1 11:0 12:0 13:0.9936117 14:0.1 15:0.1 16:0.6301818 17:0.2373648 18:0.25 19:0.1437808 20:0.0004273696 21:0 22:0 
1 1:0.03571462 2:-0.02851404 3:0.05729517 4:-0.3953321 5:0.288345 6:-0.05381689 7:0.3783749 8:-0.09802523 9:0.0474236 10:1 11:0 12:0 13:0.4578628 14:0 15:0 16:0.6496034 17:0.2822525 18:0.75 19:0.1298282 20:0.0002841034 21:0 22:0 
1 1:0.1257134 2:-0.02343551 3:0.01089381 4:-0.2080979 5:0.03496587 6:-0.00151234 7:0.0293776 8:-0.001756419 9:0.0001972472 10:1 11:0.7928024 12:0.7822267 13:0.08664975 14:0.1 15:0.2 16:0.713854 17:0.174203 18:0.2222222 19:0.1912057 20:0.001336606 21:0 22:0 
1 1:0.04857143 2:-0.02421828 3:0.0298781 4:-0.2461658 5:0.110198 6:-0.01263572 7:0.1059702 8:-0.01686053 9:0.005014452 10:1 11:0.7007684 12:0.7023677 13:0.9906415 14:0 15:0 16:0.6585974 17:0.3923385 18:0.4 19:0.1357808 20:0.0003399013 21:0 22:0 
1 1:0.008571598 2:-0.01772761 3:0.09322825 4:-0.2917299 5:0.5572196 6:-0.2722416 7:0.8673222 8:-0.5885401 9:0.7454841 10:1 11:0 12:0 13:1 14:0 15:0 16:0.5927353 17:0.4844179 18:0.6666667 19:0.07878426 20:3.852636e-05 21:0 22:0 
1 1:0.03428613 2:-0.03495323 3:0.08911678 4:-0.1413694 5:0.1308283 6:-0.03097941 7:0.05033302 8:-0.01654326 9:0.01015303 10:1 11:0.8049127 12:0 13:0.1089871 14:0.1 15:0 16:0.7439149 17:0.3619942 18:0.3333333 19:0.1794733 20:0.001037528 21:0 22:0 
1 1:0.02999917 2:-0.02894975 3:0.06984555 4:-0.1875964 5:0.1640987 6:-0.03676639 7:0.1006526 8:-0.03126625 9:0.01815415 10:1 11:0 12:0 13:1 14:0 15:0 16:0.6290323 17:0.3045422 18:0 19:0.1594537 20:0.0006464559 21:0 22:0 
1 1:0.06857134 2:-0.0258597 3:0.02460404 4:-0.2643681 5:0.0911222 6:-0.008049997 7:0.08819897 8:-0.01079395 9:0.002470817 10:1 11:0.7434559 12:0.769928 13:0.1802596 14:0 15:0.2 16:0.5893149 17:0.1637593 18:0.1428571 19:0.1734142 20:0.0009043546 21:0 22:0 
1 1:0.0414275 2:-0.03478388 3:0.07265013 4:-0.324807 5:0.2462116 6:-0.04775944 7:0.2177143 8:-0.05861121 9:0.02946643 10:1 11:0 12:0 13:0.451742 14:0 15:0 16:0.5891 17:0.4137077 18:0.25 19:0.1516941 20:0.0005295104 21:0 22:0 
1 1:0.05999967 2:-0.02291608 3:0.0218954 4:-0.1434789 5:0.04972992 6:-0.004413257 7:0.02955082 8:-0.003637597 9:0.0008366987 10:1 11:0.8304397 12:0.7004604 13:0.1693816 14:0.1 15:0 16:0.6278139 17:0.155823 18:0.2857143 19:0.1836646 20:0.001137894 21:0 22:0 
1 1:0.1671468 2:-0.02906298 3:0.01274503 4:-0.1668624 5:0.02645988 6:-0.001076212 7:0.01453299 8:-0.0008172474 9:8.603035e-05 10:1 11:0.8429307 12:0.7702257 13:0.1381661 14:0.1 15:0 16:0.7250398 17:0.1014428 18:0 19:0.2441055 20:0.00355067 21:0 22:0 
1 1:0.05142891 2:-0.03664964 3:0.06624698 4:-0.4689422 5:0.3076833 6:-0.051666 7:0.3724638 8:-0.0868151 9:0.0377924 10:1 11:0 12:0.8050294 13:0.9954783 14:0 15:0.1 16:0.5638298 17:0.2974896 18:0.2 19:0.1222883 20:0.0002236352 21:0 22:0 
1 1:0.02428546 2:-0.04502098 3:0.2102508 4:-0.4294068 5:0.7281418 6:-0.3158936 7:0.6569445 8:-0.3957283 9:0.4450689 10:1 11:0 12:0 13:0.04993315 14:0 15:0 16:0.5695378 17:0.6593466 18:0.3333333 19:0.110446 20:0.0001487992 21:0 22:0 
1 1:0.06285671 2:-0.0231365 3:0.02203203 4:-0.04068754 5:0.01397831 6:-0.001231816 7:0.002361078 8:-0.0002869367 9:6.527969e-05 10:1 11:0.8266488 12:0 13:0.1058114 14:0.1 15:0 16:0.5497361 17:0.1626564 18:0.125 19:0.1753476 20:0.000945364 21:0 22:0 
1 1:0.04000008 2:-0.03787364 3:0.09008635 4:-0.3191405 5:0.2752036 6:-0.06082148 7:0.2193077 8:-0.06719275 9:0.03850419 10:1 11:0 12:0 13:1 14:0 15:0 16:0.661168 17:0.2908882 18:0.3333333 19:0.1480316 20:0.0004801954 21:0 22:0 
1 1:0.1399989 2:-0.02657026 3:0.013185 4:0.0005590084 5:-0.0001423997 6:8.440693e-06 7:0.0001121583 8:-7.28686e-06 9:8.851304e-07 10:1 11:0.8388163 12:0 13:0.1052076 14:0.3 15:0 16:0.6171827 17:0.114354 18:0 19:0.2467693 20:0.00370821 21:1.225806 22:0 
1 1:0.3157109 2:-0.01097363 3:0.001638579 4:-0.002905078 5:0.0001247826 6:-1.975561e-06 7:7.894673e-06 8:-9.723429e-08 9:3.555229e-09 10:0 11:0.8207822 12:0 13:0.103039 14:0.1 15:0 16:0.461374 17:0.06277911 18:0.04878049 19:0.1949827 20:0.001445389 21:0 22:0 
1 1:0.04428478 2:-0.02767958 3:0.04388959 4:-0.2096674 5:0.1207228 6:-0.01778896 7:0.08665082 8:-0.01772981 9:0.006775169 10:1 11:0.818812 12:0 13:0.2251532 14:0 15:0 16:0.7455 17:0.3577204 18:0.4 19:0.1541523 20:0.0005646765 21:0 22:0 
1 1:0.1014262 2:-0.0250646 3:0.01583363 4:-0.1683716 5:0.0384054 6:-0.002252426 7:0.02447189 8:-0.001982035 9:0.0003011799 10:1 11:0.7851424 12:0.8263934 13:0.1280854 14:0.1 15:0 16:0.6941377 17:0.1197732 18:0.1111111 19:0.2155206 20:0.00215752 21:0 22:0 
1 1:0.02571378 2:-0.03259113 3:0.1055673 4:-0.2431393 5:0.2860239 6:-0.08607002 7:0.2022798 8:-0.08453511 9:0.06594902 10:1 11:0 12:0 13:1 14:0 15:0 16:0.5841324 17:0.3351032 18:0.4 19:0.1586037 20:0.0006327805 21:0 22:0 
1 1:0.03714338 2:-0.0002002058 3:4.617843e-06 4:-0.002085916 5:9.909372e-06 6:-2.123437e-08 7:0.0005179346 8:-1.046868e-06 9:5.815934e-09 10:0 11:0 12:0.8331451 13:0.4764221 14:0 15:0.2 16:0.5334082 17:0.1642925 18:0.2 19:0.3767745 20:0.02015235 21:0.1363636 22:0 
1 1:0.2185759 2:-9.06356e-06 3:1.784954e-06 4:-0.03432607 5:2.053316e-06 6:-2.582165e-08 7:0.0009836406 8:-1.019516e-07 9:5.421459e-10 10:1 11:0 12:0.8528107 13:0.4621798 14:0 15:0.2 16:0.4993244 17:0.03240254 18:0.04444445 19:0.2537375 20:0.004145135 21:0.06593407 22:0 
1 1:0.03999984 2:-0.009364714 3:0.005442786 4:-0.2078558 5:0.04372714 6:-0.002359355 7:0.09204496 8:-0.006874362 9:0.0009609667 10:1 11:0 12:0.700236 13:0.4473791 14:0 15:0.1 16:0.6800326 17:0.2935052 18:0.2 19:0.1604545 20:0.0006628387 21:0 22:0 
1 1:0.0457151 2:-0.009891157 3:0.005266094 4:-0.1502729 5:0.02886241 6:-0.001424165 7:0.04164477 8:-0.002834995 9:0.0003618096 10:1 11:0 12:0.7768118 13:0.4497199 14:0 15:0.2 16:0.700689 17:0.2811919 18:0.1666667 19:0.2094659 20:0.001925099 21:0 22:0 
1 1:0.2157202 2:-0.02332805 3:0.006252938 4:-0.1951843 5:0.01863103 6:-0.0004643759 7:0.01480201 8:-0.0005021213 9:3.246972e-05 10:1 11:0.7977957 12:0.7969 13:0.1256209 14:0.1 15:0.1 16:0.8442255 17:0.08077557 18:0.08333334 19:0.277882 20:0.005962684 21:0 22:0 
1 1:0.05000008 2:-0.03188411 3:0.04978686 4:-0.3388064 5:0.1918608 6:-0.0278237 7:0.1930749 8:-0.03883037 9:0.01459455 10:1 11:0 12:0 13:0.1058913 14:0.1 15:0.1 16:0.6518455 17:0.3586122 18:0.25 19:0.1625182 20:0.0006976032 21:0 22:0 
1 1:0.08428627 2:-0.03421422 3:0.0337032 4:-0.2921827 5:0.1041216 6:-0.009523286 7:0.08422886 8:-0.01065737 9:0.002525761 10:1 11:0.7394218 12:0.6962406 13:0.6421347 14:0.1 15:0 16:0.7510179 17:0.1766877 18:0.1428571 19:0.1943071 20:0.001425459 21:0 22:0 
1 1:0.04428661 2:-0.03114432 3:0.05386491 4:-0.2529535 5:0.1586895 6:-0.02548603 7:0.1220578 8:-0.02719053 9:0.01131614 10:1 11:0.7370369 12:0 13:0.09128763 14:0.1 15:0 16:0.6540851 17:0.2521031 18:0 19:0.1623019 20:0.0006938967 21:0 22:0 
1 1:0.03999934 2:-0.03637568 3:0.08153094 4:-0.2399144 5:0.1951744 6:-0.04062308 7:0.1219969 8:-0.03524333 9:0.01900954 10:1 11:0.8021172 12:0 13:0.2243592 14:0.1 15:0.1 16:0.6202728 17:0.3586122 18:0.2 19:0.1621518 20:0.0006913319 21:0 22:0 
1 1:0.06571404 2:-0.05439144 3:0.1096847 4:-0.2493709 5:0.1825742 6:-0.03420513 7:0.07929572 8:-0.02062553 9:0.01001852 10:1 11:0.7708332 12:0 13:0.1104449 14:0.1 15:0.1 16:0.753675 17:0.3691371 18:0.3333333 19:0.1412541 20:0.0003981107 21:0 22:0 
1 1:0.2771369 2:-0.0001546764 3:5.88291e-05 4:-0.2243714 5:3.293496e-05 6:-3.754202e-06 7:0.01445172 8:9.012832e-07 9:2.254636e-07 10:1 11:0 12:0.8268361 13:0.4242618 14:0 15:0.2 16:0.6450301 17:0.07365178 18:0.05555556 19:0.3105538 20:0.009301383 21:0.7419355 22:0 
1 1:0.1599997 2:-5.674579e-05 3:2.884134e-05 4:-0.1193705 5:5.501927e-05 6:-1.844919e-06 7:0.0074697 8:-1.65246e-06 9:1.124601e-07 10:1 11:0 12:0.7939838 13:0.4375559 14:0 15:0.1 16:0.558794 17:0.1291298 18:0.1 19:0.3062165 20:0.008792538 21:0.6666667 22:0 
1 1:0.0257149 2:-0.003213408 3:0.0009859618 4:-0.3919516 5:0.04130034 6:-0.001176068 7:0.4771104 8:-0.01783986 9:0.001315697 10:1 11:0 12:0 13:0.4282424 14:0 15:0 16:0.6226825 17:0.5917681 18:0.3333333 19:0.1272148 20:0.0002619091 21:0 22:0 
1 1:0.1485717 2:-0.0002148065 3:3.974145e-05 4:-0.1274146 5:0.0002426253 6:-2.678482e-06 7:0.008861135 8:-8.0765e-06 9:1.715838e-07 10:1 11:0 12:0.8326056 13:0.4323196 14:0 15:0.2 16:0.5755346 17:0.1037224 18:0.08333334 19:0.3146046 20:0.009796253 21:1.097561 22:0 
1 1:0.02857181 2:-0.005599938 3:0.002560686 4:-0.3197738 5:0.05218334 6:-0.002213633 7:0.2822836 8:-0.01634217 9:0.001794682 10:1 11:0 12:0.6796949 13:0.4243978 14:0 15:0.1 16:0.6159881 17:0.3708825 18:0 19:0.1397928 20:0.0003818907 21:0 22:0 
1 1:0.0557128 2:-0.009023903 3:0.003448784 4:-0.4951773 5:0.06812401 6:-0.002415438 7:0.3543068 8:-0.01729208 9:0.001587334 10:1 11:0 12:0.7583884 13:0.4332706 14:0 15:0.1 16:0.533009 17:0.224266 18:0.2 19:0.1241803 20:0.0002377995 21:0 22:0 
1 1:0.1428549 2:-0.005379693 3:0.0004998714 4:-0.204346 5:0.006402151 6:-5.53583e-05 7:0.02309256 8:-0.0002571727 9:5.77344e-06 10:1 11:0 12:0.7830925 13:0.4270873 14:0 15:0.1 16:0.634589 17:0.1311591 18:0.09090909 19:0.2417642 20:0.003416396 21:0 22:0 
1 1:0.4571493 2:-0.008725964 3:0.0004469141 4:-0.2851287 5:0.004509068 6:-2.144121e-05 7:0.01400201 8:-7.866768e-05 9:9.695469e-07 10:1 11:0.810026 12:0.8129614 13:0.422769 14:0.1 15:0.1 16:0.6052762 17:0.05609889 18:0.1904762 19:0.3159097 20:0.009959821 21:0 22:0 
1 1:0.1542865 2:-0.02235364 3:0.007428515 4:-0.3646581 5:0.04337902 6:-0.001337205 7:0.0671831 8:-0.002834767 9:0.0002262034 10:1 11:0.7953105 12:0.7674811 13:0.2948776 14:0.2 15:0.2 16:0.5622727 17:0.1068973 18:0.3333333 19:0.2334274 20:0.002968982 21:0 22:0 
1 1:0.04285827 2:-0.02654232 3:0.03699597 4:-0.5054318 5:0.2553318 6:-0.03305998 7:0.4600122 8:-0.08254865 9:0.02770724 10:1 11:0 12:0.6740988 13:0.4176332 14:0 15:0.1 16:0.5689206 17:0.4648275 18:0.75 19:0.1363316 20:0.0003454512 21:0 22:0 
1 1:0.03142944 2:-0.02426335 3:0.04446345 4:-0.0007272605 5:0.0004130907 6:-5.83507e-05 7:0.0001255636 8:-2.984349e-05 9:1.325652e-05 10:0 11:0 12:0 13:1 14:0 15:0 16:0.5691044 17:0.4275892 18:0.25 19:0.187107 20:0.001225633 21:0.75 22:0 
1 1:0.03428495 2:-0.01266577 3:0.01082943 4:-0.2797706 5:0.08661982 6:-0.006875687 7:0.1811463 8:-0.01991042 9:0.004094554 10:1 11:0 12:0.7281834 13:0.4266184 14:0 15:0.1 16:0.6186768 17:0.2564566 18:0.3333333 19:0.1452728 20:0.0004453863 21:0 22:0 
1 1:0.03714346 2:-0.02471077 3:0.03746557 4:-0.3156537 5:0.1734381 6:-0.02441489 7:0.2098021 8:-0.04092856 9:0.01492809 10:1 11:0 12:0 13:0.4708607 14:0.1 15:0.1 16:0.5480735 17:0.4799655 18:0.25 19:0.1655147 20:0.0007504925 21:0 22:0 
1 1:0.06285617 2:-0.02039128 3:0.01493677 4:-0.3549236 5:0.0939345 6:-0.006388347 7:0.1547892 8:-0.0145447 9:0.002562802 10:1 11:0 12:0.7191445 13:0.2466421 14:0 15:0.1 16:0.5824583 17:0.2514633 18:0.1666667 19:0.175364 20:0.0009457177 21:0 22:0 
1 1:0.4299912 2:-0.004376336 3:0.0001825865 4:-0.1196951 5:0.001019177 6:-4.055298e-06 7:0.002676929 8:-8.077143e-06 9:8.533238e-08 10:1 11:0.8134787 12:0.8244715 13:0.3573138 14:0.1 15:0.3 16:0.5129859 17:0.04635851 18:0.04347826 19:0.4915619 20:0.05838658 21:0 22:0 
1 1:0.3214222 2:-0.01798339 3:0.002360914 4:-0.2529817 5:0.01171207 6:-0.0001423144 7:0.01568622 8:-0.0002572013 9:8.074055e-06 10:1 11:0.8067005 12:0.824149 13:0.206193 14:0.1 15:0.1 16:0.6100661 17:0.05201398 18:0.2105263 19:0.2880204 20:0.006881654 21:0 22:0 
1 1:0.1485693 2:-0.03123444 3:0.01492667 4:-0.2397247 5:0.0413895 6:-0.001836564 7:0.0301547 8:-0.001848501 9:0.0002125462 10:1 11:0.8180751 12:0.751022 13:0.5114779 14:0.1 15:0.1 16:0.5751704 17:0.1141764 18:0.2 19:0.2184099 20:0.002275567 21:0 22:0 
1 1:0.06714181 2:-0.03469675 3:0.04031018 4:-0.3433657 5:0.1447066 6:-0.01561219 7:0.1356158 8:-0.0202963 9:0.005674761 10:1 11:0.7912374 12:0.7247249 13:0.3670944 14:0.1 15:0 16:0.560041 17:0.2434883 18:0.3333333 19:0.1598978 20:0.0006536879 21:0 22:0 
1 1:0.061427 2:-0.02564918 3:0.02538528 4:-0.012413 5:0.004367096 6:-0.0003937134 7:0.0002648034 8:-3.283123e-05 9:7.61019e-06 10:2 11:0.7591989 12:0 13:0.1137897 14:0 15:0 16:0.522534 17:0.2514633 18:0.2857143 19:0.1855223 20:0.001184636 21:0 22:0 
1 1:0.1271407 2:-0.03039632 3:0.01649438 4:-0.2913009 5:0.05722973 6:-0.002881582 7:0.05206034 8:-0.003629042 9:0.0004731505 10:1 11:0.7691076 12:0.8139226 13:0.6041199 14:0.2 15:0.3 16:0.632754 17:0.1792164 18:0.2 19:0.2030389 20:0.001699484 21:0 22:0 
1 1:0.1128579 2:-0.01995297 3:0.008362712 4:-0.001723924 5:0.000186922 6:-4.424621e-06 7:0.0001329096 8:-7.015294e-06 9:6.92998e-07 10:2 11:0.8273431 12:0 13:0.1130369 14:0.4 15:0 16:0.5327248 17:0.1487448 18:0.1538462 19:0.2881656 20:0.006895544 21:0.5185185 22:0 
1 1:0.1114306 2:-0.03614299 3:0.0279649 4:-0.01842608 5:0.005088906 6:-0.0003600989 7:0.0003647374 8:-3.539407e-05 9:6.420831e-06 10:2 11:0.7886814 12:0 13:0.1130886 14:0.1 15:0 16:0.5848796 17:0.1308041 18:0.2222222 19:0.2093176 20:0.001919652 21:0 22:0 
1 1:0.04571421 2:-0.04878482 3:0.1221417 4:-0.1017074 5:0.09246507 6:-0.02151149 7:0.01836987 8:-0.005933946 9:0.003579631 10:2 11:0.796835 12:0 13:0.1146209 14:0.1 15:0 16:0.5836428 17:0.3792141 18:0.4 19:0.1463005 20:0.0004581241 21:0 22:0 
1 1:0.2114296 2:-0.02969997 3:0.009721762 4:-0.231997 5:0.02722929 6:-0.0008252899 7:0.02022148 8:-0.000840306 9:6.580822e-05 10:1 11:0.8226473 12:0.8246527 13:0.1848788 14:0.3 15:0.1 16:0.5554189 17:0.07395859 18:0.25 19:0.2596679 20:0.004546457 21:0 22:0 
1 1:0.0357152 2:-0.04276301 3:0.1178333 4:-0.2800433 5:0.2800912 6:-0.07168383 7:0.1735744 8:-0.06165962 9:0.04090224 10:1 11:0.7906218 12:0 13:0.9935435 14:0.1 15:0.1 16:0.5017307 17:0.3619942 18:0.2 19:0.1338737 20:0.0003212042 21:0 22:0 
1 1:0.07 2:-0.04092759 3:0.05524169 4:-0.2620245 5:0.1283106 6:-0.01608375 7:0.0777955 8:-0.01352894 9:0.004394998 10:1 11:0.7606512 12:0.7944857 13:0.1665776 14:0.1 15:0 16:0.5183828 17:0.1412418 18:0.1428571 19:0.1572843 20:0.0006119857 21:0 22:0 
1 1:0.09857237 2:-0.06028431 3:0.08692435 4:-0.4328879 5:0.2266419 6:-0.03035625 7:0.1545755 8:-0.02874719 9:0.009981071 10:1 11:0.8033421 12:0 13:0.1059107 14:0.1 15:0.1 16:0.5243943 17:0.1836355 18:0.1111111 19:0.1842131 20:0.001151549 21:0 22:0 
1 1:0.02571397 2:-0.03180073 3:0.09450134 4:-0.0438295 5:0.04732627 6:-0.01307903 7:0.006200978 8:-0.002380934 9:0.001707458 10:2 11:0.692547 12:0 13:0.1121709 14:0.1 15:0 16:0.5170414 17:0.3661377 18:0.6 19:0.1072654 20:0.0001323848 21:0 22:0 
1 1:0.145711 2:-0.0009374988 3:6.514574e-05 4:-0.03180689 5:8.24582e-05 6:-8.513445e-07 7:0.0006522708 8:-2.38529e-07 9:1.363124e-08 10:0 11:0 12:0.8293277 13:0.426931 14:0 15:0.1 16:0.5858542 17:0.1066634 18:0.1818182 19:0.6797999 20:0.2135621 21:0.4347826 22:0 
1 1:0.02428526 2:-0.00396507 3:0.001506907 4:-0.1998789 5:0.02680665 6:-0.0009442548 7:0.1281398 8:-0.006091808 9:0.0005550252 10:1 11:0 12:0.6754703 13:0.4203376 14:0 15:0.1 16:0.5660526 17:0.3708825 18:0 19:0.1678489 20:0.0007937318 21:0 22:0 
1 1:0.06714406 2:-0.006562587 3:0.001467757 4:-0.2147772 5:0.01706166 6:-0.0003530394 7:0.05317616 8:-0.00149365 9:7.979026e-05 10:1 11:0 12:0.8077456 13:0.4156116 14:0 15:0.1 16:0.6022919 17:0.2446147 18:0.1428571 19:0.2006664 20:0.001621432 21:0 22:0 
1 1:0.1228592 2:-0.01188562 3:0.002469239 4:-0.1996483 5:0.01472886 6:-0.0002830622 7:0.02357585 8:-0.0006149507 9:3.05068e-05 10:1 11:0.7857029 12:0.766995 13:0.3933457 14:0.1 15:0.1 16:1 17:0.1314075 18:0.2 19:0.261586 20:0.004682286 21:0 22:0 
1 1:0.3485716 2:-0.007570988 3:0.0003599121 4:-0.1089281 5:0.001730911 6:-7.322471e-06 7:0.002618817 8:-1.415111e-05 9:1.484271e-07 10:1 11:0.7583249 12:0.8317546 13:0.3961469 14:0.1 15:0.1 16:1 17:0.05952491 18:0.03846154 19:0.4278104 20:0.03349695 21:0 22:0 
1 1:0.1814284 2:-0.01448711 3:0.002505689 4:-0.1403913 5:0.008768491 6:-0.0001413307 7:0.00823317 8:-0.0001834211 9:7.69003e-06 10:1 11:0.7491751 12:0.782985 13:0.3412923 14:0.3 15:0.1 16:0.9991073 17:0.1301251 18:0.1538462 19:0.2921039 20:0.007280305 21:0 22:0 
1 1:0.1100008 2:-0.01678109 3:0.00554112 4:-0.4053749 5:0.04793032 6:-0.001467884 7:0.1098222 8:-0.004605282 9:0.0003650298 10:1 11:0 12:0.8052235 13:0.4054329 14:0 15:0.2 16:1 17:0.1656699 18:0.2857143 19:0.1997458 20:0.001591881 21:0 22:0 
1 1:0.04571407 2:-0.01830661 3:0.0160654 4:-0.4578564 5:0.1456439 6:-0.0118717 7:0.3447425 8:-0.03894982 9:0.008229244 10:1 11:0 12:0.7428803 13:0.4044442 14:0 15:0.1 16:0.9096891 17:0.3923385 18:0.4 19:0.1253114 20:0.0002465826 21:0 22:0 
1 1:0.04285799 2:-0.02552409 3:0.03226636 4:-0.1890171 5:0.08676779 6:-0.01019206 7:0.06123094 8:-0.009987661 9:0.003042174 10:1 11:0 12:0 13:0.4000068 14:0 15:0 16:0.9457117 17:0.3692974 18:0.4 19:0.2104044 20:0.001959834 21:0 22:0 
1 1:0.608557 2:-0.01961133 3:0.001429349 4:-0.3324909 5:0.008337934 6:-5.601702e-05 7:0.01359722 8:-0.0001199686 9:2.073401e-06 10:1 11:0.7980629 12:0.8233052 13:0.4263979 14:0.2 15:0.1 16:0.8211786 17:0.03507946 18:0.04347826 19:0.323592 20:0.01096456 21:0 22:0 
1 1:0.05285616 2:-0.02225325 3:0.0196977 4:-0.2514417 5:0.08080114 6:-0.006648767 7:0.0866053 8:-0.009893702 9:0.00211196 10:1 11:0 12:0.7755189 13:0.3966699 14:0 15:0.1 16:0.5956783 17:0.1923741 18:0.3333333 19:0.168487 20:0.0008058703 21:0 22:0 
1 1:0.1671449 2:-0.02212411 3:0.006505533 4:-0.09901495 5:0.01038641 6:-0.0002825235 7:0.004463095 8:-0.0001654184 9:1.161033e-05 10:1 11:0.8259044 12:0.813601 13:0.4816697 14:0.1 15:0.3 16:0.6879185 17:0.1130973 18:0 19:0.2767541 20:0.005866458 21:0 22:0 
1 1:0.1214301 2:-0.03278125 3:0.01897202 4:-0.4033813 5:0.08394188 6:-0.004509378 7:0.09782521 8:-0.007225709 9:0.001005452 10:1 11:0.7962258 12:0.804055 13:0.3236786 14:0 15:0.1 16:0.6435487 17:0.1520628 18:0.1111111 19:0.2228475 20:0.002466214 21:0 22:0 
1 1:0.07285744 2:-0.02821979 3:0.02424651 4:-0.3980024 5:0.1238927 6:-0.009883665 7:0.165495 8:-0.01829055 9:0.003780659 10:1 11:0.7938677 12:0.8082111 13:0.4738844 14:0.2 15:0.1 16:0.6384107 17:0.1951877 18:0.2857143 19:0.1664106 20:0.0007668737 21:0 22:0 
1 1:0.2857123 2:-0.02517084 3:0.004753156 4:-0.2112334 5:0.01431249 6:-0.0002501989 7:0.0115392 8:-0.0002767223 9:1.24985e-05 10:1 11:0.789369 12:0.7866058 13:0.2559398 14:0.1 15:0.1 16:0.9070356 17:0.06760122 18:0.1333333 19:0.2891694 20:0.006992127 21:0 22:0 
1 1:0.1671437 2:-0.01502595 3:0.003022504 4:-0.0604197 5:0.004265867 6:-7.805763e-05 7:0.001731819 8:-4.246881e-05 9:1.969995e-06 10:1 11:0.7965446 12:0.7994864 13:0.1204687 14:0.1 15:0.1 16:0.707504 17:0.1161945 18:0 19:0.353882 20:0.01568316 21:0 22:0 
1 1:0.1928523 2:-0.02677476 3:0.008527949 4:-0.295856 5:0.0339629 6:-0.001002495 7:0.0356781 8:-0.001451308 9:0.0001107874 10:1 11:0.8061129 12:0.7882788 13:0.3951307 14:0.1 15:0.1 16:0.6753003 17:0.08934722 18:0.07692308 19:0.2336412 20:0.002979873 21:0 22:0 
1 1:0.02142821 2:-0.02751882 3:0.07652406 4:-0.2141917 5:0.2163214 6:-0.055897 7:0.1593305 8:-0.05717839 9:0.03831263 10:1 11:0 12:0 13:0.3515715 14:0 15:0 16:0.7556377 17:0.3346075 18:0.5 19:0.1172176 20:0.0001887865 21:0 22:0 
1 1:0.04428519 2:-0.04130508 3:0.08609942 4:-0.3120634 5:0.2360548 6:-0.04569605 7:0.1688371 8:-0.0453554 9:0.02275462 10:1 11:0.7248339 12:0 13:0.1188873 14:0 15:0 16:0.5615988 17:0.339985 18:0.2 19:0.1495053 20:0.0004996041 21:0 22:0 
1 1:0.2914345 2:-8.944735e-05 3:2.278982e-05 4:-0.143878 5:-5.828636e-05 6:-8.364548e-07 7:0.005682517 8:2.061234e-06 9:3.004495e-08 10:1 11:0 12:0.8317202 13:0.4231369 14:0 15:0.3 16:0.5854816 17:0.07560273 18:0.1111111 19:0.3088856 20:0.009103131 21:1.636364 22:0 
1 1:0.02428616 2:-0.003434288 3:0.001124791 4:-0.1604722 5:0.01857825 6:-0.0005646236 7:0.08247864 8:-0.003388275 9:0.0002666405 10:1 11:0 12:0.6702096 13:0.4179392 14:0 15:0 16:0.5850952 17:0.3619115 18:0.6666667 19:0.174197 20:0.0009207954 21:0 22:0 
1 1:0.05428579 2:-1.615682e-05 3:3.411674e-05 4:-0.2862141 5:-7.276972e-06 6:-1.412647e-05 7:0.1206949 8:1.302877e-05 9:5.488045e-06 10:1 11:0 12:0.753283 13:0.428262 14:0 15:0.1 16:0.5378211 17:0.2544302 18:0 19:0.1594318 20:0.0006460993 21:0.1428571 22:0 
1 1:0.02857151 2:-0.003226881 3:0.0008846411 4:-0.000288808 5:4.069561e-05 6:-1.468647e-06 7:0.0001551391 8:-4.665248e-06 9:2.777485e-07 10:1 11:0 12:0 13:1 14:0 15:0 16:0.5480476 17:0.4222301 18:0.3333333 19:0.5258172 20:0.07644323 21:0 22:0 
1 1:0.05285828 2:-0.006305103 3:0.001720556 4:-0.2123982 5:0.02079534 6:-0.0005255092 7:0.06664862 8:-0.002310251 9:0.0001508686 10:1 11:0 12:0.7780532 13:0.4222275 14:0 15:0.3 16:0.6119241 17:0.2378707 18:0 19:0.1758929 20:0.0009571791 21:0 22:0 
1 1:0.1742885 2:-0.01030831 3:0.001399632 4:-0.1185222 5:0.005628226 6:-7.061923e-05 7:0.006257935 8:-0.0001051793 9:3.407553e-06 10:1 11:0.7625624 12:0.778736 13:0.1534253 14:0.1 15:0.1 16:0.5770732 17:0.09480801 18:0 19:0.3403942 20:0.01342544 21:0 22:0 
1 1:0.05571458 2:-0.01250162 3:0.006244618 4:-0.068158 5:0.01237325 6:-0.000577008 7:0.006548093 8:-0.0004245283 9:5.1591e-05 10:1 11:0.8118775 12:0 13:0.09691945 14:0.1 15:0.1 16:0.602726 17:0.2466926 18:0 19:0.2722321 20:0.005492341 21:0 22:0 
0.5806621948104904 1:1.254283 2:-0.0057748 3:9.098372e-05 4:-0.01979583 5:-1.160543e-05 6:4.37395e-08 7:0.0001026382 8:-6.190137e-08 9:2.22173e-10 10:1 11:0.8099313 12:0 13:0.1210796 14:0.1 15:0 16:0.7312973 17:0.01864408 18:0 19:0.8358625 20:0.4881344 21:1.987805 22:0 
1 1:1.025695 2:-0.0123461 3:0.0003634187 4:-0.2228731 5:0.00214567 6:-5.720823e-06 7:0.003949419 8:-1.313484e-05 9:8.830985e-08 10:1 11:0.8161247 12:0.8270215 13:0.4209882 14:0.1 15:0.1 16:0.6191084 17:0.02116136 18:0 19:0.397091 20:0.02486338 21:0 22:0 
1 1:0.03142827 2:-0.01383035 3:0.0137316 4:-0.2864282 5:0.1030997 6:-0.009504585 7:0.2022328 8:-0.02584568 9:0.006173748 10:1 11:0 12:0.673223 13:0.42053 14:0 15:0 16:0.5520476 17:0.3102808 18:0 19:0.1412588 20:0.0003981644 21:0 22:0 
1 1:0.02714227 2:-0.01977756 3:0.03192601 4:-0.05443346 5:0.03175877 6:-0.004755079 7:0.008395883 8:-0.001737327 9:0.0006732978 10:1 11:0 12:0 13:1 14:0 15:0 16:0.6300667 17:0.5340707 18:0 19:0.2084241 20:0.001887085 22:0 
1 1:0.06000127 2:-0.008186815 3:0.002523401 4:-0.1577186 5:0.01747457 6:-0.0004985425 7:0.03203603 8:-0.001256446 9:9.259396e-05 10:1 11:0 12:0.8299815 13:0.4173943 14:0 15:0.3 16:0.593875 17:0.1779494 18:0 19:0.215268 20:0.002147425 21:0 22:0 
1 1:0.1142857 2:-0.01193792 3:0.002811232 4:-0.06358644 5:0.005212206 6:-0.0001122291 7:0.002729474 8:-7.810008e-05 9:4.285666e-06 10:1 11:0.8065141 12:0.7619628 13:0.1134204 14:0.3 15:0.1 16:0.5938889 17:0.1794819 18:0 19:0.3606713 20:0.01692178 21:0 22:0 
1 1:0.2957082 2:-0.02231485 3:0.003770062 4:-0.002216281 5:8.02648e-05 6:-3.955113e-07 7:0.000268615 8:-5.80537e-06 9:2.375102e-07 10:1 11:0.7909555 12:0 13:0.121421 14:0.3 15:0 16:0.5987734 17:0.07288321 18:0 19:0.4199991 20:0.0311167 21:0.5 22:0 
1 1:0.1314258 2:-0.02510174 3:0.0110391 4:-0.4303448 5:0.06826804 6:-0.002786035 7:0.1109084 8:-0.006243341 9:0.0006598253 10:1 11:0.7950375 12:0.8152744 13:0.2976238 14:0.1 15:0.2 16:0.5707315 17:0.1113146 18:0 19:0.1917288 20:0.001351293 21:0 22:0 
1 1:0.1628548 2:-0.03477347 3:0.016613 4:0.0003627852 5:-6.291743e-05 6:2.936279e-06 7:4.922336e-05 8:-2.904932e-06 9:3.266015e-07 10:1 11:0.7817923 12:0 13:0.1218497 14:0.1 15:0 16:0.578729 17:0.103174 18:0 19:0.1896872 20:0.001294649 21:0 22:0 
1 1:0.1957109 2:-0.02296423 3:0.006026641 4:-0.1529925 5:0.01433684 6:-0.0003465994 7:0.009220265 8:-0.0003045619 9:1.893487e-05 10:1 11:0.822912 12:0.7633041 13:0.154173 14:0.3 15:0.3 16:0.5487419 17:0.08715516 18:0 19:0.3082743 20:0.009031279 21:0 22:0 
1 1:0.1342859 2:-0.02206176 3:0.008101124 4:-0.1816542 5:0.02405944 6:-0.0008174735 7:0.0189715 8:-0.0008891429 9:7.801122e-05 10:1 11:0.8083332 12:0.8228387 13:0.5458726 14:0.1 15:0.2 16:0.5807605 17:0.107836 18:0 19:0.2645217 20:0.004896039 22:0 
1 1:1.82425 2:-0.01525778 3:0.0002992858 4:-0.04312835 5:0.0002610502 6:-4.091799e-07 7:0.0002059786 8:-4.740314e-07 9:2.091169e-09 10:1 11:0.8343306 12:0.8224986 13:0.1193118 14:0.5 15:0.1 16:0.7253202 17:0.01289646 18:0 19:0.6466377 20:0.1748413 21:0 22:0 
1 1:0.06428549 2:-0.04286166 3:0.06408073 4:-0.3816294 5:0.2069873 6:-0.0287456 7:0.1744415 8:-0.03360766 9:0.01209869 10:1 11:0.719662 12:0.6724591 13:0.3585851 14:0.1 15:0 16:0.574931 17:0.1861684 18:0 19:0.1514247 20:0.0005257596 22:0 
1 1:0.03571472 2:-0.02856575 3:0.05035798 4:-0.09035515 5:0.05773278 6:-0.009443753 7:0.01738029 8:-0.003940389 9:0.001669038 10:1 11:0.7782157 12:0 13:0.1224256 14:0.1 15:0 16:0.5075128 17:0.1939255 18:0 19:0.1765535 20:0.0009716399 21:0 22:0 
1 1:0.02142805 2:-0.02458017 3:0.06330662 4:-0.1938522 5:0.1811821 6:-0.04334289 7:0.1351739 8:-0.04487403 9:0.0278253 10:1 11:0 12:0 13:1 14:0 15:0 16:0.5796304 17:0.3102808 18:0 19:0.1328522 20:0.0003115121 22:0 
1 1:0.04142828 2:-0.04609241 3:0.11459 4:-0.3124647 5:0.2820456 6:-0.06514601 7:0.1809525 8:-0.05803031 9:0.03475185 10:1 11:0.7887481 12:0 13:0.2423444 14:0 15:0 16:0.6047436 17:0.2945243 18:0 19:0.1293522 20:0.0002799596 21:0 22:0 
1 1:0.01857097 2:-0.0444751 3:0.2445544 4:-0.4818758 5:0.9623166 6:-0.4915871 7:0.9863015 8:-0.6997386 9:0.9267142 10:1 11:0 12:0 13:1 14:0 15:0 16:0.5716078 17:0.4413808 18:0 19:0.09886867 20:9.555089e-05 22:0 
1 1:0.2328534 2:-0.04671218 3:0.02104339 4:-0.002738415 5:0.0004349473 6:-1.796097e-05 7:6.233204e-05 8:-3.628074e-06 9:3.964612e-07 10:2 11:0.7818295 12:0 13:0.1195896 14:0.2 15:0 16:0.5802534 17:0.06302578 18:0 19:0.1879219 20:0.001247123 21:1 22:0 
1 1:0.2642894 2:-0.03952704 3:0.01371073 4:-0.352198 5:0.04408 6:-0.001417576 7:0.03734672 8:-0.001657178 9:0.0001378915 10:1 11:0.8284366 12:0.7827628 13:0.3672087 14:0.1 15:0.1 16:0.6222545 17:0.06978633 18:0 19:0.2341292 20:0.003004845 21:0 22:0 
1 1:0.04714331 2:-0.03864909 3:0.07227358 4:-0.3030485 5:0.2056235 6:-0.0357074 7:0.1526447 8:-0.03677983 9:0.01655185 10:1 11:0.808794 12:0 13:0.2013773 14:0.1 15:0 16:0.5785301 17:0.1963495 18:0 19:0.1527143 20:0.0005439001 21:0 22:0 
1 1:0.1985686 2:-0.07113634 3:0.05976142 4:-0.6204295 5:0.1888196 6:-0.01473596 7:0.1558675 8:-0.01685105 9:0.003409236 10:1 11:0.7766315 12:0.7719432 13:0.439463 14:0.2 15:0.1 16:0.5584766 17:0.08456764 18:0 19:0.1715966 20:0.0008670304 21:0 22:0 
1 1:0.1142869 2:-0.04959078 3:0.04869325 4:-0.1176359 5:0.04189916 6:-0.003819348 7:0.009616189 8:-0.001215612 9:0.0002870064 10:2 11:0.8195651 12:0 13:0.1183018 14:0.3 15:0 16:0.551193 17:0.1470771 18:0 19:0.2046298 20:0.001753379 22:0 
1 1:0.1642831 2:-0.0512178 3:0.03639453 4:-0.06568057 5:0.01698485 6:-0.001124087 7:0.002455615 8:-0.0002257734 9:3.876957e-05 10:2 11:0.8253726 12:0 13:0.1178991 14:0.1 15:0 16:0.4957104 17:0.09439321 18:0 19:0.2587761 20:0.004484318 21:0 22:0 
1 1:0.0985693 2:-0.005971416 3:0.0008393632 4:-0.1788718 5:0.008348379 6:-0.0001086772 7:0.02391162 8:-0.000395163 9:1.328728e-05 10:1 11:0 12:0.8017367 13:0.3978701 14:0 15:0.1 16:0.9536271 17:0.170971 18:0.1428571 19:0.2859143 20:0.006682571 21:0 22:0 
1 1:0.1828612 2:-0.009543375 3:0.001076053 4:-0.09601215 5:0.00366358 6:-3.761698e-05 7:0.003650042 8:-4.814002e-05 9:1.253679e-06 10:1 11:0.7828639 12:0.8146184 13:0.3106526 14:0.1 15:0.1 16:0.6339008 17:0.08702473 18:0.125 19:0.4091836 20:0.0280332 21:0 22:0 
1 1:0.2614311 2:-0.01278504 3:0.00142757 4:-0.08970121 5:0.003309052 6:-3.364099e-05 7:0.002307616 8:-2.951385e-05 9:7.609446e-07 10:1 11:0.8197808 12:0.8140709 13:0.6816201 14:0.1 15:0.1 16:1 17:0.09231494 18:0.2857143 19:0.4324878 20:0.0349861 21:0 22:0 
1 1:0.1257119 2:-0.01289855 3:0.002963853 4:-0.2573189 5:0.02106112 6:-0.0004505054 7:0.03970913 8:-0.001156912 9:6.428835e-05 10:1 11:0.7921192 12:0.7825645 13:0.4088778 14:0.1 15:0.1 16:0.6830576 17:0.1787217 18:0.1818182 19:0.2200273 20:0.002343721 21:0 22:0 
1 1:0.08714474 2:-0.01362835 3:0.004538381 4:-0.1753207 5:0.02080247 6:-0.0006435665 7:0.02540306 8:-0.001070457 9:8.58689e-05 10:1 11:0.7887074 12:0.7265798 13:0.07308552 14:0 15:0.1 16:0.6314474 17:0.1380583 18:0.125 19:0.2621791 20:0.004724896 21:0 22:0 
1 1:0.1457168 2:-0.01343842 3:0.002604577 4:-0.1851574 5:0.01268458 6:-0.000226611 7:0.016745 8:-0.0004043192 9:1.857973e-05 10:1 11:0.7983381 12:0.8084146 13:0.4239551 14:0.1 15:0.3 16:0.7646019 17:0.1304467 18:0.08333334 19:0.2968106 20:0.007760998 21:0 22:0 
1 1:0.205715 2:-0.02034803 3:0.004263732 4:-0.3010398 5:0.022475 6:-0.0004364137 7:0.03161962 8:-0.0008364411 9:4.200691e-05 10:1 11:0.8134372 12:0.8094376 13:0.3151235 14:0.1 15:0.1 16:0.9308951 17:0.09762304 18:0.4166667 19:0.2583334 20:0.004453714 21:0 22:0 
1 1:0.07142742 2:-0.02819564 3:0.02267645 4:-0.2959616 5:0.08624291 6:-0.006441887 7:0.08575701 8:-0.008874955 9:0.001718077 10:1 11:0.7735688 12:0.7352194 13:0.1914304 14:0.1 15:0.1 16:0.7704651 17:0.2345286 18:0.3333333 19:0.1773101 20:0.0009884024 21:0 22:0 
1 1:0.1785684 2:-0.009976988 3:0.001218521 4:-0.02227444 5:0.0008980704 6:-9.359e-06 7:0.000297031 8:-4.095859e-06 9:1.060184e-07 10:1 11:0.802372 12:0 13:0.1232071 14:0.1 15:0.1 16:1 17:0.0726087 18:0 19:0.4458244 20:0.03950531 21:0 22:0 
1 1:0.05999895 2:-0.02609042 3:0.02403362 4:-0.3685002 5:0.1227197 6:-0.01049736 7:0.1640758 8:-0.01940283 9:0.004300841 10:1 11:0.6548878 12:0.7140319 13:0.07609972 14:0 15:0.1 16:0.752566 17:0.3139527 18:0.1666667 19:0.1807016 20:0.001066222 21:0 22:0 
1 1:0.1157138 2:-0.02681257 3:0.0127486 4:-0.159947 5:0.02745257 6:-0.001208078 7:0.015734 8:-0.000955708 9:0.0001086147 10:1 11:0.8129633 12:0.6998121 13:0.1120712 14:0.2 15:0.1 16:0.8221398 17:0.1595413 18:0.1 19:0.2660505 20:0.005010214 21:0 22:0 
1 1:0.2971398 2:-0.01661993 3:0.001924108 4:-0.0846494 5:0.0034234 6:-3.591121e-05 7:0.001807596 8:-2.5302e-05 9:6.709261e-07 10:1 11:0.8099299 12:0.8095487 13:0.1279023 14:0.2 15:0.1 16:1 17:0.07230308 18:0.1904762 19:0.404222 20:0.02669806 21:0 22:0 
1 1:0.0685708 2:-0.04402386 3:0.05971141 4:-0.1835613 5:0.09028181 6:-0.01136813 7:0.03593837 8:-0.006275078 9:0.00204703 10:1 11:0.7923443 12:0 13:0.1263138 14:0.1 15:0 16:0.8102728 17:0.2541681 18:0.4 19:0.2070391 20:0.001837424 21:0 22:0 
1 1:0.06000014 2:-0.01998301 3:0.01370822 4:-0.1758731 5:0.04362247 6:-0.002774094 7:0.03646995 8:-0.003206793 9:0.0005275707 10:1 11:0.7928423 12:0.7087671 13:0.1362678 14:0.1 15:0.1 16:0.6784906 17:0.2019171 18:0.125 19:0.2177221 20:0.002247035 21:0 22:0 
1 1:0.2128532 2:-0.02716534 3:0.007361284 4:-0.2571404 5:0.02483585 6:-0.0006227431 7:0.02237678 8:-0.0007645714 9:4.949768e-05 10:1 11:0.7771596 12:0.7731263 13:0.1662003 14:0.4 15:0.1 16:1 17:0.1342083 18:0.06666667 19:0.2807961 20:0.006216767 21:0 22:0 
1 1:0.08857165 2:-0.01661559 3:0.006853286 4:-0.2261022 5:0.03350672 6:-0.001281429 7:0.04323024 8:-0.002271464 9:0.0002247764 10:1 11:0.747938 12:0.764437 13:0.366339 14:0.1 15:0.1 16:0.9120218 17:0.2091905 18:0.1 19:0.2264008 20:0.002627312 21:0 22:0 
1 1:0.0328568 2:-0.03308259 3:0.06787537 4:-0.2229457 5:0.1659917 6:-0.0316256 7:0.1059501 8:-0.02801218 9:0.01383058 10:1 11:0.6949278 12:0.6475247 13:0.3632474 14:0.1 15:0.1 16:0.7368542 17:0.3447564 18:0.25 19:0.1561579 20:0.0005946428 21:0 22:0 
1 1:0.05285823 2:-0.04829157 3:0.09042773 4:-0.3813215 5:0.2590905 6:-0.04505569 7:0.193717 8:-0.04674279 9:0.02106606 10:1 11:0.6939061 12:0 13:0.2159996 14:0 15:0 16:0.8074681 17:0.5528606 18:0.4 19:0.154741 20:0.0005733518 21:0 22:0 
1 1:0.04571466 2:-0.03465189 3:0.05837544 4:-0.05174497 5:0.03160086 6:-0.004938441 7:0.004592028 8:-0.0009950123 9:0.000402616 10:1 11:0.7640522 12:0 13:0.1197649 14:0.1 15:0 16:0.5912023 17:0.2077086 18:0.3333333 19:0.1764606 20:0.0009695967 21:0 22:0 
1 1:0.06571428 2:-0.0662321 3:0.1396554 4:-0.3130452 5:0.2395498 6:-0.04691678 7:0.1073052 8:-0.0291661 9:0.01480687 10:1 11:0.7041733 12:0 13:0.1266573 14:0.2 15:0 16:0.55125 17:0.2707041 18:0.8 19:0.1545724 20:0.0005708578 21:0 22:0 
1 1:0.1314255 2:-0.05302435 3:0.04432591 4:-0.2774063 5:0.08402291 6:-0.006518878 7:0.04175195 8:-0.004488213 9:0.000901868 10:1 11:0.7579126 12:0.7088583 13:0.1704974 14:0.1 15:0 16:0.6691412 17:0.1583418 18:0.375 19:0.1938561 20:0.001412271 21:0 22:0 
1 1:0.05000059 2:-0.03325822 3:0.04929829 4:-0.05354686 5:0.02873124 6:-0.003946938 7:0.004440004 8:-0.000844261 9:0.0002999477 10:1 11:0.7469078 12:0 13:0.1191088 14:0.1 15:0 16:0.6133474 17:0.2958841 18:0.1666667 19:0.1603659 20:0.0006613756 21:0 22:0 
1 1:0.11857 2:-0.04608396 3:0.04122113 4:-0.5219446 5:0.1691624 6:-0.01405732 7:0.1812463 8:-0.02086875 9:0.004496005 10:1 11:0.7549247 12:0.7524521 13:0.263695 14:0.2 15:0.1 16:0.517105 17:0.1226217 18:0.5 19:0.1582974 20:0.0006279076 21:0 22:0 
1 1:0.04428663 2:-0.05032007 3:0.1214092 4:-0.1717723 5:0.1504509 6:-0.03371216 7:0.04891566 8:-0.01521592 9:0.008836529 10:1 11:0.7337065 12:0 13:0.1260077 14:0.1 15:0 16:0.7563378 17:0.3587621 18:0.3333333 19:0.1768404 20:0.0009779719 21:0 22:0 
1 1:0.1157115 2:-0.02501076 3:0.01172273 4:-0.09742675 5:0.01647918 6:-0.0007151261 7:0.006155587 8:-0.0003686339 9:4.133009e-05 10:1 11:0.8229538 12:0.7935513 13:0.1236202 14:0.2 15:0.1 16:0.7615622 17:0.1858931 18:0 19:0.2356923 20:0.003085897 21:0 22:0 
1 1:0.04714376 2:-0.0753513 3:0.2708969 4:-0.6146005 5:0.80202 6:-0.2678699 7:0.6187233 8:-0.2868359 9:0.2483712 10:1 11:0 12:0 13:0.9779383 14:0.1 15:0 16:0.7039577 17:0.4167419 18:0.5 19:0.1200444 20:0.0002076672 21:0 22:0 
1 1:0.06428447 2:-0.04596604 3:0.07259217 4:-0.117188 5:0.06709457 6:-0.009835548 7:0.01633926 8:-0.003320545 9:0.001260865 10:1 11:0.801047 12:0 13:0.1203566 14:0.1 15:0 16:0.6872466 17:0.2275486 18:0.1666667 19:0.1764369 20:0.0009690755 21:0 22:0 
1 1:0.03571407 2:-0.04554443 3:0.1234499 4:-0.185488 5:0.1825164 6:-0.04594381 7:0.07054019 8:-0.02464948 9:0.0160806 10:1 11:0.7985025 12:0 13:0.1247051 14:0.2 15:0 16:0.7802833 17:0.2500229 18:0.2 19:0.159407 20:0.0006456985 21:0 22:0 
1 1:0.1828548 2:-0.0314159 3:0.01176464 4:-0.1626049 5:0.02195997 6:-0.0007625142 7:0.01079805 8:-0.0005169812 9:4.644705e-05 10:1 11:0.8029602 12:0.7921028 13:0.2938997 14:0.3 15:0.1 16:0.6379023 17:0.07941975 18:0.07142857 19:0.2211905 20:0.002393679 21:0 22:0 
1 1:0.1714255 2:-0.0491984 3:0.03171524 4:-0.2902859 5:0.06779485 6:-0.004056181 7:0.03803591 8:-0.003152786 9:0.0004885562 10:1 11:0.7830322 12:0.7930456 13:0.1478674 14:0.3 15:0.1 16:0.577943 17:0.1017746 18:0 19:0.2064787 20:0.001817613 21:0 22:0 
1 1:0.114288 2:-0.0005519144 3:5.911063e-05 4:-0.1437265 5:0.0005259085 6:-5.626388e-06 7:0.01422999 8:-1.698273e-05 9:5.066256e-07 10:1 11:0 12:0.7815487 13:0.4229432 14:0 15:0.3 16:0.6232899 17:0.1657761 18:0.4444444 19:0.3051235 20:0.00866768 21:1.294118 22:0 
1 1:0.3499976 2:-0.0004394732 3:3.341089e-05 4:-0.267692 5:0.000242345 6:-1.947438e-06 7:0.01640177 8:-4.667494e-06 9:1.081213e-07 10:1 11:0 12:0.8268412 13:0.4224982 14:0 15:0.1 16:0.554417 17:0.05320672 18:0.05882353 19:0.2593605 20:0.004524965 21:0.9099099 22:0 
1 1:0.1499992 2:-0.002962002 3:0.0002204801 4:-0.610688 5:0.01015377 6:-7.027374e-05 7:0.1985296 8:-0.001170316 9:2.101375e-05 10:1 11:0 12:0.7742564 13:0.4281052 14:0 15:0.1 16:0.6538028 17:0.1359873 18:0.25 19:0.1768742 20:0.0009787183 21:0 22:0 
1 1:0.1114266 2:-0.0006457549 3:5.505238e-05 4:-0.002686842 5:-6.476179e-05 6:-1.275577e-07 7:0.0001331114 8:-1.910951e-07 9:5.322923e-09 10:1 11:0.795954 12:0.8160025 13:0.4986887 14:0.2 15:0.2 16:0.4870313 17:0.1624126 18:0.4444444 19:0.8154073 20:0.4420775 21:0.9354839 22:0 
1 1:0.2699949 2:-0.002181145 3:0.0001293321 4:-0.05771115 5:0.0003153942 6:-2.008859e-06 7:0.001019131 8:-1.50406e-06 9:3.024267e-08 10:1 11:0.727536 12:0.7948105 13:0.4255261 14:0.1 15:0.5 16:0.5855607 17:0.0593988 18:0 19:0.6708263 20:0.2025072 21:0 22:0 
1 1:0.04000083 2:-0.001102173 3:0.0001417948 4:-0.1193235 5:0.002647763 6:-3.163778e-05 7:0.02774158 8:-0.0002138261 9:6.62337e-06 10:1 11:0 12:0.7902721 13:0.421185 14:0 15:0 16:0.5841438 17:0.1719373 18:0.1428571 19:0.2805392 20:0.006194048 21:0 22:0 
1 1:0.03142819 2:-0.002589203 3:0.0005216815 4:-0.332406 5:0.02289427 6:-0.0004273152 7:0.2789408 8:-0.006805273 9:0.0003283369 10:1 11:0 12:0.7255737 13:0.4263646 14:0 15:0.1 16:0.5750625 17:0.339985 18:0.25 19:0.1274455 20:0.0002638139 21:0 22:0 
1 1:0.1928586 2:-0.002008341 3:7.48069e-05 4:-0.1986967 5:0.001652094 6:-5.573497e-06 7:0.01617679 8:-4.588264e-05 9:3.908925e-07 10:1 11:0 12:0.8048645 13:0.42399 14:0 15:0.1 16:0.5824615 17:0.0755743 18:0.06666667 19:0.2562103 20:0.004309095 21:0 22:0 
1 1:0.02142835 2:-0.01147169 3:0.01372486 4:-0.281299 5:0.1218146 6:-0.01353451 7:0.2827071 8:-0.04347632 9:0.01251878 10:1 11:0 12:0 13:0.4167165 14:0 15:0 16:0.7207088 17:0.5917681 18:0.3333333 19:0.1403421 20:0.0003879281 21:0 22:0 
1 1:0.02857112 2:-0.01239638 3:0.01234116 4:-0.1325209 5:0.04780296 6:-0.004419531 7:0.04868671 8:-0.006236666 9:0.001494259 10:1 11:0 12:0 13:0.4234082 14:0 15:0 16:0.6886364 17:0.4021239 18:0.6666667 19:0.2188057 20:0.002292104 21:0 22:0 
1 1:0.1614268 2:-0.01014835 3:0.001516322 4:-0.4493957 5:0.02354079 6:-0.0003266344 7:0.09874605 8:-0.001836985 9:6.605083e-05 10:1 11:0 12:0.7735484 13:0.4238833 14:0 15:0.1 16:0.5413451 17:0.09879907 18:0.1111111 19:0.1859269 20:0.001195002 21:0 22:0 
1 1:0.115715 2:-0.009263719 3:0.001878584 4:-0.0008949015 5:7.289645e-05 6:-1.484513e-06 7:6.783453e-05 8:-1.413527e-06 9:5.902286e-08 10:1 11:0.8038203 12:0 13:0.115247 14:0.2 15:0 16:0.5445659 17:0.1496794 18:0.2 19:0.3535302 20:0.0156209 21:0 22:0 
1 1:0.02714217 2:-0.01183488 3:0.01194028 4:-0.06798375 5:0.02471931 6:-0.002310738 7:0.01353262 8:-0.001743421 9:0.0004214005 10:1 11:0 12:0 13:1 14:0 15:0 16:0.6206667 17:0.4145157 18:0 19:0.2422379 20:0.003443247 21:0 22:0 
1 1:0.0514297 2:-0.007718619 3:0.002658167 4:-0.0957142 5:0.01179051 6:-0.0003748311 7:0.01400778 8:-0.0006092745 9:4.990093e-05 10:1 11:0 12:0.8089328 13:0.2487397 14:0 15:0.1 16:0.5763958 17:0.3056908 18:0.1428571 19:0.2779755 20:0.00597071 21:0 22:0 
1 1:0.1071417 2:-0.01038655 3:0.002301772 4:-0.1377654 5:0.01086554 6:-0.0002221037 7:0.01389537 8:-0.0003864227 9:2.033268e-05 10:1 11:0.6759776 12:0.8067658 13:0.2755942 14:0.1 15:0.1 16:0.564 17:0.1420915 18:0.2222222 19:0.2979875 20:0.007884823 21:0 22:0 
1 1:0.2314243 2:-0.00204346 3:0.0001389452 4:-0.02530944 5:0.0001015059 6:-9.313794e-07 7:0.000265216 8:-1.664201e-07 9:7.450722e-09 10:1 11:0.7919585 12:0.7944493 13:0.202408 14:0.2 15:0.1 16:0.607797 17:0.06917612 18:0 19:0.864454 20:0.5584285 21:0 22:0 
1 1:0.07285677 2:-0.005492499 3:0.0009612398 4:-0.1647515 5:0.01008977 6:-0.0001628212 7:0.02892482 8:-0.0006244882 9:2.593156e-05 10:1 11:0 12:0.821654 13:0.4185391 14:0 15:0.1 16:0.5802298 17:0.2250537 18:0.1111111 19:0.2356371 20:0.003083007 21:0 22:0 
1 1:0.09428587 2:-0.01317206 3:0.004169438 4:-0.2223046 5:0.02512793 6:-0.000736692 7:0.04029332 8:-0.001612715 9:0.0001221999 10:1 11:0.7913762 12:0.8194713 13:0.4804299 14:0 15:0.1 16:0.6603636 17:0.1634544 18:0.2222222 19:0.2404755 20:0.003344132 21:0 22:0 
1 1:0.03714233 2:-0.01843803 3:0.02065309 4:-0.1104918 5:0.04481941 6:-0.00465529 7:0.02565807 8:-0.003690701 9:0.0009920294 10:1 11:0.7125112 12:0 13:0.1194883 14:0.1 15:0 16:0.6070833 17:0.2932153 18:0.2 19:0.2339623 20:0.002996286 21:0 22:0 
0.60370392149886 1:1.73717 2:-0.01135203 3:0.0001982238 4:-0.04876641 5:0.0002031717 6:-2.779365e-07 7:0.0002074535 8:-2.739613e-07 9:8.554599e-10 10:1 11:0.8475591 12:0.8436394 13:0.1218553 14:0.2 15:0.2 16:1 17:0.01408474 18:0.02380952 19:0.7055011 20:0.2477369 21:0.1260606 22:0 
1 1:0.2157106 2:-0.01752201 3:0.003288586 4:-0.3534229 5:0.02350691 6:-0.0004088978 7:0.04503519 8:-0.001061416 9:4.775206e-05 10:1 11:0.7151628 12:0.7869304 13:0.4190832 14:0 15:0.3 16:0.541656 17:0.08518972 18:0.3333333 19:0.2437512 20:0.003530099 21:0 22:0 
1 1:0.1528592 2:-0.02258501 3:0.00758703 4:-0.0534264 5:0.006374283 6:-0.0001966356 7:0.001521936 8:-6.368513e-05 9:5.02728e-06 10:1 11:0.7762825 12:0 13:0.1190066 14:0.1 15:0.1 16:0.8683627 17:0.1110524 18:0.2 19:0.2817121 20:0.006298278 21:0 22:0 
1 1:0.02428601 2:-0.02712301 3:0.06667481 4:-0.132831 5:0.118471 6:-0.02704432 7:0.05513388 8:-0.01746179 9:0.01032987 10:1 11:0.6692714 12:0 13:0.1209107 14:0 15:0 16:0.6108889 17:0.4844179 18:0.6666667 19:0.1845969 20:0.001161176 21:0 22:0 
1 1:0.02714263 2:-0.03121998 3:0.08279462 4:-0.4733615 5:0.4557254 6:-0.1122601 7:0.65374 8:-0.2235572 9:0.1427474 10:2 11:0 12:0 13:0.04980987 14:0 15:0 16:0.6025897 17:0.4673444 18:0.3333333 19:0.1146607 20:0.0001728454 21:0 22:0 
1 1:0.07285561 2:-0.0330311 3:0.03454793 4:-0.4404418 5:0.1670301 6:-0.01623178 7:0.2107148 8:-0.02839118 9:0.007153639 10:2 11:0.6776507 12:0.8055885 13:0.5048898 14:0.1 15:0 16:0.5986207 17:0.1910088 18:0.1666667 19:0.1446182 20:0.000437413 21:0 22:0 
1 1:0.0242861 2:-0.04962786 3:0.2338164 4:-0.5360543 5:0.9171575 6:-0.401434 7:0.9371068 8:-0.5695927 9:0.6463367 10:2 11:0 12:0 13:1 14:0 15:0 16:0.6232445 17:0.3160182 18:0.6666667 19:0.102442 20:0.0001101314 21:0 22:0 
1 1:0.5042977 2:-0.0190663 3:0.001715165 4:-0.1527116 5:0.004842212 6:-3.981443e-05 7:0.003807372 8:-4.231667e-05 9:8.886612e-07 10:2 11:0.8195387 12:0.8072101 13:0.2789497 14:0.2 15:0.1 16:0.5473043 17:0.03587051 18:0.07407407 19:0.3602679 20:0.01684622 21:0 22:0 
1 1:0.05000024 2:-0.07163549 3:0.2410229 4:-0.06202191 5:0.07570441 6:-0.02365003 7:0.006338368 8:-0.002747149 9:0.002223848 10:3 11:0 12:0 13:1 14:0 15:0 16:0.52291 17:0.3526278 18:0.25 19:0.1271976 20:0.0002617678 21:0 22:0 
1 1:0.04428571 2:-0.06718998 3:0.2411282 4:-0.004955855 5:0.006419397 6:-0.00212707 7:0.0003258693 8:-0.0001506072 9:0.0001299539 10:3 11:0.7932743 12:0 13:0.1148257 14:0 15:0 16:0.5351071 17:0.2876797 18:0.5 19:0.1503094 20:0.0005104398 21:0 22:0 
1 1:0.02857128 2:-0.04284271 3:0.1480997 4:-0.1724779 5:0.2164036 6:-0.06947736 7:0.08246569 8:-0.03674723 9:0.03057795 10:3 11:0.6818764 12:0 13:0.1160676 14:0 15:0 16:0.5774 17:0.3531968 18:0.25 19:0.1275072 20:0.000264325 21:0 22:0 
0.1152596148282785 1:0.06999993 2:-0.06245325 3:0.1318089 4:-0.06014987 5:0.046106 6:-0.009042851 7:0.004442682 8:-0.001210129 9:0.0006154963 10:3 11:0.7560506 12:0 13:0.1132389 14:0.1 15:0 16:0.5375625 17:0.199105 18:0.3333333 19:0.1674881 20:0.0007869286 21:0 22:0 
1 1:0.1171425 2:-0.000207003 3:4.725951e-05 4:-0.2080138 5:0.0001988182 6:-5.939284e-06 7:0.02701493 8:-5.314194e-06 9:7.021335e-07 10:1 11:0 12:0.8245499 13:0.3883688 14:0 15:0.3 16:0.875202 17:0.1641322 18:0.2222222 19:0.2509522 20:0.003966104 21:0.875 22:0 
1 1:0.8128561 2:-0.003330696 3:5.381332e-05 4:-0.04337736 5:6.827292e-05 6:-1.247223e-07 7:0.0002351646 8:-5.755654e-08 9:4.839812e-10 10:1 11:0.8357734 12:0.8468254 13:0.3866687 14:0.2 15:0.1 16:1 17:0.02558238 18:0.05405406 19:0.7947671 20:0.3989878 21:0.5131086 22:0 
1 1:0.04714215 2:-0.007444426 3:0.002569197 4:-0.1646346 5:0.02015353 6:-0.0006479437 7:0.0420606 8:-0.001835026 9:0.0001533602 10:1 11:0 12:0.7028851 13:0.3989583 14:0 15:0.1 16:1 17:0.3296733 18:0.5 19:0.219296 20:0.002312719 21:0 22:0 
1 1:0.03285714 2:-0.01583622 3:0.01761057 4:-0.01329203 5:0.00529765 6:-0.0005425457 7:0.0006173191 8:-8.712504e-05 9:2.30533e-05 10:2 11:0 12:0 13:1 14:0 15:0 16:0.5571967 17:0.4038342 18:0.6666667 19:0.2649209 20:0.004925668 21:0 22:0 
1 1:0.07856949 2:-0.009225125 3:0.002429866 4:-0.4235441 5:0.03881215 6:-0.000948646 7:0.1687738 8:-0.0054899 9:0.0003474748 10:1 11:0 12:0.7177867 13:0.3994578 14:0 15:0.1 16:0.9566549 17:0.1951877 18:0.3333333 19:0.1916808 20:0.00134994 21:0 22:0 
1 1:0.09285925 2:-0.01588554 3:0.006203547 4:-0.04231328 5:0.006016832 6:-0.000220918 7:0.001604646 8:-8.162991e-05 9:7.823874e-06 10:2 11:0.8202238 12:0 13:0.1184888 14:0.2 15:0 16:0.6291306 17:0.1756117 18:0.5 19:0.2645853 20:0.004900752 21:0 22:0 
1 1:0.3828499 2:-0.003032448 3:0.0001872788 4:-0.1594553 5:0.0009404666 6:-5.502931e-06 7:0.00495253 8:-9.877189e-06 9:1.528433e-07 10:1 11:0.6600584 12:0.8233311 13:0.4009564 14:0 15:0.2 16:0.8492056 17:0.05813015 18:0.08695652 19:0.4991891 20:0.06209556 21:0 22:0 
1 1:0.02571465 2:-0.007309207 3:0.004626792 4:-0.1645663 5:0.03749709 6:-0.002202607 7:0.07998477 8:-0.006467211 9:0.0009837578 10:1 11:0 12:0.8008331 13:0.4149842 14:0 15:0.2 16:0.7942621 17:0.4038342 18:0.25 19:0.1828566 20:0.001118002 21:0 22:0 
1 1:0.1471399 2:-0.0172724 3:0.004380588 4:-0.3496306 5:0.03178083 6:-0.0007466996 7:0.06128467 8:-0.001973275 9:0.0001198403 10:1 11:0 12:0.7831953 13:0.399371 14:0.1 15:0.1 16:0.8966944 17:0.1223335 18:0.3333333 19:0.223245 20:0.002483859 21:0 22:0 
1 1:0.2328564 2:-0.01260459 3:0.001568546 4:-0.1804583 5:0.007668271 6:-8.856286e-05 7:0.01044851 8:-0.0001575665 9:4.713297e-06 10:1 11:0.7812378 12:0.7714511 13:0.2503813 14:0.2 15:0.1 16:0.909808 17:0.07530303 18:0.1428571 19:0.3366905 20:0.01285061 21:0 22:0 
1 1:0.08999965 2:-0.01770706 3:0.0075165 4:-0.2753761 5:0.04206362 6:-0.001657788 7:0.06196841 8:-0.00336012 9:0.0003431116 10:1 11:0.7818162 12:0.7526062 13:0.4650129 14:0 15:0 16:0.8215566 17:0.1913294 18:0.25 19:0.2081238 20:0.001876233 21:0 22:0 
1 1:0.06714433 2:-0.01274249 3:0.005177109 4:-0.1620113 5:0.02348107 6:-0.0008832476 7:0.02836554 8:-0.001455496 9:0.0001414469 10:1 11:0.7962868 12:0.7978266 13:0.1658947 14:0.1 15:0.3 16:0.6547692 17:0.143117 18:0 19:0.2620134 20:0.004712965 21:0 22:0 
1 1:0.07571378 2:-0.0342323 3:0.03368542 4:-0.4939588 5:0.1763246 6:-0.01611771 7:0.2409354 8:-0.03055104 9:0.007239421 10:1 11:0 12:0.774301 13:0.5401629 14:0 15:0.1 16:0.7881885 17:0.2920755 18:0.3333333 19:0.1483679 20:0.0004845739 21:0 22:0 
1 1:0.2071416 2:-0.03077961 3:0.009731412 4:-0.2915618 5:0.03313356 6:-0.0009702087 7:0.02987667 8:-0.001202449 9:9.100435e-05 10:1 11:0.7832144 12:0.8081186 13:0.3413862 14:0.2 15:0.1 16:0.780954 17:0.08341493 18:0.3333333 19:0.2541 20:0.004168874 21:0 22:0 
1 1:0.03999915 2:-0.02441142 3:0.03190386 4:-0.2521023 5:0.1195284 6:-0.01450612 7:0.1168562 8:-0.01967416 9:0.006187428 10:1 11:0.7863626 12:0.7909763 13:0.08246037 14:0.1 15:0.2 16:0.768256 17:0.3067962 18:0.1666667 19:0.1521246 20:0.0005355466 21:0 22:0 
1 1:0.07999821 2:-0.03160312 3:0.0269463 4:-0.2723199 5:0.0841226 6:-0.006655927 7:0.06876213 8:-0.007537887 9:0.001544512 10:1 11:0.7356683 12:0.8050632 13:0.3168144 14:0.2 15:0.1 16:0.918215 17:0.2261947 18:0.25 19:0.1937134 20:0.001408116 21:0 22:0 
1 1:0.3328627 2:-0.02796282 3:0.005094709 4:-0.1220968 5:0.008059161 6:-0.0001367599 7:0.003514548 8:-8.275333e-05 9:3.654355e-06 10:1 11:0.818212 12:0.8197308 13:0.1222744 14:0.1 15:0.2 16:0.9881675 17:0.06235925 18:0.1176471 19:0.3170239 20:0.01010108 21:0 22:0 
1 1:0.09428714 2:-0.000756886 3:5.718762e-05 4:-0.2716753 5:0.001754993 6:-1.253063e-05 7:0.06089963 8:-0.0001372883 9:2.583036e-06 10:1 11:0 12:0.8163667 13:0.4175567 14:0 15:0.1 16:0.7136304 17:0.1634544 18:0.25 19:0.2015612 20:0.001650547 21:1 22:0 
1 1:0.04142774 2:-0.01664433 3:0.01408781 4:-0.5401862 5:0.1645656 6:-0.01293608 7:0.5053648 8:-0.05467755 9:0.01113933 10:1 11:0 12:0 13:0.3878535 14:0 15:0 16:1 17:0.4647326 18:0.25 19:0.1526265 20:0.0005426506 21:0 22:0 
1 1:0.8171399 2:-0.004301895 3:6.987034e-05 4:0.0001961773 5:-1.875034e-05 6:1.050131e-08 7:9.943164e-05 8:-1.206398e-07 9:3.804609e-10 10:1 11:0.8015365 12:0.7484289 13:0.1183214 14:0.1 15:0.1 16:1 17:0.02784902 18:0 19:0.8763598 20:0.5898338 21:1.266881 22:0 
1 1:0.03 2:-0.01193907 3:0.009911507 4:-0.1453251 5:0.04370034 6:-0.003365667 7:0.05052791 8:-0.00539036 9:0.001074791 10:1 11:0 12:0.6587002 13:0.3914208 14:0 15:0 16:0.7459069 17:0.2839014 18:0 19:0.1981152 20:0.001540535 21:0 22:0 
1 1:0.1828592 2:-0.007223096 3:0.0006605966 4:-0.2894463 5:0.009088111 6:-7.745256e-05 7:0.03450178 8:-0.0003857423 9:8.548791e-06 10:1 11:0 12:0.7886606 13:0.4148639 14:0 15:0.1 16:1 17:0.1362176 18:0.07692308 19:0.218523 20:0.002280284 21:0 22:0 
1 1:0.02999947 2:-0.01716883 3:0.02244098 4:-0.5698954 5:0.2695552 6:-0.03272778 7:0.8463296 8:-0.1421926 9:0.0447523 10:1 11:0 12:0 13:0.4161256 14:0 15:0.1 16:0.6396304 17:0.3365992 18:0.25 19:0.120754 20:0.0002126207 21:0 22:0 
1 1:0.1300027 2:-0.0128526 3:0.002810633 4:-0.2758084 5:0.02133439 6:-0.0004317172 7:0.04350998 8:-0.001190922 9:6.223153e-05 10:1 11:0.7872151 12:0.7852397 13:0.314265 14:0.1 15:0.2 16:0.9927518 17:0.2036217 18:0.1538462 19:0.2431646 20:0.003496244 21:0 22:0 
1 1:0.1214265 2:-0.01862122 3:0.005849862 4:-0.1407429 5:0.01574489 6:-0.0004567394 7:0.01139119 8:-0.0004502266 9:3.366844e-05 10:1 11:0.7935052 12:0.7971512 13:0.2003223 14:0.3 15:0.1 16:0.7962414 17:0.1335711 18:0.09090909 19:0.298413 20:0.007929962 21:0 22:0 
1 1:0.1628564 2:-0.01634237 3:0.003262553 4:-0.1725831 5:0.01219537 6:-0.000224539 7:0.01233977 8:-0.0003074828 9:1.457045e-05 10:1 11:0.7696798 12:0.780175 13:0.5784224 14:0.2 15:0.2 16:1 17:0.1936947 18:0.1428571 19:0.309099 20:0.009128311 21:0 22:0 
1 1:0.03857056 2:-0.02438944 3:0.03382229 4:-0.4754513 5:0.2383465 6:-0.0307029 7:0.4394663 8:-0.07825593 9:0.02613123 10:1 11:0 12:0 13:1 14:0 15:0 16:0.8036072 17:0.2434734 18:0 19:0.1582168 20:0.0006266281 21:0 22:0 
1 1:0.07428592 2:-0.02824632 3:0.02147782 4:-0.2130768 5:0.05876119 6:-0.004154448 7:0.04203212 8:-0.004121857 9:0.0007562142 10:1 11:0.7172533 12:0.7022327 13:0.4212319 14:0.2 15:0.1 16:0.7207143 17:0.227719 18:0.2857143 19:0.1796618 20:0.001041892 21:0 22:0 
1 1:0.02571416 2:-0.03019218 3:0.07024755 4:-0.3317184 5:0.2800467 6:-0.06051636 7:0.2911392 8:-0.08729434 9:0.04889199 10:1 11:0 12:0 13:1 14:0 15:0 16:0.5644193 17:0.3820177 18:0.25 19:0.1387001 20:0.0003700902 21:0 22:0 
1 1:0.0314285 2:-0.04665038 3:0.1449217 4:-0.6419832 5:0.7239334 6:-0.2089262 7:0.9422952 8:-0.3774834 9:0.2824308 10:1 11:0 12:0 13:0.05004298 14:0 15:0 16:0.8614219 17:0.655389 18:0.6666667 19:0.1118872 20:0.0001567192 21:0 22:0 
1 1:0.4571448 2:-0.02229362 3:0.002259004 4:-0.2229671 5:0.008041484 6:-7.54939e-05 7:0.007709891 8:-9.850646e-05 9:2.389821e-06 10:1 11:0.829329 12:0.8355573 13:0.4266492 14:0.1 15:0.1 16:0.781733 17:0.05042513 18:0.04545455 19:0.3003525 20:0.008138139 21:0 22:0 
1 1:0.06857014 2:-0.02737088 3:0.02354302 4:-0.07694108 5:0.0239942 6:-0.001916499 7:0.006543016 8:-0.0007249534 9:0.0001501368 10:1 11:0.7630166 12:0 13:0.1208609 14:0.1 15:0 16:0.9633269 17:0.1905404 18:0.2857143 19:0.2261794 20:0.002617049 21:0 22:0 
1 1:0.2214288 2:-0.02075861 3:0.003978757 4:-0.2394795 5:0.016238 6:-0.0002871726 7:0.01790428 8:-0.0004285479 9:1.951471e-05 10:1 11:0.7908948 12:0.7485374 13:0.3900502 14:0.1 15:0.1 16:0.8350901 17:0.09643807 18:0.06666667 19:0.3013688 20:0.008248847 21:0 22:0 
1 1:0.1328553 2:-0.01428192 3:0.00333737 4:-0.03145483 5:0.002567512 6:-5.411242e-05 7:0.0006124621 8:-1.736102e-05 9:9.266599e-07 10:1 11:0.8021601 12:0.6696759 13:0.1228152 14:0.1 15:0 16:1 17:0.125952 18:0.2 19:0.3258965 20:0.01128025 21:0 22:0 
1 1:0.6185797 2:-0.03185118 3:0.003336429 4:-0.1270839 5:0.004707122 6:-4.538033e-05 7:0.001889446 8:-2.471772e-05 9:6.143965e-07 10:1 11:0.8051883 12:0.7957677 13:0.1468892 14:0.1 15:0.1 16:0.8541132 17:0.03777242 18:0.04166667 19:0.3433024 20:0.01389017 21:0 22:0 
1 1:0.06285727 2:-0.03628886 3:0.04180262 4:-0.2098448 5:0.08763667 6:-0.009371657 7:0.04812634 8:-0.007135431 9:0.001976897 10:1 11:0.7160468 12:0 13:0.1333963 14:0.2 15:0.1 16:0.8067458 17:0.2275486 18:0 19:0.1919059 20:0.001356291 21:0 22:0 
1 1:0.07999965 2:-0.03091238 3:0.02522431 4:-0.08003128 5:0.02358157 6:-0.00178157 7:0.00590751 8:-0.0006162723 9:0.0001202854 10:1 11:0.7556064 12:0 13:0.1249565 14:0.1 15:0 16:0.85275 17:0.2460486 18:0.125 19:0.2214521 20:0.002405024 21:0 22:0 
1 1:0.03999987 2:-0.06385726 3:0.1976575 4:-0.4203686 5:0.4722826 6:-0.1357787 7:0.2942729 8:-0.1174269 9:0.08750395 10:1 11:0.6336316 12:0 13:0.1356547 14:0 15:0 16:0.9366222 17:0.5454154 18:0.25 19:0.139583 20:0.0003796035 21:0 22:0 
1 1:0.4299934 2:-0.04399604 3:0.009487503 4:-0.3546025 5:0.0276644 6:-0.0005549919 7:0.02119554 8:-0.0005881146 9:3.062728e-05 10:1 11:0.8298016 12:0.8126714 13:0.3337852 14:0.1 15:0.1 16:1 17:0.05790954 18:0.05555556 19:0.2188356 20:0.002293358 21:0 22:0 
1 1:0.1128595 2:-0.0614959 3:0.06577326 4:-0.307979 5:0.1194342 6:-0.01185936 7:0.05677074 8:-0.007815932 9:0.002010672 10:1 11:0.7281777 12:0.6964109 13:0.178036 14:0.1 15:0 16:0.7606125 17:0.1830689 18:0.125 19:0.1810667 20:0.001074865 21:0 22:0 
1 1:0.06571414 2:-0.04258355 3:0.05957773 4:-0.08431628 5:0.04273343 6:-0.005545446 7:0.008087832 8:-0.00145394 9:0.000488366 10:1 11:0.7437196 12:0 13:0.122266 14:0.1 15:0 16:1 17:0.1789444 18:0.2857143 19:0.1629109 20:0.0007043696 21:0 22:0 
1 1:0.02428623 2:-0.07127096 3:0.4048089 4:-0.4743712 5:0.9784911 6:-0.5163144 7:0.6162167 8:-0.4515555 9:0.6177199 10:1 11:0 12:0 13:0.1368116 14:0 15:0 16:0.8638333 17:0.5969026 18:0.6666667 19:0.1134905 20:0.0001658969 21:0 22:0 
1 1:0.1557132 2:-0.05921261 3:0.04441118 4:-0.4152983 5:0.1124903 6:-0.007834985 7:0.07468297 8:-0.007183611 9:0.001296636 10:1 11:0.7924849 12:0.7967271 13:0.9862196 14:0.2 15:0.1 16:1 17:0.2086133 18:0.1666667 19:0.2011925 20:0.001638504 21:0 22:0 
1 1:0.2371451 2:-0.04522978 3:0.01889471 4:-0.5485031 5:0.08228023 6:-0.003192575 7:0.09443702 8:-0.005031741 9:0.0005060635 10:1 11:0.8119044 12:0.7968958 13:0.3011225 14:0.1 15:0.1 16:0.6662126 17:0.09665876 18:0.1428571 19:0.2265985 20:0.002636502 21:0 22:0 
1 1:0.04285674 2:-0.05093618 3:0.1217721 4:-0.185244 5:0.1607056 6:-0.03567402 7:0.05538783 8:-0.01706168 9:0.00981402 10:1 11:0.7836286 12:0 13:0.1302599 14:0.1 15:0 16:0.8734694 17:0.3681554 18:0.2 19:0.143472 20:0.00042371 21:0 22:0 
1 1:0.1257138 2:-0.06865968 3:0.07496814 4:-0.2898513 5:0.1148529 6:-0.01164571 7:0.04632638 8:-0.006518864 9:0.001713004 10:1 11:0.768335 12:0 13:0.1324713 14:0.3 15:0 16:0.7339767 17:0.1530274 18:0.1111111 19:0.2078956 20:0.00186802 21:0 22:0 
1 1:0.172854 2:-0.04013501 3:0.01982068 4:-0.07639885 5:0.01363736 6:-0.000624019 7:0.002520619 8:-0.0001594217 9:1.886204e-05 10:1 11:0.8141752 12:0 13:0.1240006 14:0.1 15:0 16:1 17:0.1243726 18:0.08333334 19:0.1982103 20:0.001543494 21:0 22:0 
-1 1:0.04142789 2:-0.00372797 3:0.001009391 4:-0.01957701 5:0.001843386 6:-4.562395e-05 7:0.0009894667 8:-3.264241e-05 9:2.068818e-06 10:1 11:0.803381 12:0 13:0.09675544 14:0.1 15:0.1 16:0.5665948 17:0.3231023 18:0.4 19:0.398471 20:0.02521082 21:0 22:0 
-1 1:0.1128571 2:-0.00948438 3:0.002335248 4:-0.1141126 5:0.01001535 6:-0.0002278813 7:0.01154584 8:-0.0003582483 9:2.102497e-05 10:1 11:0.8434582 12:0.8528606 13:0.2980772 14:0.1 15:0.3 16:0.5576237 17:0.1410511 18:0.1111111 19:0.2880326 20:0.006882821 21:0 22:0 
-1 1:0.1471453 2:-0.02121164 3:0.008932104 4:-0.01712012 5:0.00254874 6:-9.780594e-05 7:0.0002699679 8:-1.412508e-05 9:1.390072e-06 10:1 11:0.8594916 12:0 13:0.09804173 14:0.2 15:0 16:0.5671058 17:0.1086069 18:0.1 19:0.2495173 20:0.003876168 21:0 22:0 
-1 1:0.08285619 2:-0.02361394 3:0.01932146 4:-0.2083055 5:0.06178639 6:-0.004691377 7:0.05182217 8:-0.005454754 9:0.001072573 10:1 11:0.7746648 12:0.797064 13:0.6499412 14:0.1 15:0.2 16:0.5644203 17:0.1809971 18:0 19:0.206844 20:0.00183051 21:0 22:0 
-1 1:0.06857277 2:-0.04163089 3:0.07315606 4:-0.3997472 5:0.2549415 6:-0.04161164 7:0.2316755 8:-0.0524798 9:0.0222028 10:1 11:0.8313513 12:0.8330847 13:0.135388 14:0 15:0.1 16:0.5307316 17:0.1934163 18:0.3333333 19:0.1397267 20:0.0003811696 21:0 22:0 
-1 1:0.2785677 2:-0.02085587 3:0.004581526 4:-0.0660433 5:0.005227994 6:-0.0001063614 7:0.001651805 8:-4.629288e-05 9:2.434095e-06 10:1 11:0.8424835 12:0.7982243 13:0.09727281 14:0.2 15:0.1 16:0.5729904 17:0.05609987 18:0 19:0.2905329 20:0.007124942 21:0 22:0 
-1 1:0.07428316 2:-0.01480623 3:0.008739882 4:-0.001812524 5:0.0003517416 6:-1.739982e-05 7:2.383266e-05 8:-1.794701e-06 9:2.535649e-07 10:1 11:0.8526328 12:0 13:0.09687288 14:0.3 15:0 16:0.6147654 17:0.1250491 18:0.1666667 19:0.178189 20:0.001008146 21:0.5 22:0 
-1 1:0.1399975 2:-0.02332397 3:0.01149384 4:-0.006666764 5:0.001143939 6:-5.027636e-05 7:7.333844e-05 8:-4.448033e-06 9:5.046428e-07 10:1 11:0.8350294 12:0 13:0.09689505 14:0.3 15:0 16:0.5702603 17:0.09215427 18:0.1538462 19:0.2018339 20:0.001659496 21:0.1666667 22:0 
-1 1:0.03714247 2:-0.001004628 3:0.0001575231 4:-0.07861286 5:0.002215909 6:-3.247739e-05 7:0.01633856 8:-0.0001644424 9:6.286321e-06 10:1 11:0 12:0.7305635 13:0.5076989 14:0 15:0.1 16:0.6113389 17:0.2538661 18:0 19:0.3227376 20:0.01084921 21:0 22:0 
-1 1:0.0328561 2:-0.001933643 3:0.0003508617 4:-1.60554e-05 5:-4.614551e-05 6:1.432742e-06 7:2.958949e-05 8:-6.687621e-07 9:3.154575e-08 10:1 11:0.7697261 12:0 13:0.09962976 14:0 15:0 16:0.6125042 17:0.2461983 18:0.1666667 19:0.4318605 20:0.03478355 21:0.75 22:0 
-1 1:0.1042827 2:-0.009732017 3:0.002613229 4:-0.0008068517 5:2.240812e-05 6:8.326952e-07 7:3.414118e-05 8:-1.181567e-06 9:7.798469e-08 10:1 11:0.8555437 12:0 13:0.09889365 14:0.1 15:0 16:0.5530248 17:0.101514 18:0.08333334 19:0.2748582 20:0.005707357 21:0.1363636 22:0 
-1 1:0.05285592 2:-0.00497161 3:0.001494353 4:-0.313618 5:0.03016405 6:-0.0008414952 7:0.1801713 8:-0.006149605 9:0.0004443548 10:1 11:0 12:0 13:1 14:0 15:0 16:0.5696549 17:0.2643812 18:0.1428571 19:0.2166587 20:0.002203456 21:0 22:0 
-1 1:0.1399982 2:-0.01154325 3:0.002719129 4:-0.2428057 5:0.02042612 6:-0.0004458403 7:0.04079301 8:-0.001215963 9:6.862464e-05 10:1 11:0.8284071 12:0.8553955 13:0.4986925 14:0.1 15:0.1 16:0.5518847 17:0.1089696 18:0.1666667 19:0.220961 20:0.002383759 21:0 22:0 
-1 1:0.241436 2:-0.01518465 3:0.002696777 4:-0.08260221 5:0.005252771 6:-8.648908e-05 7:0.002729554 8:-6.149434e-05 9:2.619072e-06 10:1 11:0.8476403 12:0.8280384 13:0.3156542 14:0.4 15:0.3 16:0.5584684 17:0.05631211 18:0 19:0.2682453 20:0.005177599 21:0 22:0 
-1 1:0.0614295 2:-0.02351221 3:0.02525529 4:-0.001906805 5:0.0006754226 6:-6.062702e-05 7:7.048143e-05 8:-9.634093e-06 9:2.461086e-06 10:1 11:0.8547464 12:0 13:0.1001465 14:0.3 15:0 16:0.5368455 17:0.2514633 18:0.125 19:0.1837214 20:0.001139302 21:0.6666667 22:0 
-1 1:0.02714304 2:-0.008530258 3:0.007698186 4:-0.4276506 5:0.138582 6:-0.01161677 7:0.6572236 8:-0.07564963 9:0.01643767 10:1 11:0 12:0 13:1 14:0 15:0 16:0.6015859 17:0.5654867 18:0.3333333 19:0.1313551 20:0.0002977057 21:0 22:0 
-1 1:0.05571419 2:-0.006855393 3:0.002564863 4:-0.3063017 5:0.03953461 6:-0.001374661 7:0.1669814 8:-0.007660652 9:0.0006908408 10:1 11:0 12:0.7348904 13:0.5081872 14:0 15:0 16:0.5575384 17:0.1759292 18:0.1428571 19:0.2012028 20:0.001638838 21:0 22:0 
-1 1:0.1142835 2:-0.01495284 3:0.005675464 4:-0.001928958 5:0.0002188893 6:-6.039553e-06 7:0.0001587021 8:-7.772809e-06 9:7.123949e-07 10:1 11:0.8443891 12:0 13:0.09810907 14:0.1 15:0 16:0.5648472 17:0.1251052 18:0.1818182 19:0.3313892 20:0.01206017 21:0.3 22:0 
-1 1:0.1000021 2:-0.041233 3:0.04923263 4:-0.3275509 5:0.1419337 6:-0.01573897 7:0.106959 8:-0.01646015 9:0.004730592 10:1 11:0.7935891 12:0.774908 13:0.1799428 14:0.1 15:0.1 16:0.5713131 17:0.1371691 18:0 19:0.1776056 20:0.0009950079 21:0 22:0 
-1 1:0.04428533 2:-0.0004037258 3:5.773746e-05 4:-0.03420211 5:0.0002827211 6:-4.064186e-06 7:0.002670348 8:-6.577383e-06 9:2.716973e-07 10:1 11:0 12:0.7807168 13:0.5117823 14:0 15:0.2 16:0.5954892 17:0.3436117 18:0.2 19:0.4531347 20:0.04216085 21:0 22:0 
-1 1:0.03999933 2:-0.00110123 3:0.0001058151 4:-0.04456019 5:0.00122641 6:-1.060146e-05 7:0.005003911 8:-4.65322e-05 9:1.007478e-06 10:1 11:0 12:0.8506044 13:0.5057272 14:0 15:0.1 16:0.5838571 17:0.3043758 18:0 19:0.329053 20:0.01172366 21:0 22:0 
-1 1:0.06285924 2:-0.01120843 3:0.005790029 4:-0.2206547 5:0.04091702 6:-0.001960546 7:0.0764718 8:-0.005030047 9:0.0006238618 10:1 11:0 12:0.7745584 13:0.5050024 14:0 15:0.1 16:0.5408971 17:0.1861684 18:0.4 19:0.2104835 20:0.001962783 21:0 22:0 
-1 1:0.1442846 2:-0.01918471 3:0.007321688 4:-0.09857028 5:0.01363122 6:-0.0004827612 7:0.006749239 8:-0.0003311323 9:3.036277e-05 10:1 11:0.8597649 12:0.7782751 13:0.09828182 14:0.3 15:0.1 16:0.5475294 17:0.09239072 18:0.1428571 19:0.2567091 20:0.004342751 21:0 22:0 
-1 1:0.03428496 2:4.260335e-05 3:5.04907e-05 4:-0.2422634 5:-0.00035048 6:-3.393421e-05 7:0.1663505 8:9.582647e-05 9:2.138913e-05 10:1 11:0 12:0.7319896 13:0.509445 14:0 15:0.1 16:0.7454216 17:0.3436701 18:0 19:0.162139 20:0.0006911145 21:0 22:0 
-1 1:0.03999961 2:-0.001844699 3:0.0002692361 4:-0.03007352 5:0.00142127 6:-1.861899e-05 7:0.002332606 8:-3.768084e-05 9:1.23498e-06 10:1 11:0 12:0.7987483 13:0.5147821 14:0 15:0.1 16:0.5500284 17:0.2327106 18:0 19:0.4105127 20:0.02839923 21:0 22:0 
-1 1:0.08856987 2:-0.006420001 3:0.001394453 4:-0.05354545 5:0.004066465 6:-8.087586e-05 7:0.003306638 8:-8.791043e-05 9:4.466696e-06 10:1 11:0.8504758 12:0.8607296 13:0.300562 14:0.2 15:0.1 16:0.5578613 17:0.1319223 18:0.1111111 19:0.3618237 20:0.01713911 21:0 22:0 
-1 1:0.09428825 2:-0.009850153 3:0.003029667 4:-0.125506 5:0.01393143 6:-0.0003970331 7:0.01696991 8:-0.0006671197 9:4.91475e-05 10:1 11:0.7407877 12:0.8545866 13:0.5113655 14:0 15:0.3 16:0.5521452 17:0.1230991 18:0 19:0.2441848 20:0.003555288 21:0 22:0 
-1 1:0.09000274 2:-0.01779848 3:0.01034781 4:-0.170192 5:0.03575028 6:-0.001926558 7:0.03251467 8:-0.002420897 9:0.0003374499 10:1 11:0.8523545 12:0.8607211 13:0.223354 14:0 15:0.1 16:0.5680308 17:0.1250115 18:0 19:0.2278164 20:0.002693642 22:0 
-1 1:0.131428 2:-0.0234028 3:0.01222854 4:-0.07490753 5:0.01423151 6:-0.0006926685 7:0.004417351 8:-0.0002987557 9:3.777566e-05 10:1 11:0.8671885 12:0 13:0.0972283 14:0.2 15:0.1 16:0.5551384 17:0.1244954 18:0 19:0.2304744 20:0.002821571 21:0 22:0 
-1 1:0.1271467 2:-0.02375218 3:0.01307431 4:-0.2048684 5:0.040744 6:-0.002082456 7:0.03330582 8:-0.002351911 9:0.0003114894 10:1 11:0.8519241 12:0.8148354 13:0.1482009 14:0.2 15:0.1 16:0.5686359 17:0.0995525 18:0 19:0.2076945 20:0.0018608 22:0 
-1 1:0.02142822 2:-8.290452e-05 3:8.15045e-06 4:-0.1306963 5:0.000476317 6:-4.402421e-06 7:0.07214451 8:-9.230637e-05 9:2.233354e-06 10:1 11:0 12:0 13:0.4828994 14:0 15:0 16:0.6512772 17:0.2373648 18:0.25 19:0.1234525 20:0.0002322737 21:0.4 22:0 
-1 1:0.02428615 2:-0.01034551 3:0.01140679 4:-0.2152392 5:0.08613431 6:-0.008822098 7:0.1698749 8:-0.0241482 9:0.006411585 10:1 11:0 12:0 13:0.4739857 14:0 15:0 16:0.8347816 17:0.3926991 18:0.25 19:0.138107 20:0.0003638001 21:0 22:0 
-1 1:0.03285766 2:-0.01413236 3:0.01587003 4:-0.1508975 5:0.06146211 6:-0.006407723 7:0.0624572 8:-0.009031396 9:0.002439379 10:1 11:0 12:0 13:0.4749413 14:0 15:0 16:0.7528029 17:0.3205707 18:0.25 19:0.206151 20:0.001806101 21:0 22:0 
-1 1:0.02428536 2:-0.01442327 3:0.02279027 4:-0.2939607 5:0.168352 6:-0.02471676 7:0.3245137 8:-0.06603345 9:0.02513769 10:1 11:0 12:0 13:1 14:0 15:0 16:0.6451122 17:0.4413808 18:0.6666667 19:0.1279215 20:0.0002677773 21:0 22:0 
-1 1:0.03142883 2:-0.01561498 3:0.02010574 4:-0.1920625 5:0.08966085 6:-0.01071744 7:0.1045931 8:-0.01733362 9:0.005367771 10:1 11:0 12:0 13:0.4669006 14:0 15:0 16:0.7647258 17:0.4021239 18:0.5 19:0.1778172 20:0.0009997593 21:0 22:0 
-1 1:0.05000105 2:-0.009431997 3:0.004683362 4:-0.1060077 5:0.01897675 6:-0.0008720253 7:0.02034362 8:-0.001288948 9:0.0001529758 10:1 11:0.8063879 12:0.7669692 13:0.1974062 14:0 15:0.1 16:0.7260731 17:0.1947268 18:0 19:0.2453597 20:0.003624207 21:0 22:0 
-0.8666375460029614 1:0.0614297 2:-0.01365255 3:0.007933884 4:-0.1166933 5:0.02449393 6:-0.001318636 7:0.01999004 8:-0.001486692 9:0.0002069303 10:1 11:0.7510204 12:0.7814842 13:0.2773385 14:0.2 15:0 16:0.7134721 17:0.2271813 18:0 19:0.2482439 20:0.003797645 21:0 22:0 
-1 1:0.07000163 2:-0.01667179 3:0.0103025 4:-0.1129336 5:0.02520609 6:-0.001443115 7:0.01627189 8:-0.001286672 9:0.0001904578 10:1 11:0.8082027 12:0.7524411 13:0.1438169 14:0.2 15:0.1 16:0.8293941 17:0.1701817 18:0.1111111 19:0.2383307 20:0.003226413 21:0 22:0 
-1 1:0.03714187 2:-0.03994988 3:0.1158756 4:-0.4325085 5:0.4553957 6:-0.1227012 7:0.4664594 8:-0.1744663 9:0.1218592 10:1 11:0 12:0 13:0.1357075 14:0 15:0 16:0.6638692 17:0.3820177 18:0.6666667 19:0.1249582 20:0.000243814 21:0 22:0 
-1 1:0.05285767 2:-0.03577498 3:0.06367347 4:-0.2617804 5:0.1691677 6:-0.02797757 7:0.1172495 8:-0.02692327 9:0.01154617 10:1 11:0.7537659 12:0 13:0.08663993 14:0 15:0.1 16:0.6979615 17:0.2277655 18:0.4 19:0.1489581 20:0.0004923299 21:0 22:0 
-1 1:0.05428535 2:-0.002300594 3:0.0003134459 4:-0.0156662 5:0.000617217 6:-7.203898e-06 7:0.0005215887 8:-6.717441e-06 9:1.846064e-07 10:1 11:0.8357952 12:0.8244223 13:0.2232221 14:0.1 15:0 16:0.5488333 17:0.239217 18:0.1666667 19:0.5890212 20:0.1203715 21:0 22:0 
-1 1:0.08857375 2:-0.003368381 3:0.0003790168 4:-0.1005306 5:0.003811813 6:-3.931179e-05 7:0.01099591 8:-0.00014562 9:3.837736e-06 10:1 11:0 12:0.8252048 13:0.4961271 14:0 15:0.1 16:0.5522442 17:0.1333574 18:0.09090909 19:0.2820414 20:0.006327783 21:0 22:0 
-1 1:0.1600008 2:-0.01717776 3:0.005164158 4:-0.1156505 5:0.0124995 6:-0.0003473401 7:0.008075318 8:-0.0003084195 9:2.210343e-05 10:1 11:0.8577757 12:0.823213 13:0.173597 14:0.2 15:0.1 16:0.5594762 17:0.0772111 18:0.07692308 19:0.2782929 20:0.005998025 21:0 22:0 
-1 1:0.07285724 2:-0.01909259 3:0.01388388 4:-0.001066976 5:0.0002313792 6:-1.216583e-05 7:0.0001530628 8:-1.435377e-05 9:2.514505e-06 10:1 11:0.8499029 12:0 13:0.1009704 14:0.3 15:0 16:0.5254716 17:0.1663139 18:0 19:0.2630951 20:0.004791276 21:0.3 22:0 
-1 1:0.1642888 2:-0.02449939 3:0.01034748 4:-0.1294771 5:0.01981081 6:-0.0007763717 7:0.010013 8:-0.0005436959 9:5.517662e-05 10:1 11:0.855513 12:0.7948455 13:0.09968197 14:0.1 15:0.1 16:0.5373204 17:0.07004146 18:0.07692308 19:0.231971 20:0.002895575 21:0 22:0 
-1 1:0.0457157 2:-0.02264037 3:0.03172017 4:-0.000291141 5:8.84987e-05 6:-3.763707e-06 7:5.133852e-05 8:-9.289618e-06 9:3.141293e-06 10:1 11:0.8416994 12:0 13:0.09999071 14:0 15:0 16:0.4994848 17:0.2230717 18:0.1428571 19:0.1630742 20:0.0007071978 21:0.6 22:0 
-1 1:0.06857114 2:-0.0035555 3:0.0005472369 4:-0.08815242 5:0.004704931 6:-6.645209e-05 7:0.01125591 8:-0.0002105048 9:7.61012e-06 10:1 11:0 12:0.8442501 13:0.5060205 14:0 15:0.2 16:0.6190336 17:0.1859823 18:0.1111111 19:0.2766652 20:0.005858931 21:0 22:0 
-1 1:0.1057154 2:-0.009535 3:0.002560118 4:-0.1026211 5:0.009905512 6:-0.000245878 7:0.01017944 8:-0.0003473757 9:2.224586e-05 10:1 11:0.819879 12:0.832865 13:0.4297848 14:0.1 15:0.1 16:0.5870627 17:0.1123322 18:0.06666667 19:0.2606906 20:0.004618506 21:0 22:0 
-1 1:0.06285733 2:-0.01854392 3:0.01545229 4:-0.002225847 5:0.0006055849 6:-4.164246e-05 7:0.0001002884 8:-1.058952e-05 9:2.089683e-06 10:1 11:0.8152103 12:0 13:0.0983654 14:0.1 15:0 16:0.5936396 17:0.1932545 18:0 19:0.227178 20:0.002663576 21:0.2307692 22:0 
-1 1:0.08428776 2:-0.04318226 3:0.06454813 4:-0.2838535 5:0.15401 6:-0.02138118 7:0.09593174 8:-0.01848591 9:0.006651682 10:1 11:0.842995 12:0.7381136 13:0.1552307 14:0 15:0 16:0.6330842 17:0.1531573 18:0.2857143 19:0.1595432 20:0.0006479086 21:0 22:0 
-1 1:0.1271432 2:-0.03031881 3:0.02072319 4:-0.07883873 5:0.01950647 6:-0.001236079 7:0.004907547 8:-0.0004304948 9:7.057645e-05 10:1 11:0.8401273 12:0 13:0.09827651 14:0.2 15:0 16:0.6246415 17:0.11044 18:0.1 19:0.2168828 20:0.002212586 21:0 22:0 
-1 1:0.04571506 2:-0.002822866 3:0.0005243892 4:-0.01138664 5:0.0006916624 6:-1.124071e-05 7:0.0003743383 8:-7.867347e-06 9:3.236171e-07 10:1 11:0.7936577 12:0 13:0.09812929 14:0.1 15:0 16:0.5382673 17:0.275377 18:0.3333333 19:0.5265344 20:0.07686116 21:0 22:0 
-1 1:0.1399958 2:-0.00389764 3:0.0003240936 4:-0.1445561 5:0.004095843 6:-3.122773e-05 7:0.01471494 8:-0.0001456845 9:2.838656e-06 10:1 11:0 12:0.8581033 13:0.503671 14:0 15:0.4 16:0.5763198 17:0.09681123 18:0.07692308 19:0.2494096 20:0.00386948 21:0 22:0 
-1 1:0.08714017 2:-0.01884817 3:0.01173932 4:-0.2770055 5:0.06257918 6:-0.003619366 7:0.08733607 8:-0.007006466 9:0.001050134 10:1 11:0 12:0.8515732 13:0.5065613 14:0 15:0.1 16:0.5441282 17:0.1411262 18:0 19:0.1776383 20:0.0009957416 21:0 22:0 
-1 1:0.151425 2:-0.01987001 3:0.007555208 4:-0.205358 5:0.02826752 6:-0.0009976384 7:0.02772635 8:-0.001354737 9:0.0001238515 10:1 11:0.8108338 12:0.8506438 13:0.1310946 14:0.3 15:0.1 16:0.548908 17:0.07940658 18:0.1666667 19:0.2009393 20:0.001630269 21:0 22:0 
-1 1:0.02142829 2:-0.0006794577 3:6.743152e-05 4:-0.1139378 5:0.00367185 6:-3.377473e-05 7:0.05871148 8:-0.0006701383 9:1.594029e-05 10:1 11:0 12:0 13:1 14:0 15:0 16:0.6819111 17:0.4363323 18:0.6666667 19:0.1311863 20:0.0002961788 21:0 22:0 
-1 1:0.01999981 2:-0.008284502 3:0.009751822 4:-0.03972842 5:0.01695467 6:-0.001851988 7:0.007979087 8:-0.001208188 9:0.000341708 10:1 11:0 12:0 13:1 14:0 15:0 16:0.6893396 17:0.5983986 18:0.3333333 19:0.2944452 20:0.007516538 21:0 22:0 
-1 1:0.06428486 2:-0.008897507 3:0.003527207 4:-0.2627782 5:0.03733588 6:-0.001372598 7:0.1045245 8:-0.005266178 9:0.0005010298 10:1 11:0 12:0.8097067 13:0.5070717 14:0 15:0.1 16:0.7174516 17:0.2661267 18:0.1428571 19:0.1795373 20:0.001039007 21:0 22:0 
-1 1:0.09285714 2:-0.008372073 3:0.002153083 4:-0.06239705 5:0.005692692 6:-0.0001343203 7:0.0041664 8:-0.0001334891 9:8.066449e-06 10:1 11:0.8427764 12:0.8342385 13:0.1230797 14:0.2 15:0.1 16:0.6578298 17:0.1424759 18:0.1111111 19:0.3511921 20:0.01521175 21:0 22:0 
-1 1:0.03571345 2:-0.0223434 3:0.03934111 4:-0.238024 5:0.1520717 6:-0.02486667 7:0.1533174 8:-0.03478664 9:0.01474205 10:1 11:0 12:0 13:0.1063686 14:0.1 15:0 16:0.6550636 17:0.3846848 18:0.2 19:0.1426326 20:0.0004138811 21:0 22:0 
-1 1:0.02428497 2:-0.03744699 3:0.1619039 4:-0.4455139 5:0.6994824 6:-0.2809553 7:0.7871915 8:-0.4390714 9:0.4572132 10:1 11:0 12:0 13:0.05007736 14:0 15:0 16:0.746481 17:0.4844179 18:0.6666667 19:0.1018148 20:0.0001074593 21:0 22:0 
-1 1:0.1000007 2:-0.02191676 3:0.01347741 4:-0.08102734 5:0.01801149 6:-0.00102584 7:0.0064578 8:-0.0005083283 9:7.481202e-05 10:1 11:0.8232281 12:0 13:0.0999278 14:0.1 15:0.1 16:0.64184 17:0.1385997 18:0.2222222 19:0.2556013 20:0.004268271 21:0 22:0 
-1 1:0.0485706 2:-0.04309835 3:0.1063635 4:-0.2863098 5:0.2565529 6:-0.05881379 7:0.1615479 8:-0.0514198 9:0.03055655 10:1 11:0.724091 12:0 13:0.07994219 14:0 15:0 16:0.6995185 17:0.3152463 18:0.2 19:0.1594493 20:0.0006463841 21:0 22:0 
-1 1:0.07857002 2:-0.02532532 3:0.02297976 4:-0.1189226 5:0.03909719 6:-0.0032902 7:0.01751539 8:-0.002042201 9:0.0004447871 10:1 11:0.8177369 12:0.7286197 13:0.09879591 14:0.1 15:0 16:0.6615677 17:0.1568929 18:0.1111111 19:0.2144498 20:0.002114962 21:0 22:0 
-1 1:0.1128543 2:-0.002371944 3:0.0001803116 4:-0.05106086 5:0.001106329 6:-7.781712e-06 7:0.002410613 8:-1.80037e-05 9:3.241042e-07 10:1 11:0 12:0.8550333 13:0.508938 14:0 15:0.1 16:0.5951478 17:0.1012084 18:0.25 19:0.4346533 20:0.03569208 21:0 22:0 
-1 1:0.05428552 2:-0.008384368 3:0.003771372 4:-0.2740899 5:0.0439663 6:-0.001838682 7:0.1358665 8:-0.007747669 9:0.0008406517 10:1 11:0 12:0.8419473 13:0.5067353 14:0 15:0.2 16:0.6057603 17:0.2310744 18:0.1666667 19:0.1778692 20:0.001000928 21:0 22:0 
-1 1:0.04999962 2:-0.0199727 3:0.02278537 4:-0.3810674 5:0.1574183 6:-0.01668696 7:0.2840655 8:-0.0416963 9:0.01146113 10:1 11:0 12:0.8336251 13:0.6346651 14:0 15:0.1 16:0.5909412 17:0.2350852 18:0.4 19:0.1431606 20:0.0004200427 21:0 22:0 
-1 1:0.1099994 2:-0.013358 3:0.0046569 4:-0.01147467 5:0.001367518 6:-4.215596e-05 7:0.000150091 8:-6.177751e-06 9:4.790031e-07 10:1 11:0.8444917 12:0 13:0.09903409 14:0.2 15:0 16:0.6146494 17:0.1435908 18:0.08333334 19:0.254496 20:0.004194924 21:0 22:0 
-1 1:0.1842876 2:-0.02166753 3:0.00719347 4:-0.1163492 5:0.0139475 6:-0.0004290112 7:0.00722175 8:-0.000306638 9:2.438025e-05 10:1 11:0.8228639 12:0.8415568 13:0.09950898 14:0.2 15:0.2 16:0.606087 17:0.0965845 18:0.1538462 19:0.2706944 20:0.005369292 21:0 22:0 
-1 1:0.1814258 2:-0.02571823 3:0.01037895 4:-0.188068 5:0.02730327 6:-0.001022009 7:0.01894937 8:-0.0009756027 9:9.451701e-05 10:1 11:0.8519891 12:0.8485671 13:0.775658 14:0.2 15:0.1 16:0.6079151 17:0.08771268 18:0.2307692 19:0.2390923 20:0.00326785 21:0 22:0 
-1 1:0.09000018 2:-0.04562397 3:0.06518643 4:-0.1803092 5:0.09349376 6:-0.01240621 7:0.03526292 8:-0.00649352 9:0.002233139 10:1 11:0.799941 12:0 13:0.09965713 14:0.2 15:0 16:0.6416808 17:0.2049916 18:0.2857143 19:0.1982179 20:0.001543732 21:0 22:0 
-1 1:0.05428466 2:-0.07397915 3:0.2914019 4:-0.6795422 5:0.9713704 6:-0.3554546 7:0.8438573 8:-0.4285219 9:0.4065294 10:1 11:0 12:0 13:1 14:0 15:0 16:0.5738143 17:0.3313398 18:0.2 19:0.124429 20:0.0002397104 21:0 22:0 
-1 1:0.05857053 2:-0.001565105 3:0.000229728 4:-0.314236 5:0.008198206 6:-0.0001120124 7:0.1566234 8:-0.001442933 9:5.121189e-05 10:1 11:0 12:0.8155637 13:0.4913281 14:0 15:0.1 16:0.7092761 17:0.2514633 18:0.1666667 19:0.2035448 20:0.001716487 21:0 22:0 
-1 1:0.02285652 2:-0.002333844 3:0.0006616982 4:-0.1049746 5:0.01036253 6:-0.0002725436 7:0.0443046 8:-0.00155055 9:0.0001055442 10:1 11:0 12:0.7243032 13:0.4852261 14:0 15:0.1 16:0.691973 17:0.522609 18:0.3333333 19:0.1962628 20:0.001483719 21:0 22:0 
-1 1:0.05428667 2:-0.008963242 3:0.003911045 4:-0.09570232 5:0.01504582 6:-0.0006090068 7:0.01560871 8:-0.0008704162 9:9.11906e-05 10:1 11:0 12:0 13:0.473617 14:0 15:0 16:0.8318809 17:0.3807991 18:0.4 19:0.3002266 20:0.008124502 21:0 22:0 
-1 1:0.08142976 2:-0.004006845 3:0.0005753431 4:-0.2013859 5:0.009795591 6:-0.0001297971 7:0.04696728 8:-0.0008053947 9:2.747997e-05 10:1 11:0 12:0.863263 13:0.4857595 14:0 15:0.3 16:0.6587266 17:0.2230717 18:0.2222222 19:0.2116944 20:0.002008342 21:0 22:0 
-1 1:0.05999983 2:-0.01259976 3:0.006980173 4:-0.069742 5:0.0139203 6:-0.0007143093 7:0.007485894 8:-0.0005289808 9:7.014334e-05 10:1 11:0.8414962 12:0 13:0.1052253 14:0.2 15:0 16:0.7616087 17:0.3212732 18:0.2 19:0.2953726 20:0.007611689 21:0 22:0 
-1 1:0.1900055 2:-0.01635518 3:0.003834021 4:-0.1839888 5:0.01546055 6:-0.0003372397 7:0.01655535 8:-0.0004950988 9:2.804592e-05 10:1 11:0.809411 12:0.8273965 13:0.2753046 14:0.2 15:0.2 16:0.7144724 17:0.09439321 18:0.3 19:0.2584781 20:0.004463699 21:0 22:0 
-1 1:0.107144 2:-0.009635792 3:0.002378252 4:-0.1802601 5:0.01593613 6:-0.0003638912 7:0.02838236 8:-0.0008877856 9:5.23389e-05 10:1 11:0.7255642 12:0.8332814 13:0.4876265 14:0.1 15:0.3 16:0.6980481 17:0.1651628 18:0.1818182 19:0.2294845 20:0.002773406 21:0 22:0 
-1 1:0.332849 2:-0.01589419 3:0.002053372 4:-0.05407241 5:0.002523439 6:-3.06971e-05 7:0.0008923098 8:-1.503107e-05 9:4.809325e-07 10:1 11:0.8433945 12:0.7908615 13:0.09730439 14:0.4 15:0.4 16:0.7590983 17:0.06424052 18:0.2352941 19:0.3383786 20:0.01311026 21:0 22:0 
-1 1:0.04714268 2:-0.01961881 3:0.02159277 4:-0.01013492 5:0.003974708 6:-0.0003992094 7:0.0003392794 8:-4.744504e-05 9:1.24003e-05 10:1 11:0.837303 12:0 13:0.1061947 14:0.1 15:0 16:0.7670121 17:0.3152463 18:0.4 19:0.2338684 20:0.002991483 21:0 22:0 
-1 1:0.04571429 2:-0.0126716 3:0.009468392 4:-0.1476329 5:0.03993244 6:-0.002767624 7:0.04414336 8:-0.004235174 9:0.0007597913 10:1 11:0.8147925 12:0.7987279 13:0.8751066 14:0.1 15:0 16:0.7241948 17:0.2434734 18:0.1428571 19:0.196267 20:0.001483848 21:0 22:0 
-1 1:0.1642875 2:-0.02312924 3:0.008873628 4:-0.2732159 5:0.03793103 6:-0.001352463 7:0.04252728 8:-0.002098427 9:0.0001940652 10:1 11:0.8172778 12:0.8302193 13:0.3520869 14:0.2 15:0.3 16:0.7503702 17:0.1228724 18:0 19:0.2004786 20:0.001615371 21:0 22:0 
-1 1:0.03999945 2:-0.02821856 3:0.05478238 4:-0.3025054 5:0.2131533 6:-0.03843235 7:0.2162809 8:-0.05412441 9:0.02529288 10:1 11:0 12:0.7280129 13:0.4707745 14:0 15:0.1 16:0.7117917 17:0.307178 18:0 19:0.1393665 20:0.0003772536 21:0 22:0 
-1 1:0.07571483 2:-0.0319376 3:0.03649425 4:-0.202399 5:0.08392172 6:-0.008907313 7:0.05042167 8:-0.007426041 9:0.002043072 10:1 11:0.7868407 12:0.8309898 13:0.2499211 14:0.1 15:0.1 16:0.6850882 17:0.1988847 18:0.2857143 19:0.1694066 20:0.0008236086 21:0 22:0 
-1 1:0.08142712 2:-0.02997371 3:0.03010852 4:-0.001787535 5:0.0006053291 6:-5.208741e-05 7:0.0001898701 8:-2.490286e-05 9:6.100508e-06 10:1 11:0.8321849 12:0 13:0.1023666 14:0.1 15:0 16:0.6450196 17:0.1793061 18:0 19:0.2282176 20:0.002712668 21:0.2307692 22:0 
-1 1:0.08714087 2:-0.04386733 3:0.06012151 4:-0.1719724 5:0.08553343 6:-0.01089136 7:0.03182136 8:-0.005622805 9:0.001856289 10:1 11:0.7980863 12:0 13:0.1021903 14:0.1 15:0 16:0.7270434 17:0.1994003 18:0.2857143 19:0.1608835 20:0.0006699563 21:0 22:0 
-1 1:0.02428527 2:-0.07105677 3:0.5586797 4:-0.2232835 5:0.6374093 6:-0.4655722 7:0.1895053 8:-0.1921825 9:0.3639123 10:1 11:0 12:0 13:1 14:0 15:0 16:0.8686538 17:0.4750991 18:0.6666667 19:0.09947296 20:9.790846e-05 21:0 22:0 
-1 1:0.05857098 2:-0.05799678 3:0.1554372 4:-0.2874604 5:0.2795463 6:-0.06959921 7:0.1310985 8:-0.04528924 9:0.02923139 10:1 11:0.7293806 12:0 13:0.08074273 14:0.1 15:0 16:0.7890151 17:0.4038779 18:0.3333333 19:0.1323019 20:0.0003063823 21:0 22:0 
-1 1:0.08428725 2:-0.05940085 3:0.1138963 4:-0.08177495 5:0.05681717 6:-0.01011648 7:0.00746943 8:-0.001843045 9:0.0008504582 10:1 11:0.7268873 12:0 13:0.1015917 14:0.1 15:0 16:0.7910458 17:0.266407 18:0.2857143 19:0.1344869 20:0.0003271296 21:0 22:0 
-1 1:0.09428288 2:-0.0554895 3:0.0897017 4:-0.1018017 5:0.05971599 6:-0.008964233 7:0.01051041 8:-0.002189467 9:0.0008517641 10:1 11:0.8351784 12:0 13:0.1019691 14:0.2 15:0 16:0.70009 17:0.2102597 18:0.2857143 19:0.1631144 20:0.0007078951 21:0 22:0 
-0.1014078283270231 1:0.01000019 2:-0.0004826989 3:7.682903e-05 4:-0.1979642 5:0.009931192 6:-0.0001468321 7:0.3854166 8:-0.006864644 9:0.0002630949 10:1 11:0 12:0 13:1 14:0 15:0 16:0.61319 17:0.6961978 18:0.6666667 19:0.08818049 20:6.046305e-05 21:0 22:0 
-1 1:0.1214285 2:-0.003068986 3:0.0002552077 4:-0.05252963 5:0.001346552 6:-9.99821e-06 7:0.002317638 8:-2.040168e-05 9:3.778008e-07 10:1 11:0.8287374 12:0.8355469 13:0.5539925 14:0.1 15:0.3 16:0.697226 17:0.1062246 18:0.1818182 19:0.4316634 20:0.03472009 21:0 22:0 
-1 1:0.03285743 2:-0.02181748 3:0.04158374 4:-0.2073955 5:0.1431493 6:-0.02534397 7:0.1288178 8:-0.03158301 9:0.01449465 10:1 11:0 12:0 13:1 14:0 15:0 16:0.6484531 17:0.3820177 18:0.6666667 19:0.1771781 20:0.0009854629 21:0 22:0 
-1 1:0.05714257 2:-0.009913801 3:0.00489241 4:-0.2128097 5:0.03782349 6:-0.001731191 7:0.07696352 8:-0.004851572 9:0.0005747302 10:1 11:0 12:0.8436397 13:0.5051025 14:0 15:0.3 16:0.6651286 17:0.2401631 18:0 19:0.1860806 20:0.001198959 21:0 22:0 
-1 1:0.05428448 2:-0.02213571 3:0.02575459 4:-0.1586479 5:0.06697317 6:-0.007238082 7:0.04560275 8:-0.006838183 9:0.001915702 10:1 11:0.8353633 12:0 13:0.9944308 14:0.2 15:0 16:0.6379907 17:0.3577204 18:0.4 19:0.1934842 20:0.001401463 21:0 22:0 
-0.6027023928111893 1:0.02571495 2:-0.02969414 3:0.09767073 4:-0.1441001 5:0.1721271 6:-0.05260748 7:0.07905179 8:-0.03355235 9:0.02659076 10:1 11:0.7307307 12:0 13:0.09931557 14:0 15:0 16:0.6522688 17:0.4145157 18:1 19:0.1160762 20:0.0001815399 21:0 22:0 
-1 1:0.03142839 2:-0.001550779 3:0.000219693 4:-0.3411571 5:0.01643222 6:-0.0002158146 7:0.3429596 8:-0.005854134 9:0.0001989182 10:1 11:0 12:0 13:1 14:0 15:0 16:0.7447742 17:0.4624424 18:0.25 19:0.09943676 20:9.7766e-05 21:0 22:0 
-1 1:0.05714159 2:-0.001533284 3:0.0001369588 4:-0.03041287 5:0.0007728183 6:-6.085824e-06 7:0.001586285 8:-1.378031e-05 9:2.658435e-07 10:1 11:0 12:0.8592927 13:0.4910733 14:0 15:0.2 16:0.8664013 17:0.2336722 18:0.1428571 19:0.4541216 20:0.04252934 21:0 22:0 
-1 1:0.09142777 2:-0.005554307 3:0.0009524459 4:-0.2764764 5:0.01636972 6:-0.0002597533 7:0.07749454 8:-0.001622285 9:6.646807e-05 10:1 11:0 12:0.8036849 13:0.483563 14:0 15:0.1 16:0.7452783 17:0.154663 18:0.1111111 19:0.1954652 20:0.001459748 21:0 22:0 
-1 1:0.03571534 2:-0.00993582 3:0.007325345 4:-0.04205581 5:0.01122449 6:-0.0007675192 7:0.004646944 8:-0.0004400957 9:7.793005e-05 10:1 11:0.8117242 12:0 13:0.1036872 14:0.2 15:0 16:0.8800376 17:0.224266 18:0.1666667 19:0.2813239 20:0.006263631 21:0 22:0 
-1 1:0.03142892 2:-0.01415293 3:0.01679889 4:-0.258272 5:0.1111443 6:-0.01225061 7:0.1920338 8:-0.02934536 9:0.008381983 10:1 11:0 12:0 13:0.4699025 14:0 15:0 16:0.7692885 17:0.5463639 18:0.25 19:0.1431445 20:0.0004198547 21:0 22:0 
-1 1:0.06714171 2:-0.01427005 3:0.008031141 4:-0.05590557 5:0.01144874 6:-0.0006018592 7:0.00431031 8:-0.000315336 9:4.321402e-05 10:1 11:0.8447256 12:0 13:0.1030979 14:0.2 15:0 16:0.8567949 17:0.2401631 18:0.2857143 19:0.2163949 20:0.002192744 21:0 22:0 
-1 1:0.02714348 2:-0.02344282 3:0.05401187 4:-0.4104363 5:0.3430784 6:-0.07342687 7:0.5681806 8:-0.1687076 9:0.09360111 10:1 11:0 12:0 13:0.4835409 14:0 15:0 16:0.7552198 17:0.6268938 18:0.3333333 19:0.1202449 20:0.0002090578 21:0 22:0 
-1 1:0.0385722 2:-0.020274 3:0.02756219 4:-0.1515835 5:0.07470318 6:-0.009427814 7:0.05291136 8:-0.009256582 9:0.003026382 10:1 11:0.7635794 12:0 13:0.184763 14:0.1 15:0 16:0.8098174 17:0.3792141 18:0.2 19:0.1742808 20:0.0009225683 21:0 22:0 
-1 1:0.05714347 2:-0.0207039 3:0.01983265 4:-0.1902219 5:0.06601354 6:-0.005868548 7:0.0574858 8:-0.007079895 9:0.00163003 10:1 11:0.8091134 12:0.7779347 13:0.1053582 14:0.1 15:0.2 16:0.7302857 17:0.2206904 18:0 19:0.1859327 20:0.001195151 21:0 22:0 
-1 1:0.02999912 2:-0.02715927 3:0.06474067 4:-0.1960875 5:0.1696488 6:-0.03755751 7:0.1159278 8:-0.03561999 9:0.0204376 10:1 11:0.762033 12:0 13:0.1043634 14:0 15:0 16:0.7689559 17:0.3903754 18:0.25 19:0.1408333 20:0.0003933884 21:0 22:0 
-1 1:0.07285574 2:-0.03294645 3:0.03924077 4:-0.164149 5:0.07087363 6:-0.007833724 7:0.03354058 8:-0.005138981 9:0.001470986 10:1 11:0.8010136 12:0.7168157 13:0.103363 14:0.2 15:0.1 16:0.7623932 17:0.1680687 18:0.1428571 19:0.1884902 20:0.001262278 21:0 22:0 
-1 1:0.06000183 2:-0.04381311 3:0.08382425 4:-0.3265901 5:0.2268523 6:-0.04031588 7:0.1601743 8:-0.03952061 9:0.01820664 10:1 11:0.8245229 12:0 13:0.05076111 14:0.1 15:0 16:0.8820583 17:0.2691192 18:0.3333333 19:0.1508377 20:0.0005176544 21:0 22:0 
-1 1:0.05571525 2:-0.02230528 3:0.02349301 4:-0.1123242 5:0.04290511 6:-0.004193611 7:0.02056577 8:-0.002787676 9:0.0007056212 10:1 11:0.8350829 12:0 13:0.104575 14:0.1 15:0.1 16:0.852629 17:0.1859823 18:0.1111111 19:0.2003334 20:0.001610696 21:0 22:0 
-0.995402553739457 1:0.05857269 2:-0.02223543 3:0.02278981 4:-0.1925889 5:0.0715096 6:-0.006802762 7:0.05866749 8:-0.007731621 9:0.001905094 10:1 11:0.8329067 12:0.850001 13:0.404485 14:0.1 15:0.1 16:0.6977239 17:0.199105 18:0 19:0.1802418 20:0.001055412 21:0 22:0 
-1 1:0.03142884 2:-0.04836467 3:0.1960486 4:-0.2517287 5:0.3705824 6:-0.1395556 7:0.182683 8:-0.09554264 9:0.09328053 10:1 11:0 12:0 13:1 14:0 15:0 16:0.8516957 17:0.2876797 18:0.25 19:0.1360335 20:0.0003424394 21:0 22:0 
-1 1:0.03999991 2:-0.04239397 3:0.1181817 4:-0.2777047 5:0.2809874 6:-0.07275564 7:0.1741809 8:-0.0625971 9:0.04201157 10:1 11:0.8198809 12:0 13:0.4709739 14:0 15:0 16:0.8338876 17:0.339985 18:0.2 19:0.1351143 20:0.000333277 21:0 22:0 
-1 1:0.03999922 2:-0.03425669 3:0.07697731 4:-0.1115675 5:0.09096085 6:-0.01897603 7:0.02810136 8:-0.008133922 9:0.00439633 10:1 11:0.8458604 12:0 13:0.1036279 14:0.2 15:0 16:0.9075909 17:0.3630285 18:0.2 19:0.1491446 20:0.0004948 21:0 22:0 
-0.8822574398259415 1:0.0257142 2:-0.06267002 3:0.4067949 4:-0.3105122 5:0.7319283 6:-0.441357 7:0.3431239 8:-0.2873201 9:0.4491556 10:1 11:0 12:0 13:0.1046361 14:0 15:0 16:0.7553016 17:0.5917681 18:0.3333333 19:0.10974 20:0.0001450306 21:0 22:0 
-1 1:0.08714482 2:-0.0005276843 3:5.628979e-05 4:-0.1050475 5:0.000606881 6:-5.976938e-06 7:0.01178298 8:-2.397015e-05 9:6.021742e-07 10:1 11:0 12:0.8379779 13:0.480892 14:0 15:0.1 16:0.5085058 17:0.09808462 18:0.5714286 19:0.3106339 20:0.00931098 21:0 22:0 
